{"learner":{"attributes":{},"feature_names":["MP_Playing","Min_Playing","Ast","PK","CrdR","Ast_Per","G+A_Per","xAG_Expected","xG_Per","xAG_Per","Sh_Standard_shoot","SoT_Standard_shoot","SoT_percent_Standard_shoot","Sh_per_90_Standard_shoot","SoT_per_90_Standard_shoot","prior_market_value_eur","age_years","peak_distance","contract_years_remaining","tenure_at_selling_club_years","pos_forward","pos_midfielder","pos_defender","season_numeric","league_premier_league","league_serie_a","league_ligue_1","league_laliga","league_bundesliga"],"feature_types":["float","float","float","float","float","float","float","float","float","float","float","float","float","float","float","float","int","int","float","float","int","int","int","int","int","int","int","int","int"],"gradient_booster":{"model":{"gbtree_model_param":{"num_parallel_tree":"1","num_trees":"400"},"iteration_indptr":[0,1,2,3,4,5,6,7,8,9,10,11,12,13,14,15,16,17,18,19,20,21,22,23,24,25,26,27,28,29,30,31,32,33,34,35,36,37,38,39,40,41,42,43,44,45,46,47,48,49,50,51,52,53,54,55,56,57,58,59,60,61,62,63,64,65,66,67,68,69,70,71,72,73,74,75,76,77,78,79,80,81,82,83,84,85,86,87,88,89,90,91,92,93,94,95,96,97,98,99,100,101,102,103,104,105,106,107,108,109,110,111,112,113,114,115,116,117,118,119,120,121,122,123,124,125,126,127,128,129,130,131,132,133,134,135,136,137,138,139,140,141,142,143,144,145,146,147,148,149,150,151,152,153,154,155,156,157,158,159,160,161,162,163,164,165,166,167,168,169,170,171,172,173,174,175,176,177,178,179,180,181,182,183,184,185,186,187,188,189,190,191,192,193,194,195,196,197,198,199,200,201,202,203,204,205,206,207,208,209,210,211,212,213,214,215,216,217,218,219,220,221,222,223,224,225,226,227,228,229,230,231,232,233,234,235,236,237,238,239,240,241,242,243,244,245,246,247,248,249,250,251,252,253,254,255,256,257,258,259,260,261,262,263,264,265,266,267,268,269,270,271,272,273,274,275,276,277,278,279,280,281,282,283,284,285,286,287,288,289,290,291,292,293,294,295,296,297,298,299,300,301,302,303,304,305,306,307,308,309,310,311,312,313,314,315,316,317,318,319,320,321,322,323,324,325,326,327,328,329,330,331,332,333,334,335,336,337,338,339,340,341,342,343,344,345,346,347,348,349,350,351,352,353,354,355,356,357,358,359,360,361,362,363,364,365,366,367,368,369,370,371,372,373,374,375,376,377,378,379,380,381,382,383,384,385,386,387,388,389,390,391,392,393,394,395,396,397,398,399,400],"tree_info":[0,0,0,0,0,0,0,0,0,0,0,0,0,0,0,0,0,0,0,0,0,0,0,0,0,0,0,0,0,0,0,0,0,0,0,0,0,0,0,0,0,0,0,0,0,0,0,0,0,0,0,0,0,0,0,0,0,0,0,0,0,0,0,0,0,0,0,0,0,0,0,0,0,0,0,0,0,0,0,0,0,0,0,0,0,0,0,0,0,0,0,0,0,0,0,0,0,0,0,0,0,0,0,0,0,0,0,0,0,0,0,0,0,0,0,0,0,0,0,0,0,0,0,0,0,0,0,0,0,0,0,0,0,0,0,0,0,0,0,0,0,0,0,0,0,0,0,0,0,0,0,0,0,0,0,0,0,0,0,0,0,0,0,0,0,0,0,0,0,0,0,0,0,0,0,0,0,0,0,0,0,0,0,0,0,0,0,0,0,0,0,0,0,0,0,0,0,0,0,0,0,0,0,0,0,0,0,0,0,0,0,0,0,0,0,0,0,0,0,0,0,0,0,0,0,0,0,0,0,0,0,0,0,0,0,0,0,0,0,0,0,0,0,0,0,0,0,0,0,0,0,0,0,0,0,0,0,0,0,0,0,0,0,0,0,0,0,0,0,0,0,0,0,0,0,0,0,0,0,0,0,0,0,0,0,0,0,0,0,0,0,0,0,0,0,0,0,0,0,0,0,0,0,0,0,0,0,0,0,0,0,0,0,0,0,0,0,0,0,0,0,0,0,0,0,0,0,0,0,0,0,0,0,0,0,0,0,0,0,0,0,0,0,0,0,0,0,0,0,0,0,0,0,0,0,0,0,0,0,0,0,0,0,0,0,0,0,0,0,0,0,0,0,0,0,0,0,0,0,0,0,0,0,0,0,0,0,0,0,0,0,0,0,0,0,0,0,0,0,0],"trees":[{"base_weights":[-1.6991477E-3,-6.838086E-1,8.816303E-1,-1.1317399E0,-2.7895823E-1,5.534518E-1,1.5787504E0,-8.221813E-1,-1.7662178E0,-4.4566342E-1,1.664023E-1,5.955601E-1,-7.6807517E-1,1.3296278E0,1.8985715E0,-4.472997E-2,3.4511883E-3,-8.146652E-2,-2.1453798E-1,-3.512819E-2,-1.5503188E-2,2.8621727E-3,2.9659811E-2,2.360919E-2,4.594458E-2,-5.561025E-2,2.7118279E-2,5.655052E-2,8.3509855E-2,8.119882E-2,1.0897555E-1],"categories":[],"categories_nodes":[],"categories_segments":[],"categories_sizes":[],"default_left":[0,0,0,0,0,0,0,0,0,0,0,0,0,0,0,0,0,0,0,0,0,0,0,0,0,0,0,0,0,0,0],"id":0,"left_children":[1,3,5,7,9,11,13,15,17,19,21,23,25,27,29,-1,-1,-1,-1,-1,-1,-1,-1,-1,-1,-1,-1,-1,-1,-1,-1],"loss_changes":[1.0218868E3,1.7323157E2,1.6819452E2,8.77171E1,3.749308E1,2.8503677E1,1.6278809E1,1.9875336E1,4.415445E1,1.25668335E1,6.395234E0,1.9073029E1,7.818609E0,7.310425E0,4.252136E0,0E0,0E0,0E0,0E0,0E0,0E0,0E0,0E0,0E0,0E0,0E0,0E0,0E0,0E0,0E0,0E0],"parents":[2147483647,0,0,1,1,2,2,3,3,4,4,5,5,6,6,7,7,8,8,9,9,10,10,11,11,12,12,13,13,14,14],"right_children":[2,4,6,8,10,12,14,16,18,20,22,24,26,28,30,-1,-1,-1,-1,-1,-1,-1,-1,-1,-1,-1,-1,-1,-1,-1,-1],"split_conditions":[6.5E6,3E6,1.8E7,2.6E1,8E0,3.1E1,3E7,1E0,8E0,1.07E3,1E0,1E0,1.15E7,8E0,7E0,-4.472997E-2,3.4511883E-3,-8.146652E-2,-2.1453798E-1,-3.512819E-2,-1.5503188E-2,2.8621727E-3,2.9659811E-2,2.360919E-2,4.594458E-2,-5.561025E-2,2.7118279E-2,5.655052E-2,8.3509855E-2,8.119882E-2,1.0897555E-1],"split_indices":[15,15,15,16,18,16,15,24,19,1,24,24,15,18,18,0,0,0,0,0,0,0,0,0,0,0,0,0,0,0,0],"split_type":[0,0,0,0,0,0,0,0,0,0,0,0,0,0,0,0,0,0,0,0,0,0,0,0,0,0,0,0,0,0,0],"sum_hessian":[1.694E3,9.56E2,7.38E2,4.53E2,5.03E2,5.03E2,2.35E2,3.06E2,1.47E2,3.66E2,1.37E2,4.88E2,1.5E1,1.35E2,1E2,2.83E2,2.3E1,1.41E2,6E0,1.25E2,2.41E2,1.1E2,2.7E1,3.55E2,1.33E2,1.2E1,3E0,8.8E1,4.7E1,5.4E1,4.6E1],"tree_param":{"num_deleted":"0","num_feature":"29","num_nodes":"31","size_leaf_vector":"1"}},{"base_weights":[-8.5331936E-4,-7.352316E-1,7.886948E-1,-1.1144568E0,-3.0819938E-1,3.751181E-1,1.4009565E0,-8.186175E-1,-1.7428292E0,-3.1781055E-2,-4.9838996E-1,5.447728E-1,1.12496994E-1,1.1385038E0,1.800094E0,-1.1012649E-2,-4.8485458E-2,-8.063524E-2,-2.2659826E-1,-7.814011E-3,2.5305733E-2,-1.4754571E-2,-3.3575088E-2,3.9086882E-2,1.4020795E-2,-4.629696E-3,1.9147443E-2,6.647564E-2,3.7829768E-2,1.0377681E-1,7.2139405E-2],"categories":[],"categories_nodes":[],"categories_segments":[],"categories_sizes":[],"default_left":[0,0,0,0,0,0,0,0,0,0,0,0,0,0,0,0,0,0,0,0,0,0,0,0,0,0,0,0,0,0,0],"id":1,"left_children":[1,3,5,7,9,11,13,15,17,19,21,23,25,27,29,-1,-1,-1,-1,-1,-1,-1,-1,-1,-1,-1,-1,-1,-1,-1,-1],"loss_changes":[9.7700854E2,1.4103131E2,2.0508676E2,8.4457825E1,2.164389E1,2.15924E1,3.2205383E1,2.8355316E1,4.6042603E1,1.1396613E1,8.38903E0,1.826056E1,1.06851635E1,1.3583679E1,9.602844E0,0E0,0E0,0E0,0E0,0E0,0E0,0E0,0E0,0E0,0E0,0E0,0E0,0E0,0E0,0E0,0E0],"parents":[2147483647,0,0,1,1,2,2,3,3,4,4,5,5,6,6,7,7,8,8,9,9,10,10,11,11,12,12,13,13,14,14],"right_children":[2,4,6,8,10,12,14,16,18,20,22,24,26,28,30,-1,-1,-1,-1,-1,-1,-1,-1,-1,-1,-1,-1,-1,-1,-1,-1],"split_conditions":[5.2E6,3E6,1.5E7,2.6E1,2.4E1,2.018E3,2.6E7,2E1,8E0,3.4E1,2.017E3,2.5E1,1E7,2.019E3,2.019E3,-1.1012649E-2,-4.8485458E-2,-8.063524E-2,-2.2659826E-1,-7.814011E-3,2.5305733E-2,-1.4754571E-2,-3.3575088E-2,3.9086882E-2,1.4020795E-2,-4.629696E-3,1.9147443E-2,6.647564E-2,3.7829768E-2,1.0377681E-1,7.2139405E-2],"split_indices":[15,15,15,16,16,23,15,16,19,0,23,16,15,23,23,0,0,0,0,0,0,0,0,0,0,0,0,0,0,0,0],"split_type":[0,0,0,0,0,0,0,0,0,0,0,0,0,0,0,0,0,0,0,0,0,0,0,0,0,0,0,0,0,0,0],"sum_hessian":[1.683E3,8.72E2,8.11E2,4.61E2,4.11E2,4.85E2,3.26E2,3.15E2,1.46E2,1.68E2,2.43E2,2.94E2,1.91E2,1.99E2,1.27E2,6.4E1,2.51E2,1.41E2,5E0,1.37E2,3.1E1,1.13E2,1.3E2,1.54E2,1.4E2,1.09E2,8.2E1,1.31E2,6.8E1,6.9E1,5.8E1],"tree_param":{"num_deleted":"0","num_feature":"29","num_nodes":"31","size_leaf_vector":"1"}},{"base_weights":[7.620946E-3,-3.6558905E-1,3.342236E-1,-2.770055E-1,-1.7374521E0,1.7018695E-1,9.095696E-1,-1.19451016E-1,-5.8969766E-1,-9.626646E-1,-2.4398458E0,2.8236374E-1,-4.080866E-1,5.9066653E-1,1.4095249E0,6.1435846E-4,-2.4700807E-2,-2.8023297E-2,-9.403642E-2,-2.2784105E-2,-8.13436E-2,-9.537853E-2,-2.040489E-1,2.1797849E-2,-1.0458847E-2,-1.0244021E-2,-5.575886E-2,3.7692953E-2,-7.2273547E-3,4.412837E-2,7.973402E-2],"categories":[],"categories_nodes":[],"categories_segments":[],"categories_sizes":[],"default_left":[0,0,0,0,0,0,0,0,0,0,0,0,0,0,0,0,0,0,0,0,0,0,0,0,0,0,0,0,0,0,0],"id":2,"left_children":[1,3,5,7,9,11,13,15,17,19,21,23,25,27,29,-1,-1,-1,-1,-1,-1,-1,-1,-1,-1,-1,-1,-1,-1,-1,-1],"loss_changes":[2.0319322E2,9.406478E1,8.374709E1,3.5992306E1,2.3228928E1,4.5069366E1,3.0576584E1,2.40862E1,8.191986E0,7.34046E0,1.3180054E1,4.3955124E1,1.6007948E1,1.4746689E1,6.0078278E0,0E0,0E0,0E0,0E0,0E0,0E0,0E0,0E0,0E0,0E0,0E0,0E0,0E0,0E0,0E0,0E0],"parents":[2147483647,0,0,1,1,2,2,3,3,4,4,5,5,6,6,7,7,8,8,9,9,10,10,11,11,12,12,13,13,14,14],"right_children":[2,4,6,8,10,12,14,16,18,20,22,24,26,28,30,-1,-1,-1,-1,-1,-1,-1,-1,-1,-1,-1,-1,-1,-1,-1,-1],"split_conditions":[5E0,3.1E1,2.3E1,2.6E1,1E0,2.8E1,6.6E-1,1E0,1.8E-1,1E0,7E0,1E0,3.1E1,1E0,1E0,6.1435846E-4,-2.4700807E-2,-2.8023297E-2,-9.403642E-2,-2.2784105E-2,-8.13436E-2,-9.537853E-2,-2.040489E-1,2.1797849E-2,-1.0458847E-2,-1.0244021E-2,-5.575886E-2,3.7692953E-2,-7.2273547E-3,4.412837E-2,7.973402E-2],"split_indices":[11,16,11,16,22,16,6,26,9,25,19,26,16,26,19,0,0,0,0,0,0,0,0,0,0,0,0,0,0,0,0],"split_type":[0,0,0,0,0,0,0,0,0,0,0,0,0,0,0,0,0,0,0,0,0,0,0,0,0,0,0,0,0,0,0],"sum_hessian":[1.665E3,7.77E2,8.88E2,7.31E2,4.6E1,6.92E2,1.96E2,4.87E2,2.44E2,2.3E1,2.3E1,5.8E2,1.12E2,1.21E2,7.5E1,3.61E2,1.26E2,2.4E2,4E0,1.4E1,9E0,1.9E1,4E0,4.42E2,1.38E2,8.8E1,2.4E1,9.9E1,2.2E1,2.1E1,5.4E1],"tree_param":{"num_deleted":"0","num_feature":"29","num_nodes":"31","size_leaf_vector":"1"}},{"base_weights":[1.3959838E-2,-6.033284E-1,8.15173E-1,-1.0206568E0,-2.1150234E-1,5.3784233E-1,1.4918861E0,-7.040749E-1,-1.5817907E0,6.388642E-2,-4.0309075E-1,3.8661778E-1,9.0121394E-1,1.7528223E0,1.1474574E0,-3.957742E-2,1.4664726E-2,-7.333113E-2,-1.8509133E-1,-2.9596273E-2,5.9244526E-3,-2.8131425E-2,-9.527417E-3,1.2514497E-2,3.7766468E-2,5.276334E-2,2.782989E-2,8.0422275E-2,1.1818693E-1,4.9266137E-2,8.24016E-2],"categories":[],"categories_nodes":[],"categories_segments":[],"categories_sizes":[],"default_left":[0,0,0,0,0,0,0,0,0,0,0,0,0,0,0,0,0,0,0,0,0,0,0,0,0,0,0,0,0,0,0],"id":3,"left_children":[1,3,5,7,9,11,13,15,17,19,21,23,25,27,29,-1,-1,-1,-1,-1,-1,-1,-1,-1,-1,-1,-1,-1,-1,-1,-1],"loss_changes":[8.467172E2,1.5790811E2,1.3901422E2,8.202411E1,2.6406399E1,2.8775436E1,1.740149E1,2.6492416E1,3.5589813E1,7.4468026E0,9.895809E0,1.8710835E1,7.6414566E0,6.8704834E0,6.167572E0,0E0,0E0,0E0,0E0,0E0,0E0,0E0,0E0,0E0,0E0,0E0,0E0,0E0,0E0,0E0,0E0],"parents":[2147483647,0,0,1,1,2,2,3,3,4,4,5,5,6,6,7,7,8,8,9,9,10,10,11,11,12,12,13,13,14,14],"right_children":[2,4,6,8,10,12,14,16,18,20,22,24,26,28,30,-1,-1,-1,-1,-1,-1,-1,-1,-1,-1,-1,-1,-1,-1,-1,-1],"split_conditions":[6.5E6,3E6,2E7,2.6E1,2.4E1,1.3E7,2.019E3,1E0,8E0,5E0,4.75E6,1E0,2.019E3,5E7,4.2E7,-3.957742E-2,1.4664726E-2,-7.333113E-2,-1.8509133E-1,-2.9596273E-2,5.9244526E-3,-2.8131425E-2,-9.527417E-3,1.2514497E-2,3.7766468E-2,5.276334E-2,2.782989E-2,8.0422275E-2,1.1818693E-1,4.9266137E-2,8.24016E-2],"split_indices":[15,15,15,16,16,15,23,24,19,18,15,24,23,15,15,0,0,0,0,0,0,0,0,0,0,0,0,0,0,0,0],"split_type":[0,0,0,0,0,0,0,0,0,0,0,0,0,0,0,0,0,0,0,0,0,0,0,0,0,0,0,0,0,0,0],"sum_hessian":[1.71E3,9.66E2,7.44E2,4.67E2,4.99E2,5.29E2,2.15E2,3E2,1.67E2,2.05E2,2.94E2,3.75E2,1.54E2,1.2E2,9.5E1,2.76E2,2.4E1,1.6E2,7E0,1.5E1,1.9E2,1.67E2,1.27E2,2.75E2,1E2,1.05E2,4.9E1,1E2,2E1,7.4E1,2.1E1],"tree_param":{"num_deleted":"0","num_feature":"29","num_nodes":"31","size_leaf_vector":"1"}},{"base_weights":[3.3887986E-2,-6.2188685E-1,7.0131886E-1,-9.2816097E-1,-2.911179E-1,4.3314603E-1,1.424777E0,-8.0956435E-1,-2.1057477E0,-1.6266415E-1,-6.863151E-1,2.951437E-1,8.1085277E-1,1.6211224E0,1.1592071E0,-5.23031E-3,-4.6955958E-2,-8.619602E-2,-2.555607E-1,-1.2532222E-2,1.1423363E-2,-3.151427E-2,-9.437328E-2,1.9755287E-3,2.5452493E-2,3.199042E-2,5.483331E-2,7.06949E-2,9.311529E-2,4.9818236E-2,8.1667975E-2],"categories":[],"categories_nodes":[],"categories_segments":[],"categories_sizes":[],"default_left":[0,0,0,0,0,0,0,0,0,0,0,0,0,0,0,0,0,0,0,0,0,0,0,0,0,0,0,0,0,0,0],"id":4,"left_children":[1,3,5,7,9,11,13,15,17,19,21,23,25,27,29,-1,-1,-1,-1,-1,-1,-1,-1,-1,-1,-1,-1,-1,-1,-1,-1],"loss_changes":[7.4274884E2,8.644769E1,1.6254684E2,6.0303284E1,2.0854134E1,3.1817192E1,9.957336E0,3.6890717E1,3.7091446E1,1.0828175E1,5.6076736E0,2.4695927E1,7.315773E0,3.7642212E0,6.093796E0,0E0,0E0,0E0,0E0,0E0,0E0,0E0,0E0,0E0,0E0,0E0,0E0,0E0,0E0,0E0,0E0],"parents":[2147483647,0,0,1,1,2,2,3,3,4,4,5,5,6,6,7,7,8,8,9,9,10,10,11,11,12,12,13,13,14,14],"right_children":[2,4,6,8,10,12,14,16,18,20,22,24,26,28,30,-1,-1,-1,-1,-1,-1,-1,-1,-1,-1,-1,-1,-1,-1,-1,-1],"split_conditions":[5.4E6,3E6,2E7,3.1E1,2.8E1,1E0,1E0,2E1,8E0,1E0,1.9E-1,1E7,1.15E7,3E7,4.2E7,-5.23031E-3,-4.6955958E-2,-8.619602E-2,-2.555607E-1,-1.2532222E-2,1.1423363E-2,-3.151427E-2,-9.437328E-2,1.9755287E-3,2.5452493E-2,3.199042E-2,5.483331E-2,7.06949E-2,9.311529E-2,4.9818236E-2,8.1667975E-2],"split_indices":[15,15,15,16,16,24,7,16,19,24,9,15,15,15,15,0,0,0,0,0,0,0,0,0,0,0,0,0,0,0,0],"split_type":[0,0,0,0,0,0,0,0,0,0,0,0,0,0,0,0,0,0,0,0,0,0,0,0,0,0,0,0,0,0,0],"sum_hessian":[1.695E3,8.55E2,8.4E2,4.43E2,4.12E2,6.14E2,2.26E2,4.04E2,3.9E1,3.12E2,1E2,4.51E2,1.63E2,1.27E2,9.9E1,6.3E1,3.41E2,3.6E1,3E0,2.55E2,5.7E1,9.7E1,3E0,2.06E2,2.45E2,1.04E2,5.9E1,7.2E1,5.5E1,7.6E1,2.3E1],"tree_param":{"num_deleted":"0","num_feature":"29","num_nodes":"31","size_leaf_vector":"1"}},{"base_weights":[1.2110572E-3,-1.866157E-1,6.99737E-1,-1.1653216E-1,-1.5061829E0,8.349493E-1,-4.0787846E-2,-2.5284943E-1,4.1565406E-1,-1.9318459E0,-4.6151605E-1,3.7771198E-1,1.0026859E0,-9.706717E-2,2.7817488E-2,-1.7464023E-2,4.8111524E-3,6.212248E-3,4.250984E-2,-1.8659179E-1,-8.17879E-2,-3.0648578E-2,6.4189844E-2,8.3060125E-3,4.0912654E-2,4.4633012E-2,7.5887054E-2,-1.4579045E-2,1.4740134E-2],"categories":[],"categories_nodes":[],"categories_segments":[],"categories_sizes":[],"default_left":[0,0,0,0,0,0,0,0,0,0,0,0,0,0,0,0,0,0,0,0,0,0,0,0,0,0,0,0,0],"id":5,"left_children":[1,3,5,7,9,11,13,15,17,19,21,23,25,-1,27,-1,-1,-1,-1,-1,-1,-1,-1,-1,-1,-1,-1,-1,-1],"loss_changes":[2.2474815E2,1.2467242E2,3.638057E1,9.318185E1,2.9346405E1,2.3166763E1,7.486133E0,3.443557E1,3.307135E1,1.9477463E1,6.3380117E0,7.6941185E0,1.1339081E1,0E0,4.861338E0,0E0,0E0,0E0,0E0,0E0,0E0,0E0,0E0,0E0,0E0,0E0,0E0,0E0,0E0],"parents":[2147483647,0,0,1,1,2,2,3,3,4,4,5,5,6,6,7,7,8,8,9,9,10,10,11,11,12,12,14,14],"right_children":[2,4,6,8,10,12,14,16,18,20,22,24,26,-1,28,-1,-1,-1,-1,-1,-1,-1,-1,-1,-1,-1,-1,-1,-1],"split_conditions":[1E0,3.1E1,2.8E1,1.6E1,1.864E3,1.193E3,2E0,1.8E1,5.8E-1,2.015E3,1.1E0,4E0,2E-1,-9.706717E-2,4E0,-1.7464023E-2,4.8111524E-3,6.212248E-3,4.250984E-2,-1.8659179E-1,-8.17879E-2,-3.0648578E-2,6.4189844E-2,8.3060125E-3,4.0912654E-2,4.4633012E-2,7.5887054E-2,-1.4579045E-2,1.4740134E-2],"split_indices":[24,16,16,11,1,1,18,10,6,23,6,11,5,0,11,0,0,0,0,0,0,0,0,0,0,0,0,0,0],"split_type":[0,0,0,0,0,0,0,0,0,0,0,0,0,0,0,0,0,0,0,0,0,0,0,0,0,0,0,0,0],"sum_hessian":[1.711E3,1.349E3,3.62E2,1.282E3,6.7E1,3.06E2,5.6E1,1.021E3,2.61E2,4.7E1,2E1,8.3E1,2.23E2,1E0,5.5E1,8E2,2.21E2,1.57E2,1.04E2,5E0,4.2E1,1.9E1,1E0,5.7E1,2.6E1,1.86E2,3.7E1,2.5E1,3E1],"tree_param":{"num_deleted":"0","num_feature":"29","num_nodes":"29","size_leaf_vector":"1"}},{"base_weights":[-9.555346E-3,-5.507845E-1,7.041991E-1,-9.216926E-1,-1.8861069E-1,4.656944E-1,1.2937003E0,-6.332135E-1,-1.4278811E0,-3.3233714E-1,1.8688764E-1,5.61535E-1,1.1776015E-1,1.1306388E0,1.6647075E0,-3.494041E-2,1.2116831E-2,-6.62817E-2,-1.8243082E-1,-3.441374E-3,-2.2310523E-2,-3.2760238E-3,1.463701E-2,1.6596012E-2,3.593083E-2,5.6895206E-4,2.4801087E-2,4.1105617E-2,6.766347E-2,8.442617E-2,3.167445E-2],"categories":[],"categories_nodes":[],"categories_segments":[],"categories_sizes":[],"default_left":[0,0,0,0,0,0,0,0,0,0,0,0,0,0,0,0,0,0,0,0,0,0,0,0,0,0,0,0,0,0,0],"id":6,"left_children":[1,3,5,7,9,11,13,15,17,19,21,23,25,27,29,-1,-1,-1,-1,-1,-1,-1,-1,-1,-1,-1,-1,-1,-1,-1,-1],"loss_changes":[6.547881E2,1.2932336E2,1.0217529E2,6.860364E1,2.6452974E1,1.73406E1,1.0822144E1,1.7685936E1,3.421823E1,1.0591663E1,3.6528344E0,1.4513397E1,4.581702E0,9.121887E0,4.530182E-1,0E0,0E0,0E0,0E0,0E0,0E0,0E0,0E0,0E0,0E0,0E0,0E0,0E0,0E0,0E0,0E0],"parents":[2147483647,0,0,1,1,2,2,3,3,4,4,5,5,6,6,7,7,8,8,9,9,10,10,11,11,12,12,13,13,14,14],"right_children":[2,4,6,8,10,12,14,16,18,20,22,24,26,28,30,-1,-1,-1,-1,-1,-1,-1,-1,-1,-1,-1,-1,-1,-1,-1,-1],"split_conditions":[6.5E6,3E6,2E7,2.6E1,8E0,1.2E0,8E0,1E0,8E0,2.4E1,4E6,1E7,1.5E7,3E7,3.183E3,-3.494041E-2,1.2116831E-2,-6.62817E-2,-1.8243082E-1,-3.441374E-3,-2.2310523E-2,-3.2760238E-3,1.463701E-2,1.6596012E-2,3.593083E-2,5.6895206E-4,2.4801087E-2,4.1105617E-2,6.766347E-2,8.442617E-2,3.167445E-2],"split_indices":[15,15,15,16,18,7,18,24,19,16,15,15,15,15,1,0,0,0,0,0,0,0,0,0,0,0,0,0,0,0,0],"split_type":[0,0,0,0,0,0,0,0,0,0,0,0,0,0,0,0,0,0,0,0,0,0,0,0,0,0,0,0,0,0,0],"sum_hessian":[1.693E3,9.63E2,7.3E2,4.75E2,4.88E2,5.21E2,2.09E2,3.04E2,1.71E2,3.53E2,1.35E2,4.08E2,1.13E2,1.48E2,6.1E1,2.83E2,2.1E1,1.65E2,6E0,1.07E2,2.46E2,4E1,9.5E1,1.67E2,2.41E2,8.9E1,2.4E1,6.4E1,8.4E1,5.9E1,2E0],"tree_param":{"num_deleted":"0","num_feature":"29","num_nodes":"31","size_leaf_vector":"1"}},{"base_weights":[-1.7907174E-2,-6.4212745E-1,5.0710076E-1,-8.509177E-1,-3.0676645E-1,1.7956413E-1,1.0284696E0,-8.1311834E-1,-3.2997153E0,-4.4285008E-1,8.67287E-3,5.0909493E-2,4.8681602E-1,8.4294385E-1,1.4002386E0,-4.5885485E-2,-1.20833805E-2,1.3520479E-3,-2.9007712E-1,-2.0503258E-2,-5.3041052E-2,-6.4739757E-3,2.9191298E-2,-3.872656E-3,1.3253763E-2,2.5327925E-2,-2.271006E-2,-1.0058079E-2,4.4206873E-2,6.386096E-2,9.8700635E-2],"categories":[],"categories_nodes":[],"categories_segments":[],"categories_sizes":[],"default_left":[0,0,0,0,0,0,0,0,0,0,0,0,0,0,0,0,0,0,0,0,0,0,0,0,0,0,0,0,0,0,0],"id":7,"left_children":[1,3,5,7,9,11,13,15,17,19,21,23,25,27,29,-1,-1,-1,-1,-1,-1,-1,-1,-1,-1,-1,-1,-1,-1,-1,-1],"loss_changes":[5.61711E2,5.4564728E1,1.5879976E2,4.1932312E1,1.2967529E1,2.2625551E1,2.3580872E1,2.822818E1,5.8417664E1,3.8398895E0,7.3858004E0,1.1154337E1,3.3697662E0,1.058638E1,5.807846E0,0E0,0E0,0E0,0E0,0E0,0E0,0E0,0E0,0E0,0E0,0E0,0E0,0E0,0E0,0E0,0E0],"parents":[2147483647,0,0,1,1,2,2,3,3,4,4,5,5,6,6,7,7,8,8,9,9,10,10,11,11,12,12,13,13,14,14],"right_children":[2,4,6,8,10,12,14,16,18,20,22,24,26,28,30,-1,-1,-1,-1,-1,-1,-1,-1,-1,-1,-1,-1,-1,-1,-1,-1],"split_conditions":[5E6,3E6,1.3E7,8E0,8E0,8E0,2.6E7,7E0,3E0,3.1E0,6E0,8.5E6,3.2E0,2E0,6.5E7,-4.5885485E-2,-1.20833805E-2,1.3520479E-3,-2.9007712E-1,-2.0503258E-2,-5.3041052E-2,-6.4739757E-3,2.9191298E-2,-3.872656E-3,1.3253763E-2,2.5327925E-2,-2.271006E-2,-1.0058079E-2,4.4206873E-2,6.386096E-2,9.8700635E-2],"split_indices":[15,15,15,19,18,18,15,17,17,7,17,15,7,18,15,0,0,0,0,0,0,0,0,0,0,0,0,0,0,0,0],"split_type":[0,0,0,0,0,0,0,0,0,0,0,0,0,0,0,0,0,0,0,0,0,0,0,0,0,0,0,0,0,0,0],"sum_hessian":[1.712E3,7.82E2,9.3E2,4.81E2,3.01E2,5.72E2,3.58E2,4.75E2,6E0,2.1E2,9.1E1,4.04E2,1.68E2,2.41E2,1.17E2,4.01E2,7.4E1,3E0,3E0,2.01E2,9E0,7.4E1,1.7E1,2.53E2,1.51E2,1.65E2,3E0,9E0,2.32E2,9.9E1,1.8E1],"tree_param":{"num_deleted":"0","num_feature":"29","num_nodes":"31","size_leaf_vector":"1"}},{"base_weights":[-1.0532759E-2,-5.142051E-1,6.389001E-1,-8.4065014E-1,-2.0716524E-1,4.2529994E-1,1.1899358E0,-7.975101E-1,-4.641405E0,1.18823545E-2,-3.5571235E-1,2.619033E-1,6.310261E-1,1.4395615E0,8.559123E-1,-1.8035248E-2,-4.9179606E-2,-2.791992E-1,-2.1777201E-2,-4.251846E-3,2.083253E-2,-1.9647202E-2,1.590369E-2,2.194622E-2,-2.0369415E-3,2.7366921E-2,4.3711524E-2,6.3235216E-2,8.5046105E-2,4.4791922E-2,-1.1822009E-2],"categories":[],"categories_nodes":[],"categories_segments":[],"categories_sizes":[],"default_left":[0,0,0,0,0,0,0,0,0,0,0,0,0,0,0,0,0,0,0,0,0,0,0,0,0,0,0,0,0,0,0],"id":8,"left_children":[1,3,5,7,9,11,13,15,17,19,21,23,25,27,29,-1,-1,-1,-1,-1,-1,-1,-1,-1,-1,-1,-1,-1,-1,-1,-1],"loss_changes":[5.564008E2,9.584776E1,8.6946014E1,7.237811E1,1.6110975E1,1.7885963E1,1.602768E1,3.703473E1,1.738971E1,7.9206285E0,7.5254097E0,1.614367E1,4.345215E0,3.1958313E0,4.1806335E0,0E0,0E0,0E0,0E0,0E0,0E0,0E0,0E0,0E0,0E0,0E0,0E0,0E0,0E0,0E0,0E0],"parents":[2147483647,0,0,1,1,2,2,3,3,4,4,5,5,6,6,7,7,8,8,9,9,10,10,11,11,12,12,13,13,14,14],"right_children":[2,4,6,8,10,12,14,16,18,20,22,24,26,28,30,-1,-1,-1,-1,-1,-1,-1,-1,-1,-1,-1,-1,-1,-1,-1,-1],"split_conditions":[6.5E6,2.8E6,2E7,8E0,2.4E1,1.1E7,2.019E3,2.2E1,2.7E-1,3.4E1,9E0,2.018E3,1E0,3.2E7,3E1,-1.8035248E-2,-4.9179606E-2,-2.791992E-1,-2.1777201E-2,-4.251846E-3,2.083253E-2,-1.9647202E-2,1.590369E-2,2.194622E-2,-2.0369415E-3,2.7366921E-2,4.3711524E-2,6.3235216E-2,8.5046105E-2,4.4791922E-2,-1.1822009E-2],"split_indices":[15,15,15,19,16,15,23,16,14,0,18,23,24,15,16,0,0,0,0,0,0,0,0,0,0,0,0,0,0,0,0],"split_type":[0,0,0,0,0,0,0,0,0,0,0,0,0,0,0,0,0,0,0,0,0,0,0,0,0,0,0,0,0,0,0],"sum_hessian":[1.699E3,9.57E2,7.42E2,4.63E2,4.94E2,5.36E2,2.06E2,4.59E2,4E0,2E2,2.94E2,3E2,2.36E2,1.16E2,9E1,1.38E2,3.21E2,3E0,1E0,1.62E2,3.8E1,2.79E2,1.5E1,1.89E2,1.11E2,1.78E2,5.8E1,7.3E1,4.3E1,8.7E1,3E0],"tree_param":{"num_deleted":"0","num_feature":"29","num_nodes":"31","size_leaf_vector":"1"}},{"base_weights":[1.3881621E-2,-5.238687E-1,5.6326324E-1,-8.910032E-1,-2.8047934E-1,2.5014517E-1,9.6626353E-1,-3.743608E-1,-1.1254417E0,-3.658401E-1,8.385935E-2,1.3620482E-1,5.879151E-1,7.896243E-1,1.2962676E0,-5.4940175E-2,-1.3124126E-2,-9.1697805E-2,-4.338115E-2,-6.3585653E-3,-2.6063818E-2,-1.0778477E-2,1.8201523E-2,1.3196166E-2,-1.0113542E-2,3.3082638E-2,1.6940063E-2,4.7427867E-2,2.2470465E-2,7.729119E-2,4.9066756E-2],"categories":[],"categories_nodes":[],"categories_segments":[],"categories_sizes":[],"default_left":[0,0,0,0,0,0,0,0,0,0,0,0,0,0,0,0,0,0,0,0,0,0,0,0,0,0,0,0,0,0,0],"id":9,"left_children":[1,3,5,7,9,11,13,15,17,19,21,23,25,27,29,-1,-1,-1,-1,-1,-1,-1,-1,-1,-1,-1,-1,-1,-1,-1,-1],"loss_changes":[4.9632227E2,7.561386E1,1.04619415E2,4.0517517E1,1.5953995E1,1.796968E1,2.0136292E1,8.38387E0,4.078784E1,1.5329292E1,8.299824E0,1.5270205E1,1.9433823E0,1.2496765E1,8.307205E0,0E0,0E0,0E0,0E0,0E0,0E0,0E0,0E0,0E0,0E0,0E0,0E0,0E0,0E0,0E0,0E0],"parents":[2147483647,0,0,1,1,2,2,3,3,4,4,5,5,6,6,7,7,8,8,9,9,10,10,11,11,12,12,13,13,14,14],"right_children":[2,4,6,8,10,12,14,16,18,20,22,24,26,28,30,-1,-1,-1,-1,-1,-1,-1,-1,-1,-1,-1,-1,-1,-1,-1,-1],"split_conditions":[5.4E6,2.4E6,1.3E7,2.2E1,1E0,1E0,2.6E7,7.4E1,1.2E6,2.4E1,4E0,2.019E3,2.651E3,2.019E3,2.019E3,-5.4940175E-2,-1.3124126E-2,-9.1697805E-2,-4.338115E-2,-6.3585653E-3,-2.6063818E-2,-1.0778477E-2,1.8201523E-2,1.3196166E-2,-1.0113542E-2,3.3082638E-2,1.6940063E-2,4.7427867E-2,2.2470465E-2,7.729119E-2,4.9066756E-2],"split_indices":[15,15,15,16,24,24,15,1,15,16,11,23,1,23,23,0,0,0,0,0,0,0,0,0,0,0,0,0,0,0,0],"split_type":[0,0,0,0,0,0,0,0,0,0,0,0,0,0,0,0,0,0,0,0,0,0,0,0,0,0,0,0,0,0,0],"sum_hessian":[1.678E3,8.48E2,8.3E2,3.37E2,5.11E2,4.68E2,3.62E2,1.06E2,2.31E2,4.14E2,9.7E1,3.51E2,1.17E2,2.38E2,1.24E2,1.3E1,9.3E1,6E1,1.71E2,1.64E2,2.5E2,4.7E1,5E1,2.55E2,9.6E1,8.9E1,2.8E1,1.61E2,7.7E1,6.7E1,5.7E1],"tree_param":{"num_deleted":"0","num_feature":"29","num_nodes":"31","size_leaf_vector":"1"}},{"base_weights":[-4.8087817E-3,-5.8011955E-1,4.4104698E-1,-6.719753E-1,8.7687716E-2,1.7738865E-1,9.036544E-1,-6.047469E-1,-1.5810941E0,-1.3445996E-1,5.148223E-1,5.737971E-2,4.4871333E-1,6.537133E-1,1.0752698E0,-1.41572235E-2,-3.696078E-2,-1.0072096E-1,-3.04519E-2,-1.1004369E-2,2.7265146E-2,3.144741E-4,3.1830933E-2,-3.2977238E-3,1.4189854E-2,2.5080983E-2,-7.744956E-4,3.376891E-2,-2.912202E-2,4.673742E-2,6.863511E-2],"categories":[],"categories_nodes":[],"categories_segments":[],"categories_sizes":[],"default_left":[0,0,0,0,0,0,0,0,0,0,0,0,0,0,0,0,0,0,0,0,0,0,0,0,0,0,0,0,0,0,0],"id":10,"left_children":[1,3,5,7,9,11,13,15,17,19,21,23,25,27,29,-1,-1,-1,-1,-1,-1,-1,-1,-1,-1,-1,-1,-1,-1,-1,-1],"loss_changes":[4.3298083E2,4.526793E1,1.15833466E2,3.8648743E1,8.609049E0,1.9739012E1,1.4095428E1,2.5954193E1,1.7306664E1,3.6123948E0,1.9160547E0,1.1803069E1,4.575798E0,4.223068E0,7.2013702E0,0E0,0E0,0E0,0E0,0E0,0E0,0E0,0E0,0E0,0E0,0E0,0E0,0E0,0E0,0E0,0E0],"parents":[2147483647,0,0,1,1,2,2,3,3,4,4,5,5,6,6,7,7,8,8,9,9,10,10,11,11,12,12,13,13,14,14],"right_children":[2,4,6,8,10,12,14,16,18,20,22,24,26,28,30,-1,-1,-1,-1,-1,-1,-1,-1,-1,-1,-1,-1,-1,-1,-1,-1],"split_conditions":[4.75E6,1E0,1.3E7,3.1E1,8E0,8E0,2E7,2.2E1,1.7E-1,2.6E1,1E0,9E6,1E0,1.9E7,8E0,-1.41572235E-2,-3.696078E-2,-1.0072096E-1,-3.04519E-2,-1.1004369E-2,2.7265146E-2,3.144741E-4,3.1830933E-2,-3.2977238E-3,1.4189854E-2,2.5080983E-2,-7.744956E-4,3.376891E-2,-2.912202E-2,4.673742E-2,6.863511E-2],"split_indices":[15,24,15,16,18,18,15,16,6,10,11,15,27,15,18,0,0,0,0,0,0,0,0,0,0,0,0,0,0,0,0],"split_type":[0,0,0,0,0,0,0,0,0,0,0,0,0,0,0,0,0,0,0,0,0,0,0,0,0,0,0,0,0,0,0],"sum_hessian":[1.686E3,7.36E2,9.5E2,6.47E2,8.9E1,6.06E2,3.44E2,6.04E2,4.3E1,5.9E1,3E1,4.21E2,1.85E2,1.42E2,2.02E2,1.79E2,4.25E2,2.9E1,1.4E1,5.3E1,6E0,6E0,2.4E1,2.73E2,1.48E2,1.66E2,1.9E1,1.4E2,2E0,1.4E2,6.2E1],"tree_param":{"num_deleted":"0","num_feature":"29","num_nodes":"31","size_leaf_vector":"1"}},{"base_weights":[-1.1939994E-3,-4.2383248E-1,5.640793E-1,-8.406533E-1,-2.1053414E-1,2.832012E-1,8.44951E-1,-7.462746E-2,-9.8523045E-1,-1.4907102E-2,-3.448598E-1,3.7878835E-1,-2.4394738E-2,7.2540194E-1,1.154006E0,-4.5949157E-2,3.6919664E-3,-7.3339604E-2,-3.91824E-2,-7.5779194E-3,8.331017E-3,-2.1751171E-2,2.0140314E-3,1.0550776E-2,2.5570923E-2,1.705794E-3,-8.3703205E-2,4.8810404E-2,2.9793864E-2,6.664967E-2,4.63808E-2],"categories":[],"categories_nodes":[],"categories_segments":[],"categories_sizes":[],"default_left":[0,0,0,0,0,0,0,0,0,0,0,0,0,0,0,0,0,0,0,0,0,0,0,0,0,0,0,0,0,0,0],"id":11,"left_children":[1,3,5,7,9,11,13,15,17,19,21,23,25,27,29,-1,-1,-1,-1,-1,-1,-1,-1,-1,-1,-1,-1,-1,-1,-1,-1],"loss_changes":[4.0375174E2,8.5796234E1,5.679872E1,3.6141693E1,1.6838888E1,1.0682247E1,1.2500793E1,6.711872E0,2.554599E1,6.524413E0,1.3213268E1,6.055813E0,8.454628E0,7.9620056E0,2.7750702E0,0E0,0E0,0E0,0E0,0E0,0E0,0E0,0E0,0E0,0E0,0E0,0E0,0E0,0E0,0E0,0E0],"parents":[2147483647,0,0,1,1,2,2,3,3,4,4,5,5,6,6,7,7,8,8,9,9,10,10,11,11,12,12,13,13,14,14],"right_children":[2,4,6,8,10,12,14,16,18,20,22,24,26,28,30,-1,-1,-1,-1,-1,-1,-1,-1,-1,-1,-1,-1,-1,-1,-1,-1],"split_conditions":[7E6,2.3E6,1.3E7,2E1,2.4E1,2.019E3,3E7,7.4E1,1.2E6,4.5E6,1E0,8.5E6,3.2E1,2.017E3,2.019E3,-4.5949157E-2,3.6919664E-3,-7.3339604E-2,-3.91824E-2,-7.5779194E-3,8.331017E-3,-2.1751171E-2,2.0140314E-3,1.0550776E-2,2.5570923E-2,1.705794E-3,-8.3703205E-2,4.8810404E-2,2.9793864E-2,6.664967E-2,4.63808E-2],"split_indices":[15,15,15,16,16,23,15,1,15,15,24,15,16,23,23,0,0,0,0,0,0,0,0,0,0,0,0,0,0,0,0],"split_type":[0,0,0,0,0,0,0,0,0,0,0,0,0,0,0,0,0,0,0,0,0,0,0,0,0,0,0,0,0,0,0],"sum_hessian":[1.688E3,9.66E2,7.22E2,3.26E2,6.4E2,3.62E2,3.6E2,5.2E1,2.74E2,2.61E2,3.79E2,2.76E2,8.6E1,2.62E2,9.8E1,7E0,4.5E1,7.9E1,1.95E2,1.49E2,1.12E2,3.07E2,7.2E1,1.23E2,1.53E2,8.4E1,2E0,8.7E1,1.75E2,5.2E1,4.6E1],"tree_param":{"num_deleted":"0","num_feature":"29","num_nodes":"31","size_leaf_vector":"1"}},{"base_weights":[-1.9131884E-2,-4.962988E-1,4.62586E-1,-7.281229E-1,-2.2170237E-1,2.893911E-1,9.8993874E-1,-5.372356E-1,-1.0873097E0,-1.3001448E-1,-5.06014E-1,4.3614352E-1,8.095151E-2,1.2054639E0,6.939674E-1,-1.4306488E-2,-3.35448E-2,-9.371888E-2,-4.769781E-2,-4.1128423E-2,-4.5129796E-3,-2.1146094E-2,-7.4509166E-2,2.6111705E-2,6.4526573E-3,6.9786916E-3,-4.1820887E-2,5.345113E-2,8.053593E-2,3.6084328E-2,-1.7522527E-2],"categories":[],"categories_nodes":[],"categories_segments":[],"categories_sizes":[],"default_left":[0,0,0,0,0,0,0,0,0,0,0,0,0,0,0,0,0,0,0,0,0,0,0,0,0,0,0,0,0,0,0],"id":12,"left_children":[1,3,5,7,9,11,13,15,17,19,21,23,25,27,29,-1,-1,-1,-1,-1,-1,-1,-1,-1,-1,-1,-1,-1,-1,-1,-1],"loss_changes":[3.8938226E2,5.401158E1,7.6708786E1,3.1023956E1,1.0126774E1,1.9419315E1,1.2431595E1,9.9776E0,1.4900314E1,8.1028805E0,7.1385574E0,9.793816E0,1.4314216E1,4.858017E0,2.8584518E0,0E0,0E0,0E0,0E0,0E0,0E0,0E0,0E0,0E0,0E0,0E0,0E0,0E0,0E0,0E0,0E0],"parents":[2147483647,0,0,1,1,2,2,3,3,4,4,5,5,6,6,7,7,8,8,9,9,10,10,11,11,12,12,13,13,14,14],"right_children":[2,4,6,8,10,12,14,16,18,20,22,24,26,28,30,-1,-1,-1,-1,-1,-1,-1,-1,-1,-1,-1,-1,-1,-1,-1,-1],"split_conditions":[5.4E6,3E6,2E7,2.6E1,2.8E1,2.018E3,2.019E3,2.1E1,9E5,2E0,1.6E-1,2.7E1,3E1,4.5E7,3E1,-1.4306488E-2,-3.35448E-2,-9.371888E-2,-4.769781E-2,-4.1128423E-2,-4.5129796E-3,-2.1146094E-2,-7.4509166E-2,2.6111705E-2,6.4526573E-3,6.9786916E-3,-4.1820887E-2,5.345113E-2,8.053593E-2,3.6084328E-2,-1.7522527E-2],"split_indices":[15,15,15,16,16,23,23,16,15,0,9,16,16,15,16,0,0,0,0,0,0,0,0,0,0,0,0,0,0,0,0],"split_type":[0,0,0,0,0,0,0,0,0,0,0,0,0,0,0,0,0,0,0,0,0,0,0,0,0,0,0,0,0,0,0],"sum_hessian":[1.692E3,8.5E2,8.42E2,4.6E2,3.9E2,6.35E2,2.07E2,3.02E2,1.58E2,2.96E2,9.4E1,3.72E2,2.63E2,1.18E2,8.9E1,1.06E2,1.96E2,2.1E1,1.37E2,1.5E1,2.81E2,8.8E1,6E0,2.9E2,8.2E1,2.48E2,1.5E1,9.1E1,2.7E1,8.7E1,2E0],"tree_param":{"num_deleted":"0","num_feature":"29","num_nodes":"31","size_leaf_vector":"1"}},{"base_weights":[-5.809196E-3,-5.1890415E-1,3.6069304E-1,-4.5131537E-1,-1.2852929E0,1.3311414E-1,7.646234E-1,-5.1869917E-1,2.1224664E-1,-6.930571E-1,-1.9647641E0,2.6200324E-1,-8.118159E-2,5.949476E-1,9.9863213E-1,-1.03397565E-2,-3.2163363E-2,2.7163173E-3,2.4486346E-2,-5.4985624E-2,-1.5783723E-2,-6.2286176E-2,-1.5922692E-1,1.7761862E-2,5.772884E-4,-7.401473E-4,-4.053033E-2,-8.845105E-3,3.233899E-2,6.2484425E-2,4.213859E-2],"categories":[],"categories_nodes":[],"categories_segments":[],"categories_sizes":[],"default_left":[0,0,0,0,0,0,0,0,0,0,0,0,0,0,0,0,0,0,0,0,0,0,0,0,0,0,0,0,0,0,0],"id":13,"left_children":[1,3,5,7,9,11,13,15,17,19,21,23,25,27,29,-1,-1,-1,-1,-1,-1,-1,-1,-1,-1,-1,-1,-1,-1,-1,-1],"loss_changes":[3.204371E2,3.6197403E1,9.1272705E1,2.9352615E1,2.1575516E1,1.7615456E1,1.3620483E1,2.2945831E1,2.6464005E0,4.563718E0,1.88367E1,9.289658E0,1.160838E1,8.515816E0,4.777115E0,0E0,0E0,0E0,0E0,0E0,0E0,0E0,0E0,0E0,0E0,0E0,0E0,0E0,0E0,0E0,0E0],"parents":[2147483647,0,0,1,1,2,2,3,3,4,4,5,5,6,6,7,7,8,8,9,9,10,10,11,11,12,12,13,13,14,14],"right_children":[2,4,6,8,10,12,14,16,18,20,22,24,26,28,30,-1,-1,-1,-1,-1,-1,-1,-1,-1,-1,-1,-1,-1,-1,-1,-1],"split_conditions":[4.5E6,3.1E1,1.3E7,1E0,1E0,2.018E3,2.5E7,2.2E1,8E0,1.018E3,3.2E1,2.7E1,3E1,3E0,2.018E3,-1.03397565E-2,-3.2163363E-2,2.7163173E-3,2.4486346E-2,-5.4985624E-2,-1.5783723E-2,-6.2286176E-2,-1.5922692E-1,1.7761862E-2,5.772884E-4,-7.401473E-4,-4.053033E-2,-8.845105E-3,3.233899E-2,6.2484425E-2,4.213859E-2],"split_indices":[15,16,15,24,22,23,15,16,18,1,16,16,16,18,23,0,0,0,0,0,0,0,0,0,0,0,0,0,0,0,0],"split_type":[0,0,0,0,0,0,0,0,0,0,0,0,0,0,0,0,0,0,0,0,0,0,0,0,0,0,0,0,0,0,0],"sum_hessian":[1.702E3,7.09E2,9.93E2,6.53E2,5.6E1,6.36E2,3.57E2,5.93E2,6E1,3.1E1,2.5E1,3.97E2,2.39E2,2.09E2,1.48E2,1.7E2,4.23E2,3.9E1,2.1E1,1.4E1,1.7E1,1.7E1,8E0,2.89E2,1.08E2,2.2E2,1.9E1,1.3E1,1.96E2,5.4E1,9.4E1],"tree_param":{"num_deleted":"0","num_feature":"29","num_nodes":"31","size_leaf_vector":"1"}},{"base_weights":[8.71291E-3,-3.5018042E-1,4.5887113E-1,-5.754431E-1,-1.3400562E-1,2.090866E-1,7.33958E-1,-3.073847E-2,-6.64774E-1,-4.3194767E-2,-4.2677054E-1,2.4416928E-1,-6.959528E-1,6.590845E-1,1.3108535E0,4.244915E-3,-4.398587E-2,-5.8562934E-2,-2.7333958E-2,1.785986E-3,-1.6666649E-2,-3.0630795E-2,-8.386932E-3,1.4083122E-2,-2.233328E-2,3.7900829E-3,-4.9174093E-2,4.306256E-2,2.3320055E-2,5.1662404E-2,7.564091E-2],"categories":[],"categories_nodes":[],"categories_segments":[],"categories_sizes":[],"default_left":[0,0,0,0,0,0,0,0,0,0,0,0,0,0,0,0,0,0,0,0,0,0,0,0,0,0,0,0,0,0,0],"id":14,"left_children":[1,3,5,7,9,11,13,15,17,19,21,23,25,27,29,-1,-1,-1,-1,-1,-1,-1,-1,-1,-1,-1,-1,-1,-1,-1,-1],"loss_changes":[2.7351816E2,4.57946E1,5.1449585E1,2.2411377E1,1.279613E1,1.27116585E1,1.4556366E1,6.5541162E0,2.3045746E1,8.46057E0,5.385187E0,9.994314E0,3.4030771E0,1.1985733E1,6.795502E-1,0E0,0E0,0E0,0E0,0E0,0E0,0E0,0E0,0E0,0E0,0E0,0E0,0E0,0E0,0E0,0E0],"parents":[2147483647,0,0,1,1,2,2,3,3,4,4,5,5,6,6,7,7,8,8,9,9,10,10,11,11,12,12,13,13,14,14],"right_children":[2,4,6,8,10,12,14,16,18,20,22,24,26,28,30,-1,-1,-1,-1,-1,-1,-1,-1,-1,-1,-1,-1,-1,-1,-1,-1],"split_conditions":[6.5E6,2.8E6,1.3E7,2E1,2.019E3,3.1E1,4.2E7,1E0,1.2E6,2.8E1,2.02E3,3.9E0,5E-2,2.018E3,1.02E0,4.244915E-3,-4.398587E-2,-5.8562934E-2,-2.7333958E-2,1.785986E-3,-1.6666649E-2,-3.0630795E-2,-8.386932E-3,1.4083122E-2,-2.233328E-2,3.7900829E-3,-4.9174093E-2,4.306256E-2,2.3320055E-2,5.1662404E-2,7.564091E-2],"split_indices":[15,15,15,16,23,16,15,28,15,16,23,7,14,23,14,0,0,0,0,0,0,0,0,0,0,0,0,0,0,0,0],"split_type":[0,0,0,0,0,0,0,0,0,0,0,0,0,0,0,0,0,0,0,0,0,0,0,0,0,0,0,0,0,0,0],"sum_hessian":[1.691E3,9.41E2,7.5E2,4.6E2,4.81E2,3.94E2,3.56E2,6.5E1,3.95E2,3.68E2,1.13E2,3.8E2,1.4E1,3.17E2,3.9E1,5.8E1,7E0,7.3E1,3.22E2,2.9E2,7.8E1,6.5E1,4.8E1,3.61E2,1.9E1,4E0,1E1,1.53E2,1.64E2,1.9E1,2E1],"tree_param":{"num_deleted":"0","num_feature":"29","num_nodes":"31","size_leaf_vector":"1"}},{"base_weights":[4.462916E-3,-3.7121418E-1,4.2337456E-1,-6.9270283E-1,-1.9721825E-1,2.7717093E-1,8.4652054E-1,-1.8573743E-1,-8.695636E-1,-1.0335207E-1,-5.1927805E-1,1.8893522E-1,5.282234E-1,1.0228983E0,6.1044663E-1,3.5905782E-3,-2.7951155E-2,-6.920283E-2,-3.4409855E-2,-8.5089505E-3,1.21508045E-2,-2.2525437E-2,-1.08795814E-1,7.3960103E-4,1.594023E-2,2.9787917E-2,8.381757E-3,4.385362E-2,6.408433E-2,3.231112E-2,-1.6461527E-2],"categories":[],"categories_nodes":[],"categories_segments":[],"categories_sizes":[],"default_left":[0,0,0,0,0,0,0,0,0,0,0,0,0,0,0,0,0,0,0,0,0,0,0,0,0,0,0,0,0,0,0],"id":15,"left_children":[1,3,5,7,9,11,13,15,17,19,21,23,25,27,29,-1,-1,-1,-1,-1,-1,-1,-1,-1,-1,-1,-1,-1,-1,-1,-1],"loss_changes":[2.6895453E2,5.0263275E1,4.9752686E1,2.8171783E1,1.7661415E1,1.323558E1,7.9946747E0,8.019711E0,2.0882462E1,1.0573116E1,1.4057945E1,1.0104578E1,3.6990852E0,3.2912216E0,3.2719612E0,0E0,0E0,0E0,0E0,0E0,0E0,0E0,0E0,0E0,0E0,0E0,0E0,0E0,0E0,0E0,0E0],"parents":[2147483647,0,0,1,1,2,2,3,3,4,4,5,5,6,6,7,7,8,8,9,9,10,10,11,11,12,12,13,13,14,14],"right_children":[2,4,6,8,10,12,14,16,18,20,22,24,26,28,30,-1,-1,-1,-1,-1,-1,-1,-1,-1,-1,-1,-1,-1,-1,-1,-1],"split_conditions":[6E6,2.1E6,2E7,2.1E1,2.8E1,1E0,2.019E3,2E0,1.2E6,1E0,8E0,1E7,1E0,3.2E7,3E1,3.5905782E-3,-2.7951155E-2,-6.920283E-2,-3.4409855E-2,-8.5089505E-3,1.21508045E-2,-2.2525437E-2,-1.08795814E-1,7.3960103E-4,1.594023E-2,2.9787917E-2,8.381757E-3,4.385362E-2,6.408433E-2,3.231112E-2,-1.6461527E-2],"split_indices":[15,15,15,16,16,24,23,19,15,24,19,15,7,15,16,0,0,0,0,0,0,0,0,0,0,0,0,0,0,0,0],"split_type":[0,0,0,0,0,0,0,0,0,0,0,0,0,0,0,0,0,0,0,0,0,0,0,0,0,0,0,0,0,0,0],"sum_hessian":[1.707E3,9E2,8.07E2,3.15E2,5.85E2,6.01E2,2.06E2,8.2E1,2.33E2,4.54E2,1.31E2,4.46E2,1.55E2,1.16E2,9E1,4.9E1,3.3E1,5.9E1,1.74E2,3.81E2,7.3E1,1.27E2,4E0,1.91E2,2.55E2,1.3E2,2.5E1,7.7E1,3.9E1,8.7E1,3E0],"tree_param":{"num_deleted":"0","num_feature":"29","num_nodes":"31","size_leaf_vector":"1"}},{"base_weights":[1.1762553E-2,-2.961247E-1,4.7541946E-1,-5.220223E-1,-3.323471E-2,2.9510495E-1,7.7381015E-1,-4.9634224E-1,-3.175659E0,-1.5810472E-1,2.2325166E-1,-7.5063425E-1,3.225756E-1,6.2264997E-1,1.0833728E0,-1.815644E-2,-3.7602477E-2,-2.576059E-2,-2.3887765E-1,-3.9145057E-3,-2.6221199E-2,1.4630294E-2,-1.015107E-2,-5.7173282E-2,1.1134351E-2,2.1780377E-2,8.088423E-3,2.8581122E-2,6.564515E-2,4.091585E-2,5.968968E-2],"categories":[],"categories_nodes":[],"categories_segments":[],"categories_sizes":[],"default_left":[0,0,0,0,0,0,0,0,0,0,0,0,0,0,0,0,0,0,0,0,0,0,0,0,0,0,0,0,0,0,0],"id":16,"left_children":[1,3,5,7,9,11,13,15,17,19,21,23,25,27,29,-1,-1,-1,-1,-1,-1,-1,-1,-1,-1,-1,-1,-1,-1,-1,-1],"loss_changes":[2.3896832E2,5.972519E1,3.5712845E1,3.5290558E1,1.4960089E1,1.225008E1,1.1070618E1,1.8019089E1,1.884732E1,9.139557E0,4.582671E0,4.460497E0,7.345482E0,5.272461E0,1.3937836E0,0E0,0E0,0E0,0E0,0E0,0E0,0E0,0E0,0E0,0E0,0E0,0E0,0E0,0E0,0E0,0E0],"parents":[2147483647,0,0,1,1,2,2,3,3,4,4,5,5,6,6,7,7,8,8,9,9,10,10,11,11,12,12,13,13,14,14],"right_children":[2,4,6,8,10,12,14,16,18,20,22,24,26,28,30,-1,-1,-1,-1,-1,-1,-1,-1,-1,-1,-1,-1,-1,-1,-1,-1],"split_conditions":[7.2E6,3.5E6,1.7E7,8E0,8E0,2E0,8E0,2.6E1,1E0,2.9E1,5E0,1.681E3,2.018E3,6.4E7,2.4E7,-1.815644E-2,-3.7602477E-2,-2.576059E-2,-2.3887765E-1,-3.9145057E-3,-2.6221199E-2,1.4630294E-2,-1.015107E-2,-5.7173282E-2,1.1134351E-2,2.1780377E-2,8.088423E-3,2.8581122E-2,6.564515E-2,4.091585E-2,5.968968E-2],"split_indices":[15,15,15,19,18,18,18,16,22,16,2,1,23,15,15,0,0,0,0,0,0,0,0,0,0,0,0,0,0,0,0],"split_type":[0,0,0,0,0,0,0,0,0,0,0,0,0,0,0,0,0,0,0,0,0,0,0,0,0,0,0,0,0,0,0],"sum_hessian":[1.672E3,1.005E3,6.67E2,5.4E2,4.65E2,4.17E2,2.5E2,5.36E2,4E0,3.13E2,1.52E2,1E1,4.07E2,1.7E2,8E1,3.54E2,1.82E2,2E0,2E0,2.58E2,5.5E1,1.31E2,2.1E1,7E0,3E0,2.38E2,1.69E2,1.6E2,1E1,2.6E1,5.4E1],"tree_param":{"num_deleted":"0","num_feature":"29","num_nodes":"31","size_leaf_vector":"1"}},{"base_weights":[-8.7039815E-3,-4.1712397E-1,3.2201523E-1,-3.0553326E-1,-7.9252684E-1,1.22219056E-1,6.254595E-1,-5.1519823E-1,-1.5236725E-1,-7.217456E-1,-3.5672073E0,2.8895034E-2,3.9350507E-1,7.461618E-1,3.9967024E-1,-3.0743247E-3,-3.2500967E-2,4.2597516E-3,-1.1657802E-2,-8.217825E-2,-3.1691406E-2,-2.3091507E-1,-1.0348129E-2,8.402317E-3,-7.762722E-3,2.1791039E-2,-1.3767072E-3,3.2650303E-2,5.554186E-2,1.0014393E-2,2.9207993E-2],"categories":[],"categories_nodes":[],"categories_segments":[],"categories_sizes":[],"default_left":[0,0,0,0,0,0,0,0,0,0,0,0,0,0,0,0,0,0,0,0,0,0,0,0,0,0,0,0,0,0,0],"id":17,"left_children":[1,3,5,7,9,11,13,15,17,19,21,23,25,27,29,-1,-1,-1,-1,-1,-1,-1,-1,-1,-1,-1,-1,-1,-1,-1,-1],"loss_changes":[2.2611035E2,3.1134567E1,5.6003548E1,1.851524E1,3.100898E1,1.4141113E1,9.703735E0,1.488549E1,6.4684997E0,1.2573669E1,1.3171917E1,1.0711564E1,2.5597725E0,7.3598633E0,4.664917E0,0E0,0E0,0E0,0E0,0E0,0E0,0E0,0E0,0E0,0E0,0E0,0E0,0E0,0E0,0E0,0E0],"parents":[2147483647,0,0,1,1,2,2,3,3,4,4,5,5,6,6,7,7,8,8,9,9,10,10,11,11,12,12,13,13,14,14],"right_children":[2,4,6,8,10,12,14,16,18,20,22,24,26,28,30,-1,-1,-1,-1,-1,-1,-1,-1,-1,-1,-1,-1,-1,-1,-1,-1],"split_conditions":[5E6,2.8E1,1.3E7,2.1E6,8E0,1E0,2.019E3,2E1,2.2E1,1E6,6E-2,2.018E3,1.1E0,3.2E7,2.25E7,-3.0743247E-3,-3.2500967E-2,4.2597516E-3,-1.1657802E-2,-8.217825E-2,-3.1691406E-2,-2.3091507E-1,-1.0348129E-2,8.402317E-3,-7.762722E-3,2.1791039E-2,-1.3767072E-3,3.2650303E-2,5.554186E-2,1.0014393E-2,2.9207993E-2],"split_indices":[15,16,15,15,19,24,23,16,16,15,14,23,7,15,15,0,0,0,0,0,0,0,0,0,0,0,0,0,0,0,0],"split_type":[0,0,0,0,0,0,0,0,0,0,0,0,0,0,0,0,0,0,0,0,0,0,0,0,0,0,0,0,0,0,0],"sum_hessian":[1.672E3,7.48E2,9.24E2,5.78E2,1.7E2,5.58E2,3.66E2,2.43E2,3.35E2,1.67E2,3E0,4.16E2,1.42E2,2.37E2,1.29E2,5.6E1,1.87E2,8.5E1,2.5E2,1.3E1,1.54E2,2E0,1E0,2.37E2,1.79E2,1.29E2,1.3E1,1.91E2,4.6E1,6.3E1,6.6E1],"tree_param":{"num_deleted":"0","num_feature":"29","num_nodes":"31","size_leaf_vector":"1"}},{"base_weights":[-1.1214326E-3,-3.5686022E-1,3.664908E-1,-5.085889E-1,-7.418973E-2,1.2726091E-1,5.8837956E-1,-4.817737E-1,-2.573487E0,-7.321109E-1,-3.7508316E-2,2.2204004E-1,-1.7191495E-1,4.8135698E-1,8.499447E-1,-1.7912515E-2,-3.6246154E-2,8.893562E-3,-2.3407368E-1,-1.21854255E-2,-5.950249E-2,5.7770824E-3,-9.838052E-3,1.8160356E-2,2.5022593E-3,-4.5213727E-3,-4.3998115E-2,2.77574E-2,7.838619E-3,4.4582047E-2,6.4341663E-3],"categories":[],"categories_nodes":[],"categories_segments":[],"categories_sizes":[],"default_left":[0,0,0,0,0,0,0,0,0,0,0,0,0,0,0,0,0,0,0,0,0,0,0,0,0,0,0,0,0,0,0],"id":18,"left_children":[1,3,5,7,9,11,13,15,17,19,21,23,25,27,29,-1,-1,-1,-1,-1,-1,-1,-1,-1,-1,-1,-1,-1,-1,-1,-1],"loss_changes":[2.2310034E2,3.714721E1,4.446128E1,2.9989197E1,7.3091183E0,1.1522202E1,1.176799E1,1.6499634E1,4.1431488E1,3.2885094E0,7.066711E0,7.4600677E0,5.574734E0,7.361862E0,3.644493E0,0E0,0E0,0E0,0E0,0E0,0E0,0E0,0E0,0E0,0E0,0E0,0E0,0E0,0E0,0E0,0E0],"parents":[2147483647,0,0,1,1,2,2,3,3,4,4,5,5,6,6,7,7,8,8,9,9,10,10,11,11,12,12,13,13,14,14],"right_children":[2,4,6,8,10,12,14,16,18,20,22,24,26,28,30,-1,-1,-1,-1,-1,-1,-1,-1,-1,-1,-1,-1,-1,-1,-1,-1],"split_conditions":[5.4E6,3.5E6,1.15E7,8E0,2E0,2.019E3,2.6E7,2.6E1,1E0,1E-2,2.017E3,2.5E1,2.9E1,1.3E-1,2.9E1,-1.7912515E-2,-3.6246154E-2,8.893562E-3,-2.3407368E-1,-1.21854255E-2,-5.950249E-2,5.7770824E-3,-9.838052E-3,1.8160356E-2,2.5022593E-3,-4.5213727E-3,-4.3998115E-2,2.77574E-2,7.838619E-3,4.4582047E-2,6.4341663E-3],"split_indices":[15,15,15,19,0,23,15,16,22,9,23,16,16,9,16,0,0,0,0,0,0,0,0,0,0,0,0,0,0,0,0],"split_type":[0,0,0,0,0,0,0,0,0,0,0,0,0,0,0,0,0,0,0,0,0,0,0,0,0,0,0,0,0,0,0],"sum_hessian":[1.704E3,8.66E2,8.38E2,5.63E2,3.03E2,4.04E2,4.34E2,5.57E2,6E0,1.5E1,2.88E2,3.07E2,9.7E1,3.1E2,1.24E2,3.71E2,1.86E2,3E0,3E0,8E0,7E0,1.47E2,1.41E2,1.68E2,1.39E2,8.8E1,9E0,2.52E2,5.8E1,1.17E2,7E0],"tree_param":{"num_deleted":"0","num_feature":"29","num_nodes":"31","size_leaf_vector":"1"}},{"base_weights":[-3.723321E-3,-1.1068295E-1,4.1389507E-1,-6.879805E-2,-9.0984535E-1,5.258747E-1,5.408146E-2,-2.1324293E-1,8.267901E-2,-7.203031E-1,-2.0513058E0,2.7006093E-1,6.423329E-1,-8.0543645E-2,1.1507876E-1,-1.774588E-2,-3.5243102E-3,5.650266E-4,2.6536906E-2,-4.6617847E-2,-1.7392784E-2,-1.8881842E-1,4.200888E-3,-3.9594498E-2,1.5958443E-2,2.89506E-2,4.4405956E-2,-2.2187678E-2,1.3522613E-2],"categories":[],"categories_nodes":[],"categories_segments":[],"categories_sizes":[],"default_left":[0,0,0,0,0,0,0,0,0,0,0,0,0,0,0,0,0,0,0,0,0,0,0,0,0,0,0,0,0],"id":19,"left_children":[1,3,5,7,9,11,13,15,17,19,21,23,25,-1,27,-1,-1,-1,-1,-1,-1,-1,-1,-1,-1,-1,-1,-1,-1],"loss_changes":[7.5579926E1,4.5025322E1,1.3872231E1,2.8046022E1,1.3018219E1,7.6617203E0,8.614669E0,1.324259E1,2.0014595E1,4.335428E0,3.3469383E1,4.633363E0,2.2871857E0,0E0,7.15306E0,0E0,0E0,0E0,0E0,0E0,0E0,0E0,0E0,0E0,0E0,0E0,0E0,0E0,0E0],"parents":[2147483647,0,0,1,1,2,2,3,3,4,4,5,5,6,6,7,7,8,8,9,9,10,10,11,11,12,12,14,14],"right_children":[2,4,6,8,10,12,14,16,18,20,22,24,26,-1,28,-1,-1,-1,-1,-1,-1,-1,-1,-1,-1,-1,-1,-1,-1],"split_conditions":[1E0,3.1E1,2.7E1,2.4E1,8E0,2.1E1,2E0,3E-1,5.7E-1,2.3E1,1.1E-1,2E0,2E-1,-8.0543645E-2,1.2E1,-1.774588E-2,-3.5243102E-3,5.650266E-4,2.6536906E-2,-4.6617847E-2,-1.7392784E-2,-1.8881842E-1,4.200888E-3,-3.9594498E-2,1.5958443E-2,2.89506E-2,4.4405956E-2,-2.2187678E-2,1.3522613E-2],"split_indices":[24,16,16,0,19,0,18,14,6,0,6,0,5,0,10,0,0,0,0,0,0,0,0,0,0,0,0,0,0],"split_type":[0,0,0,0,0,0,0,0,0,0,0,0,0,0,0,0,0,0,0,0,0,0,0,0,0,0,0,0,0],"sum_hessian":[1.69E3,1.346E3,3.44E2,1.28E3,6.6E1,2.62E2,8.2E1,6.55E2,6.25E2,5.8E1,8E0,8.3E1,1.79E2,2E0,8E1,3.28E2,3.27E2,5.4E2,8.5E1,3.6E1,2.2E1,4E0,4E0,3E0,8E1,1.45E2,3.4E1,1.7E1,6.3E1],"tree_param":{"num_deleted":"0","num_feature":"29","num_nodes":"29","size_leaf_vector":"1"}},{"base_weights":[4.8094193E-4,-2.8993556E-1,3.8404927E-1,-4.5515186E-1,-5.719322E-2,2.4664746E-1,7.153363E-1,-4.3069836E-1,-2.370862E0,-1.4830098E-1,1.6531469E-1,1.654922E-1,4.434149E-1,8.8458294E-1,4.757666E-1,-2.4309715E-2,7.6426677E-3,1.0764837E-2,-2.1821526E-1,-8.58972E-3,3.506582E-2,1.0504362E-2,-2.9052926E-2,2.3433208E-3,1.6193066E-2,1.9256389E-2,4.2958632E-2,4.1536827E-2,8.4064774E-2,1.9481787E-2,5.0875135E-2],"categories":[],"categories_nodes":[],"categories_segments":[],"categories_sizes":[],"default_left":[0,0,0,0,0,0,0,0,0,0,0,0,0,0,0,0,0,0,0,0,0,0,0,0,0,0,0,0,0,0,0],"id":20,"left_children":[1,3,5,7,9,11,13,15,17,19,21,23,25,27,29,-1,-1,-1,-1,-1,-1,-1,-1,-1,-1,-1,-1,-1,-1,-1,-1],"loss_changes":[1.918214E2,3.765773E1,3.3598984E1,2.5821503E1,8.295572E0,8.32616E0,8.377708E0,1.8436462E1,3.702714E1,5.909003E0,4.0986996E0,7.011031E0,3.3768082E0,4.0086975E0,3.8962822E0,0E0,0E0,0E0,0E0,0E0,0E0,0E0,0E0,0E0,0E0,0E0,0E0,0E0,0E0,0E0,0E0],"parents":[2147483647,0,0,1,1,2,2,3,3,4,4,5,5,6,6,7,7,8,8,9,9,10,10,11,11,12,12,13,13,14,14],"right_children":[2,4,6,8,10,12,14,16,18,20,22,24,26,28,30,-1,-1,-1,-1,-1,-1,-1,-1,-1,-1,-1,-1,-1,-1,-1,-1],"split_conditions":[6.5E6,3.5E6,2E7,8E0,8E0,8E0,2.019E3,1E0,1E0,8E0,1.8E1,1.15E7,7E0,7E7,6.4E7,-2.4309715E-2,7.6426677E-3,1.0764837E-2,-2.1821526E-1,-8.58972E-3,3.506582E-2,1.0504362E-2,-2.9052926E-2,2.3433208E-3,1.6193066E-2,1.9256389E-2,4.2958632E-2,4.1536827E-2,8.4064774E-2,1.9481787E-2,5.0875135E-2],"split_indices":[15,15,15,19,18,18,23,24,22,17,10,15,17,15,15,0,0,0,0,0,0,0,0,0,0,0,0,0,0,0,0],"split_type":[0,0,0,0,0,0,0,0,0,0,0,0,0,0,0,0,0,0,0,0,0,0,0,0,0,0,0,0,0,0,0],"sum_hessian":[1.72E3,9.79E2,7.41E2,5.72E2,4.07E2,5.25E2,2.16E2,5.66E2,6E0,2.89E2,1.18E2,3.73E2,1.52E2,1.25E2,9.1E1,5.17E2,4.9E1,3E0,3E0,2.82E2,7E0,1.12E2,6E0,2.14E2,1.59E2,1.35E2,1.7E1,1.19E2,6E0,8E1,1.1E1],"tree_param":{"num_deleted":"0","num_feature":"29","num_nodes":"31","size_leaf_vector":"1"}},{"base_weights":[-4.730407E-3,-3.423872E-1,2.7075055E-1,-4.0077218E-1,1.5342675E-1,1.069245E-1,5.3764737E-1,-8.2363284E-1,-3.275529E-1,-7.757254E-2,2.1622682E-1,9.966937E-3,3.368589E-1,4.810781E-1,9.711033E-1,-5.961739E-2,-6.7509427E-3,-1.9438734E-2,2.5619112E-3,-4.854587E-2,1.2983553E-2,-4.2259015E-2,1.4567457E-3,2.0060947E-2,-8.616908E-3,2.96727E-2,1.4629264E-2,4.0547404E-2,6.598041E-2],"categories":[],"categories_nodes":[],"categories_segments":[],"categories_sizes":[],"default_left":[0,0,0,0,0,0,0,0,0,0,0,0,0,0,0,0,0,0,0,0,0,0,0,0,0,0,0,0,0],"id":21,"left_children":[1,3,5,7,9,11,13,15,17,-1,19,21,23,25,27,-1,-1,-1,-1,-1,-1,-1,-1,-1,-1,-1,-1,-1,-1],"loss_changes":[1.5775824E2,2.2119926E1,4.0781334E1,2.0845985E1,9.007847E0,1.29270935E1,8.237518E0,2.5229233E1,1.3539837E1,0E0,4.3265095E0,6.728724E0,5.7059155E0,6.51989E0,1.1624603E0,0E0,0E0,0E0,0E0,0E0,0E0,0E0,0E0,0E0,0E0,0E0,0E0,0E0,0E0],"parents":[2147483647,0,0,1,1,2,2,3,3,4,4,5,5,6,6,7,7,8,8,10,10,11,11,12,12,13,13,14,14],"right_children":[2,4,6,8,10,12,14,16,18,-1,20,22,24,26,28,-1,-1,-1,-1,-1,-1,-1,-1,-1,-1,-1,-1,-1,-1],"split_conditions":[5E6,1E0,1.3E7,1.2E6,2E0,8E0,4.2E7,7E0,9E0,-7.757254E-2,2E0,2E0,1E0,2.019E3,1.38E0,-5.961739E-2,-6.7509427E-3,-1.9438734E-2,2.5619112E-3,-4.854587E-2,1.2983553E-2,-4.2259015E-2,1.4567457E-3,2.0060947E-2,-8.616908E-3,2.96727E-2,1.4629264E-2,4.0547404E-2,6.598041E-2],"split_indices":[15,24,15,15,18,18,15,17,18,0,0,0,27,23,14,0,0,0,0,0,0,0,0,0,0,0,0,0,0],"split_type":[0,0,0,0,0,0,0,0,0,0,0,0,0,0,0,0,0,0,0,0,0,0,0,0,0,0,0,0,0],"sum_hessian":[1.694E3,7.61E2,9.33E2,6.81E2,8E1,5.79E2,3.54E2,9.9E1,5.82E2,2E0,7.8E1,4.08E2,1.71E2,3.15E2,3.9E1,6.4E1,3.5E1,5.01E2,8.1E1,2E0,7.6E1,8E0,4E2,1.52E2,1.9E1,1.96E2,1.19E2,2.9E1,1E1],"tree_param":{"num_deleted":"0","num_feature":"29","num_nodes":"29","size_leaf_vector":"1"}},{"base_weights":[-9.603148E-3,-3.0597287E-1,3.0039614E-1,-7.7511406E-1,-2.380173E-1,1.8247683E-1,5.96676E-1,-1.0740455E0,-2.3260614E-1,-2.8587264E-1,5.8583584E-2,-6.7922544E-1,2.0601447E-1,8.018957E-1,4.4917247E-1,-6.569066E-2,-2.2601267E-2,-4.0626865E-2,7.3927003E-3,-1.9291988E-2,-6.385612E-3,-5.5018462E-2,6.956222E-3,-5.275007E-2,-2.2685255E-3,6.267781E-3,2.1363711E-2,4.0953003E-2,-4.4705073E-4,1.8900668E-2,5.5489518E-2],"categories":[],"categories_nodes":[],"categories_segments":[],"categories_sizes":[],"default_left":[0,0,0,0,0,0,0,0,0,0,0,0,0,0,0,0,0,0,0,0,0,0,0,0,0,0,0,0,0,0,0],"id":22,"left_children":[1,3,5,7,9,11,13,15,17,19,21,23,25,27,29,-1,-1,-1,-1,-1,-1,-1,-1,-1,-1,-1,-1,-1,-1,-1,-1],"loss_changes":[1.5545154E2,2.7392357E1,2.8784111E1,1.7426987E1,1.0761559E1,1.2167418E1,6.7534103E0,9.84594E0,8.945765E0,1.0259384E1,1.0047451E1,3.7631326E0,1.0261751E1,1.3573189E0,6.114731E0,0E0,0E0,0E0,0E0,0E0,0E0,0E0,0E0,0E0,0E0,0E0,0E0,0E0,0E0,0E0,0E0],"parents":[2147483647,0,0,1,1,2,2,3,3,4,4,5,5,6,6,7,7,8,8,9,9,10,10,11,11,12,12,13,13,14,14],"right_children":[2,4,6,8,10,12,14,16,18,20,22,24,26,28,30,-1,-1,-1,-1,-1,-1,-1,-1,-1,-1,-1,-1,-1,-1,-1,-1],"split_conditions":[5.4E6,1.2E6,1.75E7,7E0,1E0,2E0,2.018E3,1.5E-1,9.5E1,3.5E6,2E0,1.681E3,1E0,3.8E1,6.4E7,-6.569066E-2,-2.2601267E-2,-4.0626865E-2,7.3927003E-3,-1.9291988E-2,-6.385612E-3,-5.5018462E-2,6.956222E-3,-5.275007E-2,-2.2685255E-3,6.267781E-3,2.1363711E-2,4.0953003E-2,-4.4705073E-4,1.8900668E-2,5.5489518E-2],"split_indices":[15,15,15,17,24,18,23,6,1,15,0,1,24,0,15,0,0,0,0,0,0,0,0,0,0,0,0,0,0,0,0],"split_type":[0,0,0,0,0,0,0,0,0,0,0,0,0,0,0,0,0,0,0,0,0,0,0,0,0,0,0,0,0,0,0],"sum_hessian":[1.69E3,8.64E2,8.26E2,1.08E2,7.56E2,5.92E2,2.34E2,6.9E1,3.9E1,6.51E2,1.05E2,1.5E1,5.77E2,9.6E1,1.38E2,4.9E1,2E1,1.5E1,2.4E1,3.98E2,2.53E2,6E0,9.9E1,9E0,6E0,4.24E2,1.53E2,9.4E1,2E0,1.26E2,1.2E1],"tree_param":{"num_deleted":"0","num_feature":"29","num_nodes":"31","size_leaf_vector":"1"}},{"base_weights":[1.1943113E-2,-1.501412E-1,1.4740635E-1,-1.7962089E-1,2.7418882E-1,7.91024E-2,4.2464685E-1,-2.5536186E-1,1.924469E-2,1.5847829E-1,6.535151E-2,2.825308E-1,3.0216081E-2,5.398402E-1,1.6509165E-1,-1.1361503E-2,-4.9851906E-2,-2.146269E-3,1.2855254E-2,-6.838987E-3,1.8185847E-2,1.19058695E-2,3.7746824E-2,-1.3960699E-2,2.6602584E-3,2.0858519E-2,5.0016023E-2,1.6289611E-3,2.5545029E-2],"categories":[],"categories_nodes":[],"categories_segments":[],"categories_sizes":[],"default_left":[0,0,0,0,0,0,0,0,0,0,0,0,0,0,0,0,0,0,0,0,0,0,0,0,0,0,0,0,0],"id":23,"left_children":[1,3,5,7,9,11,13,15,17,19,-1,21,23,25,27,-1,-1,-1,-1,-1,-1,-1,-1,-1,-1,-1,-1,-1,-1],"loss_changes":[3.7567688E1,9.79385E0,1.7615343E1,1.09853115E1,5.887906E0,7.4401674E0,5.4122963E0,1.0789989E1,2.998171E0,2.897872E0,0E0,2.862503E0,4.318532E0,6.75655E0,2.641146E0,0E0,0E0,0E0,0E0,0E0,0E0,0E0,0E0,0E0,0E0,0E0,0E0,0E0,0E0],"parents":[2147483647,0,0,1,1,2,2,3,3,4,4,5,5,6,6,7,7,8,8,9,9,11,11,12,12,13,13,14,14],"right_children":[2,4,6,8,10,12,14,16,18,20,-1,22,24,26,28,-1,-1,-1,-1,-1,-1,-1,-1,-1,-1,-1,-1,-1,-1],"split_conditions":[5E0,6.7E-1,2.4E1,1.922E3,8E0,2.9E-1,4.17E1,1.822E3,3.5E1,1.42E2,6.535151E-2,2.02E3,1.3E1,7.5E-1,8.4E-1,-1.1361503E-2,-4.9851906E-2,-2.146269E-3,1.2855254E-2,-6.838987E-3,1.8185847E-2,1.19058695E-2,3.7746824E-2,-1.3960699E-2,2.6602584E-3,2.0858519E-2,5.0016023E-2,1.6289611E-3,2.5545029E-2],"split_indices":[11,14,11,1,17,14,12,1,0,1,0,23,0,6,6,0,0,0,0,0,0,0,0,0,0,0,0,0,0],"split_type":[0,0,0,0,0,0,0,0,0,0,0,0,0,0,0,0,0,0,0,0,0,0,0,0,0,0,0,0,0],"sum_hessian":[1.709E3,7.78E2,9.31E2,7.28E2,5E1,7.48E2,1.83E2,5.27E2,2.01E2,4.6E1,4E0,1.44E2,6.04E2,1.26E2,5.7E1,5.09E2,1.8E1,1.6E2,4.1E1,1.9E1,2.7E1,1.33E2,1.1E1,4.1E1,5.63E2,1.01E2,2.5E1,4.2E1,1.5E1],"tree_param":{"num_deleted":"0","num_feature":"29","num_nodes":"29","size_leaf_vector":"1"}},{"base_weights":[2.008241E-3,-2.995454E-1,2.4420132E-1,-2.1413605E-1,-6.101921E-1,7.572443E-2,4.469015E-1,-2.700845E-1,2.4263002E-1,-5.584831E-1,-2.1428409E0,-3.1652125E-3,2.8987607E-1,3.9517105E-1,8.929131E-1,-2.2261932E-2,-6.303847E-3,5.976123E-3,4.236511E-2,-7.198526E-2,-2.4821276E-2,1.9523399E-2,-1.9809347E-1,1.0428475E-3,-3.7179243E-2,4.6626497E-2,1.2452034E-2,2.3275323E-2,6.9484697E-3,3.5551004E-2,6.159484E-2],"categories":[],"categories_nodes":[],"categories_segments":[],"categories_sizes":[],"default_left":[0,0,0,0,0,0,0,0,0,0,0,0,0,0,0,0,0,0,0,0,0,0,0,0,0,0,0,0,0,0,0],"id":24,"left_children":[1,3,5,7,9,11,13,15,17,19,21,23,25,27,29,-1,-1,-1,-1,-1,-1,-1,-1,-1,-1,-1,-1,-1,-1,-1,-1],"loss_changes":[1.25107704E2,2.011335E1,3.2408943E1,1.5398745E1,1.1800541E1,8.785977E0,9.591339E0,1.3438446E1,4.81175E0,8.035141E0,2.4587795E1,6.792157E0,3.441784E0,6.9270935E0,1.8370819E0,0E0,0E0,0E0,0E0,0E0,0E0,0E0,0E0,0E0,0E0,0E0,0E0,0E0,0E0,0E0,0E0],"parents":[2147483647,0,0,1,1,2,2,3,3,4,4,5,5,6,6,7,7,8,8,9,9,10,10,11,11,12,12,13,13,14,14],"right_children":[2,4,6,8,10,12,14,16,18,20,22,24,26,28,30,-1,-1,-1,-1,-1,-1,-1,-1,-1,-1,-1,-1,-1,-1,-1,-1],"split_conditions":[5E6,2.8E1,1.15E7,1E0,8E0,1E0,4.2E7,2.4E6,1E0,1E6,1E0,4.5E0,4E-1,2.4E0,7E7,-2.2261932E-2,-6.303847E-3,5.976123E-3,4.236511E-2,-7.198526E-2,-2.4821276E-2,1.9523399E-2,-1.9809347E-1,1.0428475E-3,-3.7179243E-2,4.6626497E-2,1.2452034E-2,2.3275323E-2,6.9484697E-3,3.5551004E-2,6.159484E-2],"split_indices":[15,16,15,24,19,24,15,15,4,15,22,7,7,7,15,0,0,0,0,0,0,0,0,0,0,0,0,0,0,0,0],"split_type":[0,0,0,0,0,0,0,0,0,0,0,0,0,0,0,0,0,0,0,0,0,0,0,0,0,0,0,0,0,0,0],"sum_hessian":[1.711E3,7.62E2,9.49E2,5.99E2,1.63E2,5.19E2,4.3E2,5.34E2,6.5E1,1.59E2,4E0,3.8E2,1.39E2,3.87E2,4.3E1,2.4E2,2.94E2,5.5E1,1E1,9E0,1.5E2,2E0,2E0,3.69E2,1.1E1,7E0,1.32E2,3.03E2,8.4E1,3E1,1.3E1],"tree_param":{"num_deleted":"0","num_feature":"29","num_nodes":"31","size_leaf_vector":"1"}},{"base_weights":[-2.5228397E-3,-2.1777852E-1,3.3087245E-1,-5.485153E-1,-1.19800925E-1,2.25947E-1,5.6424206E-1,1.9153967E-1,-7.1648437E-1,4.4175852E-2,-2.3286253E-1,2.788424E-1,-7.374762E-2,7.170787E-1,3.7687105E-1,-9.129804E-3,3.5656262E-2,-4.99314E-2,-2.619554E-2,-2.768406E-3,9.365573E-3,-1.4584797E-2,2.776728E-3,2.223671E-2,9.647757E-3,-5.4529477E-2,-6.424434E-4,3.7351005E-2,7.6342993E-3,1.5505052E-2,4.0920973E-2],"categories":[],"categories_nodes":[],"categories_segments":[],"categories_sizes":[],"default_left":[0,0,0,0,0,0,0,0,0,0,0,0,0,0,0,0,0,0,0,0,0,0,0,0,0,0,0,0,0,0,0],"id":25,"left_children":[1,3,5,7,9,11,13,15,17,19,21,23,25,27,29,-1,-1,-1,-1,-1,-1,-1,-1,-1,-1,-1,-1,-1,-1,-1,-1],"loss_changes":[1.2365179E2,3.386211E1,1.6425323E1,2.9846443E1,1.5008724E1,7.439518E0,5.71492E0,8.911685E0,1.0071823E1,4.726554E0,8.143578E0,5.5848885E0,4.38262E0,1.8123932E0,2.576498E0,0E0,0E0,0E0,0E0,0E0,0E0,0E0,0E0,0E0,0E0,0E0,0E0,0E0,0E0,0E0,0E0],"parents":[2147483647,0,0,1,1,2,2,3,3,4,4,5,5,6,6,7,7,8,8,9,9,10,10,11,11,12,12,13,13,14,14],"right_children":[2,4,6,8,10,12,14,16,18,20,22,24,26,28,30,-1,-1,-1,-1,-1,-1,-1,-1,-1,-1,-1,-1,-1,-1,-1,-1],"split_conditions":[7.2E6,1.75E6,2E7,2E1,2.4E1,2.4E0,2.019E3,2.5E-1,1.2E6,4.5E6,1E0,2.3E1,9E-2,2.9E1,6.4E7,-9.129804E-3,3.5656262E-2,-4.99314E-2,-2.619554E-2,-2.768406E-3,9.365573E-3,-1.4584797E-2,2.776728E-3,2.223671E-2,9.647757E-3,-5.4529477E-2,-6.424434E-4,3.7351005E-2,7.6342993E-3,1.5505052E-2,4.0920973E-2],"split_indices":[15,15,15,16,16,7,23,14,15,15,24,16,14,16,15,0,0,0,0,0,0,0,0,0,0,0,0,0,0,0,0],"split_type":[0,0,0,0,0,0,0,0,0,0,0,0,0,0,0,0,0,0,0,0,0,0,0,0,0,0,0,0,0,0,0],"sum_hessian":[1.721E3,1.046E3,6.75E2,2.38E2,8.08E2,4.67E2,2.08E2,4.4E1,1.94E2,3.3E2,4.78E2,3.97E2,7E1,1.13E2,9.5E1,2.6E1,1.8E1,7.7E1,1.17E2,1.95E2,1.35E2,3.97E2,8.1E1,1.34E2,2.63E2,3E0,6.7E1,1.07E2,6E0,8.4E1,1.1E1],"tree_param":{"num_deleted":"0","num_feature":"29","num_nodes":"31","size_leaf_vector":"1"}},{"base_weights":[-1.9493885E-3,-1.0001092E-1,3.8225046E-1,-2.6924161E-2,-4.0973583E-1,4.7649857E-1,5.292578E-2,1.2276703E-1,-9.107022E-2,-5.5123156E-1,1.2347573E-2,3.2664013E-1,5.54304E-1,1.4417075E-1,-6.524996E-1,-2.4588587E-2,8.780892E-3,2.18765E-2,-5.5972333E-3,-2.1997895E-2,-6.5358974E-2,1.2814323E-2,-1.3173282E-2,9.057563E-3,2.4949605E-2,2.5604669E-2,3.5893064E-2,-5.8560255E-3,1.2290192E-2,-6.876178E-2,1.0036812E-2],"categories":[],"categories_nodes":[],"categories_segments":[],"categories_sizes":[],"default_left":[0,0,0,0,0,0,0,0,0,0,0,0,0,0,0,0,0,0,0,0,0,0,0,0,0,0,0,0,0,0,0],"id":26,"left_children":[1,3,5,7,9,11,13,15,17,19,21,23,25,27,29,-1,-1,-1,-1,-1,-1,-1,-1,-1,-1,-1,-1,-1,-1,-1,-1],"loss_changes":[6.3181908E1,3.0231718E1,1.0558811E1,1.0400653E1,1.5236176E1,2.9087944E0,5.050293E0,1.0641996E1,8.412926E0,1.5491268E1,4.440825E0,2.2416096E0,8.267517E-1,1.8611414E0,5.826038E0,0E0,0E0,0E0,0E0,0E0,0E0,0E0,0E0,0E0,0E0,0E0,0E0,0E0,0E0,0E0,0E0],"parents":[2147483647,0,0,1,1,2,2,3,3,4,4,5,5,6,6,7,7,8,8,9,9,10,10,11,11,12,12,13,13,14,14],"right_children":[2,4,6,8,10,12,14,16,18,20,22,24,26,28,30,-1,-1,-1,-1,-1,-1,-1,-1,-1,-1,-1,-1,-1,-1,-1,-1],"split_conditions":[1E0,2.8E1,2.7E1,2.2E1,3E1,1.484E3,9E-2,9.7E0,-1E0,3.2E1,3E1,2E-1,2E-1,9.6E-1,1.54E0,-2.4588587E-2,8.780892E-3,2.18765E-2,-5.5972333E-3,-2.1997895E-2,-6.5358974E-2,1.2814323E-2,-1.3173282E-2,9.057563E-3,2.4949605E-2,2.5604669E-2,3.5893064E-2,-5.8560255E-3,1.2290192E-2,-6.876178E-2,1.0036812E-2],"split_indices":[24,16,16,16,0,1,9,12,19,16,16,6,5,13,13,0,0,0,0,0,0,0,0,0,0,0,0,0,0,0,0],"split_type":[0,0,0,0,0,0,0,0,0,0,0,0,0,0,0,0,0,0,0,0,0,0,0,0,0,0,0,0,0,0,0],"sum_hessian":[1.675E3,1.335E3,3.4E2,1.081E3,2.54E2,2.64E2,7.6E1,3.24E2,7.57E2,1.9E2,6.4E1,9.2E1,1.72E2,6.8E1,8E0,2.5E1,2.99E2,2.8E1,7.29E2,1.67E2,2.3E1,3.4E1,3E1,5.1E1,4.1E1,1.4E2,3.2E1,1.9E1,4.9E1,4E0,4E0],"tree_param":{"num_deleted":"0","num_feature":"29","num_nodes":"31","size_leaf_vector":"1"}},{"base_weights":[-5.40477E-3,-8.70007E-2,3.0910897E-1,-5.138866E-2,-7.4083626E-1,6.623E-2,4.4959974E-1,-2.590449E-1,2.5204415E-2,-5.8095133E-1,-1.7777157E0,-1.1916099E0,1.0471938E-1,5.3121924E-1,1.516747E-1,-1.3884953E-2,2.8889794E-2,-5.070356E-4,1.8045017E-2,-3.513496E-2,-7.2255866E-3,-1.6231403E-1,2.3196125E-3,-2.534167E-2,-8.114848E-2,-3.5295606E-2,8.569967E-3,2.1770956E-2,3.2361474E-2,-5.3302436E-3,1.5014419E-2],"categories":[],"categories_nodes":[],"categories_segments":[],"categories_sizes":[],"default_left":[0,0,0,0,0,0,0,0,0,0,0,0,0,0,0,0,0,0,0,0,0,0,0,0,0,0,0,0,0,0,0],"id":27,"left_children":[1,3,5,7,9,11,13,15,17,19,21,23,25,27,29,-1,-1,-1,-1,-1,-1,-1,-1,-1,-1,-1,-1,-1,-1,-1,-1],"loss_changes":[4.447528E1,3.200129E1,1.2151867E1,2.0778496E1,1.0737713E1,6.5153627E0,5.414955E0,5.655369E0,1.133494E1,3.2459908E0,2.4259987E1,3.5896492E-1,7.0938144E0,1.6853218E0,1.9512061E0,0E0,0E0,0E0,0E0,0E0,0E0,0E0,0E0,0E0,0E0,0E0,0E0,0E0,0E0,0E0,0E0],"parents":[2147483647,0,0,1,1,2,2,3,3,4,4,5,5,6,6,7,7,8,8,9,9,10,10,11,11,12,12,13,13,14,14],"right_children":[2,4,6,8,10,12,14,16,18,20,22,24,26,28,30,-1,-1,-1,-1,-1,-1,-1,-1,-1,-1,-1,-1,-1,-1,-1,-1],"split_conditions":[1E0,3.1E1,1.517E3,3E-2,8E0,3E0,2.7E1,6.25E1,2.7E1,2.05E3,1.1E-1,1.9E1,2E0,8E0,5E0,-1.3884953E-2,2.8889794E-2,-5.070356E-4,1.8045017E-2,-3.513496E-2,-7.2255866E-3,-1.6231403E-1,2.3196125E-3,-2.534167E-2,-8.114848E-2,-3.5295606E-2,8.569967E-3,2.1770956E-2,3.2361474E-2,-5.3302436E-3,1.5014419E-2],"split_indices":[24,16,1,6,19,18,16,12,11,1,6,0,0,18,11,0,0,0,0,0,0,0,0,0,0,0,0,0,0,0,0],"split_type":[0,0,0,0,0,0,0,0,0,0,0,0,0,0,0,0,0,0,0,0,0,0,0,0,0,0,0,0,0,0,0],"sum_hessian":[1.731E3,1.375E3,3.56E2,1.305E3,7E1,1.31E2,2.25E2,3.51E2,9.54E2,6.2E1,8E0,3E0,1.28E2,1.76E2,4.9E1,3.44E2,7E0,8.64E2,9E1,4.8E1,1.4E1,4E0,4E0,2E0,1E0,9E0,1.19E2,9.9E1,7.7E1,1.8E1,3.1E1],"tree_param":{"num_deleted":"0","num_feature":"29","num_nodes":"31","size_leaf_vector":"1"}},{"base_weights":[5.0268215E-3,-1.6572861E-1,3.4562048E-1,-3.356153E-1,-2.6446218E-3,2.69941E-1,6.2338513E-1,-3.09753E-1,-2.6331494E0,1.09013654E-1,-1.8599792E-1,-4.7205433E-1,2.915946E-1,5.587433E-1,1.1124568E0,-3.0227992E-4,-1.9673564E-2,-1.0467768E-2,-1.8963538E-1,3.489673E-2,4.061215E-3,-6.200304E-4,-1.6124872E-2,2.5194088E-2,-3.4765236E-2,2.0483429E-2,1.1345892E-2,3.0768374E-2,1.0971956E-2,-3.7550926E-3,6.0883928E-2],"categories":[],"categories_nodes":[],"categories_segments":[],"categories_sizes":[],"default_left":[0,0,0,0,0,0,0,0,0,0,0,0,0,0,0,0,0,0,0,0,0,0,0,0,0,0,0,0,0,0,0],"id":28,"left_children":[1,3,5,7,9,11,13,15,17,19,21,23,25,27,29,-1,-1,-1,-1,-1,-1,-1,-1,-1,-1,-1,-1,-1,-1,-1,-1],"loss_changes":[9.8228355E1,3.1168129E1,1.1687614E1,3.1924541E1,1.1792201E1,7.2873955E0,3.172161E0,1.3880142E1,1.6069157E1,5.8022437E0,5.161718E0,3.182767E0,3.2137032E0,1.9399529E0,1.715889E0,0E0,0E0,0E0,0E0,0E0,0E0,0E0,0E0,0E0,0E0,0E0,0E0,0E0,0E0,0E0,0E0],"parents":[2147483647,0,0,1,1,2,2,3,3,4,4,5,5,6,6,7,7,8,8,9,9,10,10,11,11,12,12,13,13,14,14],"right_children":[2,4,6,8,10,12,14,16,18,20,22,24,26,28,30,-1,-1,-1,-1,-1,-1,-1,-1,-1,-1,-1,-1,-1,-1,-1,-1],"split_conditions":[8.5E6,3.5E6,2.6E7,8E0,2.6E1,2E0,7E7,2.1E1,1E0,1.9E1,2.017E3,1E0,2.017E3,2.3E-1,1E0,-3.0227992E-4,-1.9673564E-2,-1.0467768E-2,-1.8963538E-1,3.489673E-2,4.061215E-3,-6.200304E-4,-1.6124872E-2,2.5194088E-2,-3.4765236E-2,2.0483429E-2,1.1345892E-2,3.0768374E-2,1.0971956E-2,-3.7550926E-3,6.0883928E-2],"split_indices":[15,15,15,19,16,18,15,16,22,16,23,19,23,9,17,0,0,0,0,0,0,0,0,0,0,0,0,0,0,0,0],"split_type":[0,0,0,0,0,0,0,0,0,0,0,0,0,0,0,0,0,0,0,0,0,0,0,0,0,0,0,0,0,0,0],"sum_hessian":[1.687E3,1.124E3,5.63E2,5.5E2,5.74E2,4.44E2,1.19E2,5.45E2,5E0,3.57E2,2.17E2,1.2E1,4.32E2,1.07E2,1.2E1,1.18E2,4.27E2,2E0,3E0,1.5E1,3.42E2,9.6E1,1.21E2,2E0,1E1,1.51E2,2.81E2,9.1E1,1.6E1,1E0,1.1E1],"tree_param":{"num_deleted":"0","num_feature":"29","num_nodes":"31","size_leaf_vector":"1"}},{"base_weights":[-4.7522625E-3,-1.7206089E-1,3.2147884E-1,-4.2035913E-1,-7.265135E-2,4.4339415E-1,1.9458558E-1,-4.010942E-1,-2.3351676E0,-1.5478075E-1,1.2400529E-1,3.5253793E-1,6.520742E-1,9.733769E-2,4.0765575E-1,-2.1649424E-2,1.3814441E-2,-5.157113E-3,-1.6998047E-1,-1.2883811E-2,-2.4573575E-3,-2.920931E-3,1.0253405E-2,1.9107167E-2,-1.7062051E-2,2.3874363E-2,3.8468644E-2,1.1222091E-2,-3.639058E-3,1.6807167E-2,3.999355E-2],"categories":[],"categories_nodes":[],"categories_segments":[],"categories_sizes":[],"default_left":[0,0,0,0,0,0,0,0,0,0,0,0,0,0,0,0,0,0,0,0,0,0,0,0,0,0,0,0,0,0,0],"id":29,"left_children":[1,3,5,7,9,11,13,15,17,19,21,23,25,27,29,-1,-1,-1,-1,-1,-1,-1,-1,-1,-1,-1,-1,-1,-1,-1,-1],"loss_changes":[9.306181E1,2.7787449E1,8.855518E0,1.0941532E1,1.3037134E1,5.344326E0,5.865697E0,7.033119E0,6.7769375E0,6.17192E0,3.531475E0,4.382099E0,1.4347725E0,4.276028E0,2.2274237E0,0E0,0E0,0E0,0E0,0E0,0E0,0E0,0E0,0E0,0E0,0E0,0E0,0E0,0E0,0E0,0E0],"parents":[2147483647,0,0,1,1,2,2,3,3,4,4,5,5,6,6,7,7,8,8,9,9,10,10,11,11,12,12,13,13,14,14],"right_children":[2,4,6,8,10,12,14,16,18,20,22,24,26,28,30,-1,-1,-1,-1,-1,-1,-1,-1,-1,-1,-1,-1,-1,-1,-1,-1],"split_conditions":[8.5E6,2.25E6,2.018E3,8E0,8E0,1.9E7,2.5E7,1.1E1,1.4E1,2.3E1,4E6,7E0,8E0,1.9E0,6.4E7,-2.1649424E-2,1.3814441E-2,-5.157113E-3,-1.6998047E-1,-1.2883811E-2,-2.4573575E-3,-2.920931E-3,1.0253405E-2,1.9107167E-2,-1.7062051E-2,2.3874363E-2,3.8468644E-2,1.1222091E-2,-3.639058E-3,1.6807167E-2,3.999355E-2],"split_indices":[15,15,23,19,18,15,15,18,0,0,15,19,18,7,15,0,0,0,0,0,0,0,0,0,0,0,0,0,0,0,0],"split_type":[0,0,0,0,0,0,0,0,0,0,0,0,0,0,0,0,0,0,0,0,0,0,0,0,0,0,0,0,0,0,0],"sum_hessian":[1.703E3,1.126E3,5.77E2,3.21E2,8.05E2,2.93E2,2.84E2,3.19E2,2E0,5.68E2,2.37E2,2.06E2,8.7E1,1.96E2,8.8E1,3.05E2,1.4E1,1E0,1E0,2.87E2,2.81E2,7.3E1,1.64E2,1.98E2,8E0,3.7E1,5E1,1.12E2,8.4E1,7.6E1,1.2E1],"tree_param":{"num_deleted":"0","num_feature":"29","num_nodes":"31","size_leaf_vector":"1"}},{"base_weights":[3.2131497E-3,-1.1890361E-1,3.8182583E-1,-3.1852227E-1,-3.790428E-3,3.4856543E-1,8.3264697E-1,-3.7480038E-1,3.188055E-1,-8.660854E-2,1.8420857E-1,4.2036587E-1,1.9422038E-1,5.2545714E-1,1.0301982E0,-1.254106E-2,-3.1895053E-2,-4.0547516E-2,2.0089546E-2,-3.8246736E-2,-3.1594154E-3,2.1370161E-2,6.018805E-3,2.2583192E-2,1.6857669E-3,-1.8566145E-2,1.2308759E-2,3.5290625E-2,-2.839768E-3,5.9295725E-2,1.3328529E-2],"categories":[],"categories_nodes":[],"categories_segments":[],"categories_sizes":[],"default_left":[0,0,0,0,0,0,0,0,0,0,0,0,0,0,0,0,0,0,0,0,0,0,0,0,0,0,0,0,0,0,0],"id":30,"left_children":[1,3,5,7,9,11,13,15,17,19,21,23,25,27,29,-1,-1,-1,-1,-1,-1,-1,-1,-1,-1,-1,-1,-1,-1,-1,-1],"loss_changes":[7.924588E1,2.977924E1,5.9774666E0,1.7120731E1,1.2829837E1,4.251438E0,1.157877E0,1.406189E1,3.9822109E0,9.0387745E0,3.860527E0,3.2037392E0,3.7936287E0,1.405247E0,1.5864182E0,0E0,0E0,0E0,0E0,0E0,0E0,0E0,0E0,0E0,0E0,0E0,0E0,0E0,0E0,0E0,0E0],"parents":[2147483647,0,0,1,1,2,2,3,3,4,4,5,5,6,6,7,7,8,8,9,9,10,10,11,11,12,12,13,13,14,14],"right_children":[2,4,6,8,10,12,14,16,18,20,22,24,26,28,30,-1,-1,-1,-1,-1,-1,-1,-1,-1,-1,-1,-1,-1,-1,-1,-1],"split_conditions":[1.15E7,3E6,5.2E7,1E0,8E0,9E-2,1E0,2.6E1,3E1,2E0,2.1E1,6E0,2E0,2.5E1,1E0,-1.254106E-2,-3.1895053E-2,-4.0547516E-2,2.0089546E-2,-3.8246736E-2,-3.1594154E-3,2.1370161E-2,6.018805E-3,2.2583192E-2,1.6857669E-3,-1.8566145E-2,1.2308759E-2,3.5290625E-2,-2.839768E-3,5.9295725E-2,1.3328529E-2],"split_indices":[15,15,15,24,18,8,20,16,1,18,16,19,18,16,24,0,0,0,0,0,0,0,0,0,0,0,0,0,0,0,0],"split_type":[0,0,0,0,0,0,0,0,0,0,0,0,0,0,0,0,0,0,0,0,0,0,0,0,0,0,0,0,0,0,0],"sum_hessian":[1.712E3,1.295E3,4.17E2,4.73E2,8.22E2,3.9E2,2.7E1,4.35E2,3.8E1,5.71E2,2.51E2,2.65E2,1.25E2,1.2E1,1.5E1,2.97E2,1.38E2,2E0,3.6E1,1.8E1,5.53E2,5.1E1,2E2,2.45E2,2E1,1E1,1.15E2,9E0,3E0,1.2E1,3E0],"tree_param":{"num_deleted":"0","num_feature":"29","num_nodes":"31","size_leaf_vector":"1"}},{"base_weights":[2.5428347E-3,7.0726335E-2,-3.152814E-1,-4.2936773E-4,3.3454758E-1,-4.4544044E-1,-6.0692422E-2,-1.5554057E-1,5.8287732E-2,6.864696E-2,4.2724532E-1,-2.8932893E-1,-8.253476E-1,-1.7234257E-1,3.4000343E-1,5.2466955E-2,-8.745487E-3,1.12185E-2,-8.0619595E-4,-7.2471455E-2,5.3345948E-3,4.341004E-2,1.979069E-2,-1.8093837E-2,5.4195337E-4,-3.1504914E-2,-1.206246E-1,-1.9244658E-2,6.2039713E-3,4.895812E-2,5.4030684E-3],"categories":[],"categories_nodes":[],"categories_segments":[],"categories_sizes":[],"default_left":[0,0,0,0,0,0,0,0,0,0,0,0,0,0,0,0,0,0,0,0,0,0,0,0,0,0,0,0,0,0,0],"id":31,"left_children":[1,3,5,7,9,11,13,15,17,19,21,23,25,27,29,-1,-1,-1,-1,-1,-1,-1,-1,-1,-1,-1,-1,-1,-1,-1,-1],"loss_changes":[3.729533E1,2.6600613E1,1.0046629E1,1.0182345E1,7.389839E0,1.1682087E1,4.7113233E0,7.3481565E0,1.0026325E1,4.7172956E0,2.7471123E0,3.1397429E0,1.645345E1,5.21414E0,3.3038912E0,0E0,0E0,0E0,0E0,0E0,0E0,0E0,0E0,0E0,0E0,0E0,0E0,0E0,0E0,0E0,0E0],"parents":[2147483647,0,0,1,1,2,2,3,3,4,4,5,5,6,6,7,7,8,8,9,9,10,10,11,11,12,12,13,13,14,14],"right_children":[2,4,6,8,10,12,14,16,18,20,22,24,26,28,30,-1,-1,-1,-1,-1,-1,-1,-1,-1,-1,-1,-1,-1,-1,-1,-1],"split_conditions":[2.8E1,1E0,2.05E3,2E0,1.193E3,3.1E1,3.5E-1,1.7E1,2.2E1,5E0,2E1,1.1E1,8E0,2.711E3,2.29E3,5.2466955E-2,-8.745487E-3,1.12185E-2,-8.0619595E-4,-7.2471455E-2,5.3345948E-3,4.341004E-2,1.979069E-2,-1.8093837E-2,5.4195337E-4,-3.1504914E-2,-1.206246E-1,-1.9244658E-2,6.2039713E-3,4.895812E-2,5.4030684E-3],"split_indices":[16,24,1,11,1,16,6,16,16,1,16,11,19,1,1,0,0,0,0,0,0,0,0,0,0,0,0,0,0,0,0],"split_type":[0,0,0,0,0,0,0,0,0,0,0,0,0,0,0,0,0,0,0,0,0,0,0,0,0,0,0,0,0,0,0],"sum_hessian":[1.719E3,1.416E3,3.03E2,1.116E3,3E2,2E2,1.03E2,3.06E2,8.1E2,7.8E1,2.22E2,1.43E2,5.7E1,8.1E1,2.2E1,4E0,3.02E2,2.5E2,5.6E2,1E0,7.7E1,1.3E1,2.09E2,1.15E2,2.8E1,5.2E1,5E0,4.7E1,3.4E1,5E0,1.7E1],"tree_param":{"num_deleted":"0","num_feature":"29","num_nodes":"31","size_leaf_vector":"1"}},{"base_weights":[5.9630927E-3,-1.4002778E-1,2.9156482E-1,-3.4041134E-1,-5.161751E-2,3.868642E-1,1.1051549E-1,3.647473E-2,-4.828361E-1,2.9161163E-3,-2.4996848E-1,3.2293418E-1,6.707402E-1,-5.1357068E-2,2.8826395E-1,1.18090985E-2,-1.563143E-2,-3.8877923E-2,-1.8276973E-2,-1.6416408E-3,1.2965812E-2,-4.2318966E-2,-1.0139539E-2,1.2837069E-2,2.574133E-2,2.9816378E-2,6.1700195E-2,-1.0168974E-3,-4.1475274E-2,1.8647334E-2,1.8117198E-3],"categories":[],"categories_nodes":[],"categories_segments":[],"categories_sizes":[],"default_left":[0,0,0,0,0,0,0,0,0,0,0,0,0,0,0,0,0,0,0,0,0,0,0,0,0,0,0,0,0,0,0],"id":32,"left_children":[1,3,5,7,9,11,13,15,17,19,21,23,25,27,29,-1,-1,-1,-1,-1,-1,-1,-1,-1,-1,-1,-1,-1,-1,-1,-1],"loss_changes":[7.0630875E1,1.9842024E1,9.843723E0,1.8429134E1,8.427014E0,6.5889626E0,5.740551E0,6.6970906E0,8.323685E0,5.618125E0,4.5554256E0,3.7800064E0,2.1142788E0,2.5175653E0,2.0140295E0,0E0,0E0,0E0,0E0,0E0,0E0,0E0,0E0,0E0,0E0,0E0,0E0,0E0,0E0,0E0,0E0],"parents":[2147483647,0,0,1,1,2,2,3,3,4,4,5,5,6,6,7,7,8,8,9,9,10,10,11,11,12,12,13,13,14,14],"right_children":[2,4,6,8,10,12,14,16,18,20,22,24,26,28,30,-1,-1,-1,-1,-1,-1,-1,-1,-1,-1,-1,-1,-1,-1,-1,-1],"split_conditions":[8.5E6,2.3E6,2.019E3,2.1E1,2.019E3,2.6E7,1.75E7,2E0,1.2E6,3.5E1,1E0,1E0,7E7,6E0,5.9E1,1.18090985E-2,-1.563143E-2,-3.8877923E-2,-1.8276973E-2,-1.6416408E-3,1.2965812E-2,-4.2318966E-2,-1.0139539E-2,1.2837069E-2,2.574133E-2,2.9816378E-2,6.1700195E-2,-1.0168974E-3,-4.1475274E-2,1.8647334E-2,1.8117198E-3],"split_indices":[15,15,23,16,23,15,15,19,15,0,17,22,15,19,10,0,0,0,0,0,0,0,0,0,0,0,0,0,0,0,0],"split_type":[0,0,0,0,0,0,0,0,0,0,0,0,0,0,0,0,0,0,0,0,0,0,0,0,0,0,0,0,0,0,0],"sum_hessian":[1.692E3,1.12E3,5.72E2,3.42E2,7.78E2,3.74E2,1.98E2,9.4E1,2.48E2,6.11E2,1.67E2,3.07E2,6.7E1,1.04E2,9.4E1,6E1,3.4E1,6.9E1,1.79E2,5.37E2,7.4E1,1.1E1,1.56E2,2.3E2,7.7E1,6.1E1,6E0,1.01E2,3E0,7E1,2.4E1],"tree_param":{"num_deleted":"0","num_feature":"29","num_nodes":"31","size_leaf_vector":"1"}},{"base_weights":[7.0164055E-3,-2.2900605E-1,1.9390132E-1,-2.1174052E-1,-1.3806734E0,9.480258E-2,3.5059607E-1,1.61556E-1,-2.5550538E-1,-1.5380804E-1,-2.8221502E0,-5.5692655E-1,1.11698106E-1,-2.372176E-1,3.7096193E-1,1.5402469E-3,3.183004E-2,-2.6199708E-2,-7.512675E-3,-1.9364357E-2,8.5205084E-4,-5.1073073E-3,-1.7383073E-1,-3.2123886E-2,1.601975E-2,3.4015402E-2,4.9679107E-3,2.4285972E-2,-2.5133533E-2,1.5288966E-2,2.595082E-2],"categories":[],"categories_nodes":[],"categories_segments":[],"categories_sizes":[],"default_left":[0,0,0,0,0,0,0,0,0,0,0,0,0,0,0,0,0,0,0,0,0,0,0,0,0,0,0,0,0,0,0],"id":33,"left_children":[1,3,5,7,9,11,13,15,17,19,21,23,25,27,29,-1,-1,-1,-1,-1,-1,-1,-1,-1,-1,-1,-1,-1,-1,-1,-1],"loss_changes":[7.5559074E1,1.4759953E1,1.4811775E1,1.2245216E1,1.9019405E1,6.525843E0,4.517391E0,4.887286E0,1.88265E1,2.8582752E-1,8.5456085E0,1.3316851E0,3.9529076E0,2.7389328E0,3.2961998E0,0E0,0E0,0E0,0E0,0E0,0E0,0E0,0E0,0E0,0E0,0E0,0E0,0E0,0E0,0E0,0E0],"parents":[2147483647,0,0,1,1,2,2,3,3,4,4,5,5,6,6,7,7,8,8,9,9,10,10,11,11,12,12,13,13,14,14],"right_children":[2,4,6,8,10,12,14,16,18,20,22,24,26,28,30,-1,-1,-1,-1,-1,-1,-1,-1,-1,-1,-1,-1,-1,-1,-1,-1],"split_conditions":[4.75E6,8E0,1.25E7,2E1,2.9E1,2E0,2E0,1.29E0,1.75E6,2.6E1,6.5E5,3.5E-1,1.9E1,1E-1,8E0,1.5402469E-3,3.183004E-2,-2.6199708E-2,-7.512675E-3,-1.9364357E-2,8.5205084E-4,-5.1073073E-3,-1.7383073E-1,-3.2123886E-2,1.601975E-2,3.4015402E-2,4.9679107E-3,2.4285972E-2,-2.5133533E-2,1.5288966E-2,2.595082E-2],"split_indices":[15,19,15,16,16,18,18,13,15,16,15,8,16,8,18,0,0,0,0,0,0,0,0,0,0,0,0,0,0,0,0],"split_type":[0,0,0,0,0,0,0,0,0,0,0,0,0,0,0,0,0,0,0,0,0,0,0,0,0,0,0,0,0,0,0],"sum_hessian":[1.711E3,7.56E2,9.55E2,7.46E2,1E1,5.86E2,3.69E2,7.8E1,6.68E2,6E0,4E0,1.4E1,5.72E2,1.2E1,3.57E2,6.2E1,1.6E1,1.87E2,4.81E2,2E0,4E0,1E0,3E0,1.3E1,1E0,1.1E1,5.61E2,3E0,9E0,2.5E2,1.07E2],"tree_param":{"num_deleted":"0","num_feature":"29","num_nodes":"31","size_leaf_vector":"1"}},{"base_weights":[-1.8408785E-3,-1.23751275E-1,2.4545395E-1,-5.4063126E-3,-2.604306E-1,1.7198303E-1,4.2118713E-1,-5.4555062E-2,2.561005E-1,-6.0550827E-1,-1.8830647E-1,2.4805444E-1,1.5043164E-2,3.7111276E-1,4.8906237E-2,-7.355491E-3,3.4828268E-3,5.3541847E-2,1.0009091E-2,-3.4282405E-2,5.6094457E-3,-6.7080497E-3,-1.876708E-2,1.4993692E-2,-2.740643E-3,-9.766529E-3,5.825769E-3,2.4623912E-2,1.2246383E-2],"categories":[],"categories_nodes":[],"categories_segments":[],"categories_sizes":[],"default_left":[0,0,0,0,0,0,0,0,0,0,0,0,0,0,0,0,0,0,0,0,0,0,0,0,0,0,0,0,0],"id":34,"left_children":[1,3,5,7,9,11,13,15,17,19,21,23,25,27,-1,-1,-1,-1,-1,-1,-1,-1,-1,-1,-1,-1,-1,-1,-1],"loss_changes":[5.1311802E1,1.8438448E1,7.1837044E0,7.879844E0,1.3051956E1,4.7478437E0,4.238573E0,5.9423766E0,4.2048597E0,5.3108864E0,4.395443E0,4.222536E0,2.8192277E0,2.2224998E0,0E0,0E0,0E0,0E0,0E0,0E0,0E0,0E0,0E0,0E0,0E0,0E0,0E0,0E0,0E0],"parents":[2147483647,0,0,1,1,2,2,3,3,4,4,5,5,6,6,7,7,8,8,9,9,10,10,11,11,12,12,13,13],"right_children":[2,4,6,8,10,12,14,16,18,20,22,24,26,28,-1,-1,-1,-1,-1,-1,-1,-1,-1,-1,-1,-1,-1,-1,-1],"split_conditions":[8.5E6,2.5E1,2.2E7,1E0,1.75E6,2.019E3,7E7,3.25E6,1.9E1,1E0,2.019E3,2.5E-1,1.15E7,2.6E1,4.8906237E-2,-7.355491E-3,3.4828268E-3,5.3541847E-2,1.0009091E-2,-3.4282405E-2,5.6094457E-3,-6.7080497E-3,-1.876708E-2,1.4993692E-2,-2.740643E-3,-9.766529E-3,5.825769E-3,2.4623912E-2,1.2246383E-2],"split_indices":[15,16,15,24,15,23,15,15,16,24,23,5,15,10,0,0,0,0,0,0,0,0,0,0,0,0,0,0,0],"split_type":[0,0,0,0,0,0,0,0,0,0,0,0,0,0,0,0,0,0,0,0,0,0,0,0,0,0,0,0,0],"sum_hessian":[1.7E3,1.139E3,5.61E2,6.11E2,5.28E2,3.97E2,1.64E2,5.15E2,9.6E1,9E1,4.38E2,2.67E2,1.3E2,1.52E2,1.2E1,2.95E2,2.2E2,5E0,9.1E1,8.1E1,9E0,3.41E2,9.7E1,2.28E2,3.9E1,4.2E1,8.8E1,7.6E1,7.6E1],"tree_param":{"num_deleted":"0","num_feature":"29","num_nodes":"29","size_leaf_vector":"1"}},{"base_weights":[-1.5695889E-2,-1.1508132E-1,3.0146316E-1,-4.6129555E-2,-3.896735E-1,2.6793975E-1,6.357979E-1,-1.753844E-1,5.1854394E-2,-6.111673E-1,-2.4049838E-1,3.139708E-1,3.2800812E-2,8.1046104E-1,2.9096133E-1,7.963337E-3,-1.2031452E-2,4.5573893E-3,-1.3431828E-2,-1.5863439E-2,-5.0904322E-2,-3.1698067E-2,-7.971189E-3,1.718199E-2,4.393772E-3,-3.903381E-2,5.0591803E-3,4.253107E-2,-2.8306486E-3,2.163333E-2,-8.573425E-3],"categories":[],"categories_nodes":[],"categories_segments":[],"categories_sizes":[],"default_left":[0,0,0,0,0,0,0,0,0,0,0,0,0,0,0,0,0,0,0,0,0,0,0,0,0,0,0,0,0,0,0],"id":35,"left_children":[1,3,5,7,9,11,13,15,17,19,21,23,25,27,29,-1,-1,-1,-1,-1,-1,-1,-1,-1,-1,-1,-1,-1,-1,-1,-1],"loss_changes":[5.469209E1,2.499333E1,4.4697723E0,1.3395894E1,8.608978E0,4.0810585E0,1.9927073E0,9.994716E0,7.6055765E0,1.23538475E1,5.0029078E0,2.0895367E0,3.5835452E0,8.838835E-1,9.915911E-1,0E0,0E0,0E0,0E0,0E0,0E0,0E0,0E0,0E0,0E0,0E0,0E0,0E0,0E0,0E0,0E0],"parents":[2147483647,0,0,1,1,2,2,3,3,4,4,5,5,6,6,7,7,8,8,9,9,10,10,11,11,12,12,13,13,14,14],"right_children":[2,4,6,8,10,12,14,16,18,20,22,24,26,28,30,-1,-1,-1,-1,-1,-1,-1,-1,-1,-1,-1,-1,-1,-1,-1,-1],"split_conditions":[1.15E7,2.8E1,4.2E7,3.5E6,3E6,2.3E-1,1E0,2E1,1.8E0,1E0,8E0,2.8E1,2E0,3.8E1,1E0,7.963337E-3,-1.2031452E-2,4.5573893E-3,-1.3431828E-2,-1.5863439E-2,-5.0904322E-2,-3.1698067E-2,-7.971189E-3,1.718199E-2,4.393772E-3,-3.903381E-2,5.0591803E-3,4.253107E-2,-2.8306486E-3,2.163333E-2,-8.573425E-3],"split_indices":[15,16,15,15,15,8,21,16,7,22,10,16,18,0,27,0,0,0,0,0,0,0,0,0,0,0,0,0,0,0,0],"split_type":[0,0,0,0,0,0,0,0,0,0,0,0,0,0,0,0,0,0,0,0,0,0,0,0,0,0,0,0,0,0,0],"sum_hessian":[1.733E3,1.32E3,4.13E2,1.056E3,2.64E2,3.77E2,3.6E1,4.55E2,6.01E2,1.05E2,1.59E2,3.15E2,6.2E1,2.3E1,1.3E1,7.4E1,3.81E2,5.36E2,6.5E1,6.2E1,4.3E1,2.6E1,1.33E2,2.78E2,3.7E1,4E0,5.8E1,2.2E1,1E0,1E1,3E0],"tree_param":{"num_deleted":"0","num_feature":"29","num_nodes":"31","size_leaf_vector":"1"}},{"base_weights":[4.9364637E-3,-1.3350506E-1,2.1597555E-1,-3.5300425E-1,-6.773607E-2,1.9141266E-1,6.2269014E-1,-4.0967092E-2,-5.437687E-1,3.595876E-2,-1.4288028E-1,2.544987E-1,3.0723056E-2,5.292221E-1,5.1649142E-2,-3.1655047E-2,2.8495614E-3,-3.5447504E-2,-1.1418072E-2,2.6021138E-4,2.8779125E-2,-8.155166E-3,1.4382233E-2,1.5523001E-2,2.6810523E-3,-7.787492E-2,2.8584828E-3,2.8441181E-2,-2.8200946E-3],"categories":[],"categories_nodes":[],"categories_segments":[],"categories_sizes":[],"default_left":[0,0,0,0,0,0,0,0,0,0,0,0,0,0,0,0,0,0,0,0,0,0,0,0,0,0,0,0,0],"id":36,"left_children":[1,3,5,7,9,11,13,15,17,19,21,23,25,27,-1,-1,-1,-1,-1,-1,-1,-1,-1,-1,-1,-1,-1,-1,-1],"loss_changes":[4.9784657E1,1.483098E1,6.624119E0,1.4085287E1,6.184245E0,6.4597607E0,9.1059494E-1,5.314485E0,7.4967194E0,5.5400267E0,4.05192E0,5.131901E0,7.691594E0,7.974062E-1,0E0,0E0,0E0,0E0,0E0,0E0,0E0,0E0,0E0,0E0,0E0,0E0,0E0,0E0,0E0],"parents":[2147483647,0,0,1,1,2,2,3,3,4,4,5,5,6,6,7,7,8,8,9,9,10,10,11,11,12,12,13,13],"right_children":[2,4,6,8,10,12,14,16,18,20,22,24,26,28,-1,-1,-1,-1,-1,-1,-1,-1,-1,-1,-1,-1,-1,-1,-1],"split_conditions":[7.2E6,1.75E6,4.2E7,2.2E1,2.4E1,1.2E0,1E8,2E0,1.7E-1,2.95E0,3.134E3,2.7E1,8E0,6E0,5.1649142E-2,-3.1655047E-2,2.8495614E-3,-3.5447504E-2,-1.1418072E-2,2.6021138E-4,2.8779125E-2,-8.155166E-3,1.4382233E-2,1.5523001E-2,2.6810523E-3,-7.787492E-2,2.8584828E-3,2.8441181E-2,-2.8200946E-3],"split_indices":[15,15,15,16,16,7,15,10,6,13,1,16,10,19,0,0,0,0,0,0,0,0,0,0,0,0,0,0,0],"split_type":[0,0,0,0,0,0,0,0,0,0,0,0,0,0,0,0,0,0,0,0,0,0,0,0,0,0,0,0,0],"sum_hessian":[1.702E3,1.028E3,6.74E2,2.36E2,7.92E2,6.37E2,3.7E1,9E1,1.46E2,3.33E2,4.59E2,4.57E2,1.8E2,3.2E1,5E0,1.2E1,7.8E1,9.5E1,5.1E1,3.16E2,1.7E1,4.39E2,2E1,3.57E2,1E2,2E0,1.78E2,3E1,2E0],"tree_param":{"num_deleted":"0","num_feature":"29","num_nodes":"29","size_leaf_vector":"1"}},{"base_weights":[6.5908437E-3,-1.773978E-1,1.512291E-1,-2.2223116E-1,2.4786958E-1,1.0081763E-1,3.989029E-1,-1.6961463E-1,-4.684131E-1,7.108047E-2,5.5791646E-1,1.611994E-1,-6.0479555E-2,-2.514739E-1,4.213603E-1,-9.1587445E-3,3.4121685E-2,-2.101601E-2,-1.5358442E-1,-1.0222015E-3,3.499526E-2,4.2552736E-2,9.965622E-3,8.708072E-3,-2.3234468E-2,5.644896E-4,-1.3350901E-2,-1.7750902E-2,6.65617E-3,1.7131587E-2,2.8186241E-2],"categories":[],"categories_nodes":[],"categories_segments":[],"categories_sizes":[],"default_left":[0,0,0,0,0,0,0,0,0,0,0,0,0,0,0,0,0,0,0,0,0,0,0,0,0,0,0,0,0,0,0],"id":37,"left_children":[1,3,5,7,9,11,13,15,17,19,21,23,25,27,29,-1,-1,-1,-1,-1,-1,-1,-1,-1,-1,-1,-1,-1,-1,-1,-1],"loss_changes":[4.534672E1,1.4354712E1,1.1871044E1,8.715801E0,3.9068718E0,7.7428417E0,2.4574966E0,6.6067905E0,1.3607597E1,2.7192938E0,2.56351E0,4.7701187E0,3.219634E0,2.86198E-1,1.5553188E0,0E0,0E0,0E0,0E0,0E0,0E0,0E0,0E0,0E0,0E0,0E0,0E0,0E0,0E0,0E0,0E0],"parents":[2147483647,0,0,1,1,2,2,3,3,4,4,5,5,6,6,7,7,8,8,9,9,10,10,11,11,12,12,13,13,14,14],"right_children":[2,4,6,8,10,12,14,16,18,20,22,24,26,28,30,-1,-1,-1,-1,-1,-1,-1,-1,-1,-1,-1,-1,-1,-1,-1,-1],"split_conditions":[4.75E6,1E0,2.3E7,2.019E3,8E0,2.019E3,2E0,3.232E3,8E0,2.6E1,3.2E6,4.5E0,2.2E-1,2.9E1,8E0,-9.1587445E-3,3.4121685E-2,-2.101601E-2,-1.5358442E-1,-1.0222015E-3,3.499526E-2,4.2552736E-2,9.965622E-3,8.708072E-3,-2.3234468E-2,5.644896E-4,-1.3350901E-2,-1.7750902E-2,6.65617E-3,1.7131587E-2,2.8186241E-2],"split_indices":[15,24,15,23,18,23,18,1,19,10,15,7,8,0,18,0,0,0,0,0,0,0,0,0,0,0,0,0,0,0,0],"split_type":[0,0,0,0,0,0,0,0,0,0,0,0,0,0,0,0,0,0,0,0,0,0,0,0,0,0,0,0,0,0,0],"sum_hessian":[1.702E3,7.49E2,9.53E2,6.78E2,7.1E1,7.93E2,1.6E2,5.6E2,1.18E2,4.6E1,2.5E1,5.77E2,2.16E2,5E0,1.55E2,5.52E2,8E0,1.17E2,1E0,4.1E1,5E0,1.3E1,1.2E1,5.66E2,1.1E1,1.61E2,5.5E1,4E0,1E0,1.02E2,5.3E1],"tree_param":{"num_deleted":"0","num_feature":"29","num_nodes":"31","size_leaf_vector":"1"}},{"base_weights":[-4.326067E-3,4.9936235E-2,-2.6288784E-1,-4.0334195E-2,1.1919822E-1,-3.0487028E-1,2.9740185E-1,4.903921E-2,-4.870652E-2,6.4966923E-1,1.0603932E-1,-2.66149E-1,-9.557143E-1,1.1221556E-1,4.555516E-1,-1.6520487E-2,-1.1642949E-3,9.529806E-3,4.5078944E-2,7.447738E-3,-2.320807E-3,-1.0260008E-2,-2.933501E-2,-5.748537E-6,-1.02390565E-1,2.06211E-2,-5.91242E-3,2.4395918E-2,3.2970905E-3],"categories":[],"categories_nodes":[],"categories_segments":[],"categories_sizes":[],"default_left":[0,0,0,0,0,0,0,0,0,0,0,0,0,0,0,0,0,0,0,0,0,0,0,0,0,0,0,0,0],"id":38,"left_children":[1,3,5,7,9,11,13,-1,15,17,19,21,23,25,27,-1,-1,-1,-1,-1,-1,-1,-1,-1,-1,-1,-1,-1,-1],"loss_changes":[2.3780212E1,8.764293E0,7.006237E0,5.2541957E0,5.4665775E0,6.6508484E0,5.639105E-1,0E0,4.3247547E0,2.0254173E0,5.0775013E0,4.9592915E0,1.56538725E1,8.0982256E-1,1.065402E-1,0E0,0E0,0E0,0E0,0E0,0E0,0E0,0E0,0E0,0E0,0E0,0E0,0E0,0E0],"parents":[2147483647,0,0,1,1,2,2,3,3,4,4,5,5,6,6,8,8,9,9,10,10,11,11,12,12,13,13,14,14],"right_children":[2,4,6,8,10,12,14,-1,16,18,20,22,24,26,28,-1,-1,-1,-1,-1,-1,-1,-1,-1,-1,-1,-1,-1,-1],"split_conditions":[2.8E1,5E0,2.4E1,1.7E1,1.9E1,8E0,2E0,4.903921E-2,5.5E1,1E1,1E0,3.64E1,1E0,1E0,5E0,-1.6520487E-2,-1.1642949E-3,9.529806E-3,4.5078944E-2,7.447738E-3,-2.320807E-3,-1.0260008E-2,-2.933501E-2,-5.748537E-6,-1.02390565E-1,2.06211E-2,-5.91242E-3,2.4395918E-2,3.2970905E-3],"split_indices":[16,11,11,16,16,19,19,0,1,11,26,12,25,3,3,0,0,0,0,0,0,0,0,0,0,0,0,0,0],"split_type":[0,0,0,0,0,0,0,0,0,0,0,0,0,0,0,0,0,0,0,0,0,0,0,0,0,0,0,0,0],"sum_hessian":[1.693E3,1.4E3,2.93E2,6.08E2,7.92E2,2.73E2,2E1,4E0,6.04E2,1.8E1,7.74E2,2.59E2,1.4E1,1E1,1E1,4.9E1,5.55E2,7E0,1.1E1,6.04E2,1.7E2,2.19E2,4E1,8E0,6E0,4E0,6E0,9E0,1E0],"tree_param":{"num_deleted":"0","num_feature":"29","num_nodes":"29","size_leaf_vector":"1"}},{"base_weights":[7.936124E-3,-4.8769545E-2,2.3302689E-1,1.2519392E-1,-1.0723672E-1,1.6016412E-1,4.3016723E-1,-3.540281E-2,2.3136477E-1,-8.364164E-2,-4.6404663E-1,1.7638181E-1,-1.2014503E0,4.8817575E-1,2.0562902E-1,2.0076667E-3,-3.4024905E-2,1.8560937E-2,1.4874385E-3,-4.9193883E-3,1.881862E-2,-1.6774824E-2,-7.0389554E-2,-3.9232746E-2,9.998381E-3,-1.5845513E-2,-7.426327E-2,1.6383333E-2,2.9685736E-2,1.1252622E-2,-4.085398E-3],"categories":[],"categories_nodes":[],"categories_segments":[],"categories_sizes":[],"default_left":[0,0,0,0,0,0,0,0,0,0,0,0,0,0,0,0,0,0,0,0,0,0,0,0,0,0,0,0,0,0,0],"id":39,"left_children":[1,3,5,7,9,11,13,15,17,19,21,23,25,27,29,-1,-1,-1,-1,-1,-1,-1,-1,-1,-1,-1,-1,-1,-1,-1,-1],"loss_changes":[2.1059072E1,1.34190035E1,4.700014E0,5.6690207E0,8.270699E0,5.5999784E0,1.0588531E0,6.509866E0,5.628316E0,6.3252645E0,6.928117E0,5.642281E0,2.8244162E-1,9.912567E-1,1.3000995E-1,0E0,0E0,0E0,0E0,0E0,0E0,0E0,0E0,0E0,0E0,0E0,0E0,0E0,0E0,0E0,0E0],"parents":[2147483647,0,0,1,1,2,2,3,3,4,4,5,5,6,6,7,7,8,8,9,9,10,10,11,11,12,12,13,13,14,14],"right_children":[2,4,6,8,10,12,14,16,18,20,22,24,26,28,30,-1,-1,-1,-1,-1,-1,-1,-1,-1,-1,-1,-1,-1,-1,-1,-1],"split_conditions":[1E0,2.2E1,7.6E-1,2.6E-1,3.1E1,5.4E-1,2.7E1,1.8E-1,2E0,3.9E1,7E0,3E1,7.89E2,2E0,3.134E3,2.0076667E-3,-3.4024905E-2,1.8560937E-2,1.4874385E-3,-4.9193883E-3,1.881862E-2,-1.6774824E-2,-7.0389554E-2,-3.9232746E-2,9.998381E-3,-1.5845513E-2,-7.426327E-2,1.6383333E-2,2.9685736E-2,1.1252622E-2,-4.085398E-3],"split_indices":[24,16,14,14,16,6,16,6,19,11,19,1,1,19,1,0,0,0,0,0,0,0,0,0,0,0,0,0,0,0,0],"split_type":[0,0,0,0,0,0,0,0,0,0,0,0,0,0,0,0,0,0,0,0,0,0,0,0,0,0,0,0,0,0,0],"sum_hessian":[1.648E3,1.317E3,3.31E2,3.31E2,9.86E2,2.43E2,8.8E1,1.32E2,1.99E2,9.26E2,6E1,2.41E2,2E0,6.9E1,1.9E1,1.19E2,1.3E1,1.17E2,8.2E1,8.98E2,2.8E1,5.4E1,6E0,5E0,2.36E2,1E0,1E0,2.9E1,4E1,1.8E1,1E0],"tree_param":{"num_deleted":"0","num_feature":"29","num_nodes":"31","size_leaf_vector":"1"}},{"base_weights":[-3.3572264E-4,5.8920458E-2,-1.7628236E-1,1.1334723E-1,-1.0753463E-1,-8.712704E-1,-1.5561211E-1,7.390957E-2,3.38261E-1,-2.5065243E-1,-4.1487203E-3,-2.3888779E-1,-1.0555215E0,-4.2263448E-1,-9.493166E-2,2.1250842E-3,1.27568785E-2,2.4748363E-2,5.603831E-3,4.2333875E-2,-1.3720646E-2,3.0614296E-2,-2.577111E-3,5.8631896E-4,-2.4768258E-2,-5.8113765E-2,-5.037284E-3,-1.600472E-2,-4.2693835E-2,-1.1453676E-2,3.170184E-4],"categories":[],"categories_nodes":[],"categories_segments":[],"categories_sizes":[],"default_left":[0,0,0,0,0,0,0,0,0,0,0,0,0,0,0,0,0,0,0,0,0,0,0,0,0,0,0,0,0,0,0],"id":40,"left_children":[1,3,5,7,9,11,13,15,17,19,21,23,25,27,29,-1,-1,-1,-1,-1,-1,-1,-1,-1,-1,-1,-1,-1,-1,-1,-1],"loss_changes":[1.7505089E1,1.1391064E1,5.941057E0,8.374957E0,4.5858335E0,1.1460562E0,6.6355295E0,4.582592E0,4.9422035E0,3.6218357E0,5.319473E0,2.6291627E-1,8.002386E-1,3.08737E0,4.5795355E0,0E0,0E0,0E0,0E0,0E0,0E0,0E0,0E0,0E0,0E0,0E0,0E0,0E0,0E0,0E0,0E0],"parents":[2147483647,0,0,1,1,2,2,3,3,4,4,5,5,6,6,7,7,8,8,9,9,10,10,11,11,12,12,13,13,14,14],"right_children":[2,4,6,8,10,12,14,16,18,20,22,24,26,28,30,-1,-1,-1,-1,-1,-1,-1,-1,-1,-1,-1,-1,-1,-1,-1,-1],"split_conditions":[2.7E1,1E0,2E0,2.2E1,1.7E1,7.5E-1,4.8E-1,1E0,1.69E0,1.6E1,1.9E1,2.4E1,6E0,2E0,1.387E3,2.1250842E-3,1.27568785E-2,2.4748363E-2,5.603831E-3,4.2333875E-2,-1.3720646E-2,3.0614296E-2,-2.577111E-3,5.8631896E-4,-2.4768258E-2,-5.8113765E-2,-5.037284E-3,-1.600472E-2,-4.2693835E-2,-1.1453676E-2,3.170184E-4],"split_indices":[16,26,18,11,0,13,13,4,13,16,16,0,2,2,1,0,0,0,0,0,0,0,0,0,0,0,0,0,0,0,0],"split_type":[0,0,0,0,0,0,0,0,0,0,0,0,0,0,0,0,0,0,0,0,0,0,0,0,0,0,0,0,0,0,0],"sum_hessian":[1.677E3,1.255E3,4.22E2,9.46E2,3.09E2,1.1E1,4.11E2,8.06E2,1.4E2,1.29E2,1.8E2,3E0,8E0,7.5E1,3.36E2,6.88E2,1.18E2,8.2E1,5.8E1,2E0,1.27E2,1.2E1,1.68E2,2E0,1E0,7E0,1E0,6.2E1,1.3E1,1.44E2,1.92E2],"tree_param":{"num_deleted":"0","num_feature":"29","num_nodes":"31","size_leaf_vector":"1"}},{"base_weights":[-3.8045438E-3,-1.1121202E-1,2.1178304E-1,-3.0541113E-1,-6.102095E-2,-3.1567705E-1,2.2884645E-1,-5.0670165E-1,-9.07298E-2,-3.9212056E-2,-5.1485986E-1,-6.010499E-1,3.64791E-2,2.4242307E-1,-3.4435418E-1,-3.313974E-2,-9.092399E-3,-2.8896054E-2,3.831753E-4,-3.90267E-3,5.957166E-3,-3.931316E-2,-2.0825327E-3,-3.6904655E-2,1.5808463E-2,1.5747223E-2,-1.2464104E-2,9.206861E-3,1.7151175E-2,-3.5802E-2,-1.1272788E-3],"categories":[],"categories_nodes":[],"categories_segments":[],"categories_sizes":[],"default_left":[0,0,0,0,0,0,0,0,0,0,0,0,0,0,0,0,0,0,0,0,0,0,0,0,0,0,0,0,0,0,0],"id":41,"left_children":[1,3,5,7,9,11,13,15,17,19,21,23,25,27,29,-1,-1,-1,-1,-1,-1,-1,-1,-1,-1,-1,-1,-1,-1,-1,-1],"loss_changes":[3.9064095E1,1.0956554E1,5.121393E0,9.936306E0,8.848173E0,1.8308502E0,4.3169556E0,5.9136505E0,5.4212384E0,5.2743297E0,5.2329025E0,1.4903483E0,7.9468125E-1,3.056261E0,1.5388083E0,0E0,0E0,0E0,0E0,0E0,0E0,0E0,0E0,0E0,0E0,0E0,0E0,0E0,0E0,0E0,0E0],"parents":[2147483647,0,0,1,1,2,2,3,3,4,4,5,5,6,6,7,7,8,8,9,9,10,10,11,11,12,12,13,13,14,14],"right_children":[2,4,6,8,10,12,14,16,18,20,22,24,26,28,30,-1,-1,-1,-1,-1,-1,-1,-1,-1,-1,-1,-1,-1,-1,-1,-1],"split_conditions":[8.5E6,1.75E6,2E0,5E0,3.1E1,1.65E7,8.3E0,1E0,9.5E1,1E0,2.05E3,5.5E1,1.8E1,2E7,2.25E7,-3.313974E-2,-9.092399E-3,-2.8896054E-2,3.831753E-4,-3.90267E-3,5.957166E-3,-3.931316E-2,-2.0825327E-3,-3.6904655E-2,1.5808463E-2,1.5747223E-2,-1.2464104E-2,9.206861E-3,1.7151175E-2,-3.5802E-2,-1.1272788E-3],"split_indices":[15,15,18,17,16,15,7,2,1,24,1,10,0,15,15,0,0,0,0,0,0,0,0,0,0,0,0,0,0,0,0],"split_type":[0,0,0,0,0,0,0,0,0,0,0,0,0,0,0,0,0,0,0,0,0,0,0,0,0,0,0,0,0,0,0],"sum_hessian":[1.685E3,1.125E3,5.6E2,2.3E2,8.95E2,1.7E1,5.43E2,1.18E2,1.12E2,8.55E2,4E1,9E0,8E0,5.31E2,1.2E1,7.9E1,3.9E1,1.8E1,9.4E1,6.87E2,1.68E2,2.5E1,1.5E1,8E0,1E0,4E0,4E0,3.38E2,1.93E2,5E0,7E0],"tree_param":{"num_deleted":"0","num_feature":"29","num_nodes":"31","size_leaf_vector":"1"}},{"base_weights":[8.344747E-3,-9.371685E-2,2.0555504E-1,-5.4431915E-1,-7.0270255E-2,1.5028301E-1,4.170198E-1,-2.7350444E-1,-8.827255E-1,-2.5575714E-2,-2.4499853E-1,-4.2531145E-1,1.7068668E-1,3.8633832E-1,5.196451E-2,-3.8187288E-2,9.828727E-4,-1.1832742E-2,-5.4246742E-2,-3.4015055E-3,8.673813E-3,-4.4154096E-2,-1.0970103E-2,2.1195633E-2,-2.8845433E-2,1.1249257E-2,2.1695923E-3,1.9760853E-2,-1.5645957E-2],"categories":[],"categories_nodes":[],"categories_segments":[],"categories_sizes":[],"default_left":[0,0,0,0,0,0,0,0,0,0,0,0,0,0,0,0,0,0,0,0,0,0,0,0,0,0,0,0,0],"id":42,"left_children":[1,3,5,7,9,11,13,15,17,19,21,23,25,27,-1,-1,-1,-1,-1,-1,-1,-1,-1,-1,-1,-1,-1,-1,-1],"loss_changes":[3.405503E1,1.1741828E1,6.6813583E0,4.7990685E0,8.279508E0,5.4632006E0,1.8704529E0,4.6140547E0,2.878643E0,7.161036E0,3.3341112E0,2.3043993E0,3.0591269E0,8.376503E-1,0E0,0E0,0E0,0E0,0E0,0E0,0E0,0E0,0E0,0E0,0E0,0E0,0E0,0E0,0E0],"parents":[2147483647,0,0,1,1,2,2,3,3,4,4,5,5,6,6,7,7,8,8,9,9,10,10,11,11,12,12,13,13],"right_children":[2,4,6,8,10,12,14,16,18,20,22,24,26,28,-1,-1,-1,-1,-1,-1,-1,-1,-1,-1,-1,-1,-1,-1,-1],"split_conditions":[8.5E6,9E5,2.6E7,2.5E1,2.8E1,2E0,8.1E7,9.5E1,1E0,1E0,2E0,1E0,2.019E3,9E0,5.196451E-2,-3.8187288E-2,9.828727E-4,-1.1832742E-2,-5.4246742E-2,-3.4015055E-3,8.673813E-3,-4.4154096E-2,-1.0970103E-2,2.1195633E-2,-2.8845433E-2,1.1249257E-2,2.1695923E-3,1.9760853E-2,-1.5645957E-2],"split_indices":[15,15,15,16,16,18,15,1,19,24,18,19,23,19,0,0,0,0,0,0,0,0,0,0,0,0,0,0,0],"split_type":[0,0,0,0,0,0,0,0,0,0,0,0,0,0,0,0,0,0,0,0,0,0,0,0,0,0,0,0,0],"sum_hessian":[1.69E3,1.114E3,5.76E2,5.4E1,1.06E3,4.58E2,1.18E2,3.1E1,2.3E1,8.45E2,2.15E2,1.5E1,4.43E2,1.14E2,4E0,1.1E1,2E1,6E0,1.7E1,6.97E2,1.48E2,7E0,2.08E2,2E0,1.3E1,3.1E2,1.33E2,1.13E2,1E0],"tree_param":{"num_deleted":"0","num_feature":"29","num_nodes":"29","size_leaf_vector":"1"}},{"base_weights":[8.484791E-3,-1.20052986E-1,1.8044302E-1,-3.2842038E-3,-2.1281922E-1,1.17255375E-1,3.3458042E-1,1.1499576E-1,-1.3597253E-1,-8.809268E-1,-1.7765212E-1,2.5646684E-1,4.7111146E-2,4.6028954E-1,1.7491455E-1,7.4222386E-3,-2.525158E-2,-9.661975E-3,1.0226302E-2,-2.094356E-3,-5.348568E-2,-8.068288E-3,-3.5705835E-2,1.4470808E-2,-1.5642205E-2,-2.3097573E-2,3.1793818E-3,2.1248862E-2,4.797655E-2,1.0051909E-2,-1.23046E-2],"categories":[],"categories_nodes":[],"categories_segments":[],"categories_sizes":[],"default_left":[0,0,0,0,0,0,0,0,0,0,0,0,0,0,0,0,0,0,0,0,0,0,0,0,0,0,0,0,0,0,0],"id":43,"left_children":[1,3,5,7,9,11,13,15,17,19,21,23,25,27,29,-1,-1,-1,-1,-1,-1,-1,-1,-1,-1,-1,-1,-1,-1,-1,-1],"loss_changes":[3.7773804E1,1.0593193E1,7.0804005E0,6.8269935E0,1.2648497E1,5.0656543E0,4.174637E0,4.845008E0,4.0368824E0,4.2319813E0,4.4193E0,3.3545074E0,2.9398594E0,1.6724854E0,1.0943038E0,0E0,0E0,0E0,0E0,0E0,0E0,0E0,0E0,0E0,0E0,0E0,0E0,0E0,0E0,0E0,0E0],"parents":[2147483647,0,0,1,1,2,2,3,3,4,4,5,5,6,6,7,7,8,8,9,9,10,10,11,11,12,12,13,13,14,14],"right_children":[2,4,6,8,10,12,14,16,18,20,22,24,26,28,30,-1,-1,-1,-1,-1,-1,-1,-1,-1,-1,-1,-1,-1,-1,-1,-1],"split_conditions":[6.5E6,2.4E1,2E7,2E0,1E6,2.3E1,2.019E3,1.6E0,4.1E-1,1E0,8E0,3.7E0,2E0,7E7,2.9E-1,7.4222386E-3,-2.525158E-2,-9.661975E-3,1.0226302E-2,-2.094356E-3,-5.348568E-2,-8.068288E-3,-3.5705835E-2,1.4470808E-2,-1.5642205E-2,-2.3097573E-2,3.1793818E-3,2.1248862E-2,4.797655E-2,1.0051909E-2,-1.23046E-2],"split_indices":[15,16,15,19,15,16,23,7,6,19,19,7,18,15,9,0,0,0,0,0,0,0,0,0,0,0,0,0,0,0,0],"split_type":[0,0,0,0,0,0,0,0,0,0,0,0,0,0,0,0,0,0,0,0,0,0,0,0,0,0,0,0,0,0,0],"sum_hessian":[1.707E3,9.77E2,7.3E2,4.33E2,5.44E2,5.19E2,2.11E2,2.29E2,2.04E2,2.6E1,5.18E2,1.73E2,3.46E2,1.17E2,9.4E1,2.18E2,1.1E1,1.75E2,2.9E1,5E0,2.1E1,5.04E2,1.4E1,1.64E2,9E0,1E1,3.36E2,1.11E2,6E0,8.9E1,5E0],"tree_param":{"num_deleted":"0","num_feature":"29","num_nodes":"31","size_leaf_vector":"1"}},{"base_weights":[-1.3122207E-2,-9.734164E-2,1.7631513E-1,-1.4137435E-1,1.3453475E-1,2.1470147E-1,-4.100731E-2,-9.316967E-2,-4.0700713E-1,1.05257615E-1,6.9537E-1,1.8825412E-1,4.95531E-1,7.6965116E-2,-3.6488318E-1,-1.1340079E-2,-1.1985811E-3,-1.5124458E-2,-6.602675E-2,1.4698915E-2,7.7431183E-4,4.9597425E-3,4.2576756E-2,1.2495337E-2,1.731283E-3,1.3520009E-2,3.3668607E-2,-1.8924346E-2,6.839793E-3,-9.307448E-3,-3.478795E-2],"categories":[],"categories_nodes":[],"categories_segments":[],"categories_sizes":[],"default_left":[0,0,0,0,0,0,0,0,0,0,0,0,0,0,0,0,0,0,0,0,0,0,0,0,0,0,0,0,0,0,0],"id":44,"left_children":[1,3,5,7,9,11,13,15,17,19,21,23,25,27,29,-1,-1,-1,-1,-1,-1,-1,-1,-1,-1,-1,-1,-1,-1,-1,-1],"loss_changes":[2.6644897E1,1.1821948E1,4.2967043E0,1.2408289E1,2.964442E0,3.152399E0,3.0083404E0,7.614146E0,1.38270855E1,2.9941316E0,7.53448E-1,3.7894554E0,1.2993088E0,1.6322776E0,1.1124005E0,0E0,0E0,0E0,0E0,0E0,0E0,0E0,0E0,0E0,0E0,0E0,0E0,0E0,0E0,0E0,0E0],"parents":[2147483647,0,0,1,1,2,2,3,3,4,4,5,5,6,6,7,7,8,8,9,9,10,10,11,11,12,12,13,13,14,14],"right_children":[2,4,6,8,10,12,14,16,18,20,22,24,26,28,30,-1,-1,-1,-1,-1,-1,-1,-1,-1,-1,-1,-1,-1,-1,-1,-1],"split_conditions":[1E7,1E0,1E0,4E0,7E0,4.2E7,3.59E1,2.3E6,3.1E1,2.3E1,2.7E6,3.2E1,1.02E0,5E0,2E-1,-1.1340079E-2,-1.1985811E-3,-1.5124458E-2,-6.602675E-2,1.4698915E-2,7.7431183E-4,4.9597425E-3,4.2576756E-2,1.2495337E-2,1.731283E-3,1.3520009E-2,3.3668607E-2,-1.8924346E-2,6.839793E-3,-9.307448E-3,-3.478795E-2],"split_indices":[15,24,28,19,19,15,12,15,16,16,15,10,14,18,9,0,0,0,0,0,0,0,0,0,0,0,0,0,0,0,0],"split_type":[0,0,0,0,0,0,0,0,0,0,0,0,0,0,0,0,0,0,0,0,0,0,0,0,0,0,0,0,0,0,0],"sum_hessian":[1.668E3,1.155E3,5.13E2,9.71E2,1.84E2,4.36E2,7.7E1,8.23E2,1.48E2,1.76E2,8E0,4E2,3.6E1,5.7E1,2E1,2.8E2,5.43E2,1.34E2,1.4E1,5.6E1,1.2E2,2E0,6E0,2.85E2,1.15E2,1.7E1,1.9E1,6E0,5.1E1,1.4E1,6E0],"tree_param":{"num_deleted":"0","num_feature":"29","num_nodes":"31","size_leaf_vector":"1"}},{"base_weights":[8.682507E-3,-8.089425E-2,1.8623522E-1,-1.7995095E-1,-1.0555423E-2,-3.6513853E-1,2.0400618E-1,-1.6712439E-1,-1.0497671E-1,-7.023049E-2,1.17411025E-1,-4.7310108E-1,3.3237457E-1,1.8830489E-1,6.091052E-1,-1.0058334E-2,1.040672E-2,-2.1929866E-2,-2.278211E-3,4.6806624E-3,3.179246E-2,-3.2653656E-2,-3.2151144E-3,1.9699289E-2,5.228806E-3,1.0784209E-2,7.1617484E-4,3.921734E-2,1.7771443E-2],"categories":[],"categories_nodes":[],"categories_segments":[],"categories_sizes":[],"default_left":[0,0,0,0,0,0,0,0,0,0,0,0,0,0,0,0,0,0,0,0,0,0,0,0,0,0,0,0,0],"id":45,"left_children":[1,3,5,7,9,11,13,15,-1,17,19,21,23,25,27,-1,-1,-1,-1,-1,-1,-1,-1,-1,-1,-1,-1,-1,-1],"loss_changes":[2.6798405E1,7.801737E0,5.610613E0,1.1098191E1,5.017729E0,1.512742E0,3.370901E0,5.956539E0,0E0,4.0506496E0,2.51905E0,1.1351631E0,9.033084E-4,2.5167942E0,6.103139E-1,0E0,0E0,0E0,0E0,0E0,0E0,0E0,0E0,0E0,0E0,0E0,0E0,0E0,0E0],"parents":[2147483647,0,0,1,1,2,2,3,3,4,4,5,5,6,6,7,7,9,9,10,10,11,11,12,12,13,13,14,14],"right_children":[2,4,6,8,10,12,14,16,-1,18,20,22,24,26,28,-1,-1,-1,-1,-1,-1,-1,-1,-1,-1,-1,-1,-1,-1],"split_conditions":[8.5E6,3E6,2E0,8E0,8E0,3E7,6.4E7,4.47E1,-1.0497671E-1,3E0,3.7E1,1.681E3,2E0,1E0,3.1E1,-1.0058334E-2,1.040672E-2,-2.1929866E-2,-2.278211E-3,4.6806624E-3,3.179246E-2,-3.2653656E-2,-3.2151144E-3,1.9699289E-2,5.228806E-3,1.0784209E-2,7.1617484E-4,3.921734E-2,1.7771443E-2],"split_indices":[15,15,18,19,18,15,15,12,0,0,0,1,0,28,0,0,0,0,0,0,0,0,0,0,0,0,0,0,0],"split_type":[0,0,0,0,0,0,0,0,0,0,0,0,0,0,0,0,0,0,0,0,0,0,0,0,0,0,0,0,0],"sum_hessian":[1.683E3,1.119E3,5.64E2,4.64E2,6.55E2,1.7E1,5.47E2,4.62E2,2E0,4.47E2,2.08E2,1.5E1,2E0,5.28E2,1.9E1,4.24E2,3.8E1,2.7E1,4.2E2,2E2,8E0,1E1,5E0,1E0,1E0,4.56E2,7.2E1,1E1,9E0],"tree_param":{"num_deleted":"0","num_feature":"29","num_nodes":"29","size_leaf_vector":"1"}},{"base_weights":[4.3076E-3,-9.725472E-2,1.3078587E-1,-5.6065243E-1,-7.613021E-2,8.655488E-2,2.968727E-1,-6.95142E-1,5.4670084E-1,-9.992451E-2,3.238005E-1,1.0512675E-1,-3.4480342E-1,2.6267657E-1,6.93886E-1,-6.4143944E-3,-4.3638166E-2,-2.5519133E-3,3.5444763E-2,-1.856995E-3,-1.1928597E-2,-2.9123116E-3,2.7623048E-2,7.139213E-3,1.4129542E-4,-4.725745E-2,-7.37298E-3,3.249177E-2,1.1342375E-2,1.6911363E-2,3.8742904E-2],"categories":[],"categories_nodes":[],"categories_segments":[],"categories_sizes":[],"default_left":[0,0,0,0,0,0,0,0,0,0,0,0,0,0,0,0,0,0,0,0,0,0,0,0,0,0,0,0,0,0,0],"id":46,"left_children":[1,3,5,7,9,11,13,15,17,19,21,23,25,27,29,-1,-1,-1,-1,-1,-1,-1,-1,-1,-1,-1,-1,-1,-1,-1,-1],"loss_changes":[2.1862791E1,9.198181E0,5.5427113E0,6.486062E0,8.634886E0,4.8429284E0,1.9763699E0,3.6133938E0,5.209304E-1,7.425145E0,4.487487E0,2.2185745E0,2.8224902E0,1.9055748E0,8.350277E-2,0E0,0E0,0E0,0E0,0E0,0E0,0E0,0E0,0E0,0E0,0E0,0E0,0E0,0E0,0E0,0E0],"parents":[2147483647,0,0,1,1,2,2,3,3,4,4,5,5,6,6,7,7,8,8,9,9,10,10,11,11,12,12,13,13,14,14],"right_children":[2,4,6,8,10,12,14,16,18,20,22,24,26,28,30,-1,-1,-1,-1,-1,-1,-1,-1,-1,-1,-1,-1,-1,-1,-1,-1],"split_conditions":[6.5E6,8E5,2.5E7,9.7E-1,8E0,4.7E0,7E7,1E0,2E0,2.018E3,1E0,2.019E3,1E0,2.015E3,3E0,-6.4143944E-3,-4.3638166E-2,-2.5519133E-3,3.5444763E-2,-1.856995E-3,-1.1928597E-2,-2.9123116E-3,2.7623048E-2,7.139213E-3,1.4129542E-4,-4.725745E-2,-7.37298E-3,3.249177E-2,1.1342375E-2,1.6911363E-2,3.8742904E-2],"split_indices":[15,15,15,14,17,7,15,19,0,23,11,23,19,23,19,0,0,0,0,0,0,0,0,0,0,0,0,0,0,0,0],"split_type":[0,0,0,0,0,0,0,0,0,0,0,0,0,0,0,0,0,0,0,0,0,0,0,0,0,0,0,0,0,0,0],"sum_hessian":[1.7E3,9.43E2,7.57E2,4E1,9.03E2,5.99E2,1.58E2,3.6E1,4E0,8.53E2,5E1,5.75E2,2.4E1,1.47E2,1.1E1,9E0,2.7E1,1E0,3E0,5.88E2,2.65E2,1.9E1,3.1E1,4.2E2,1.55E2,5E0,1.9E1,1.1E1,1.36E2,3E0,8E0],"tree_param":{"num_deleted":"0","num_feature":"29","num_nodes":"31","size_leaf_vector":"1"}},{"base_weights":[-4.753065E-3,-5.227654E-2,1.7247765E-1,-1.3522048E-2,-2.2725645E-1,-5.020284E-1,1.9934897E-1,-2.3557696E-2,5.876954E-1,-4.8445192E-1,-1.5775529E-1,-7.009051E-1,2.3041058E-2,-4.859653E-1,2.1291195E-1,3.8901542E-3,-3.421985E-3,1.259245E-2,4.880112E-2,-1.6262261E-2,-6.4976625E-2,4.994241E-3,-1.1098871E-2,-4.482209E-2,9.225941E-3,2.3769285E-3,-6.06575E-2,1.6942276E-2,7.5878575E-3],"categories":[],"categories_nodes":[],"categories_segments":[],"categories_sizes":[],"default_left":[0,0,0,0,0,0,0,0,0,0,0,0,0,0,0,0,0,0,0,0,0,0,0,0,0,0,0,0,0],"id":47,"left_children":[1,3,5,7,9,11,13,15,17,19,21,23,-1,25,27,-1,-1,-1,-1,-1,-1,-1,-1,-1,-1,-1,-1,-1,-1],"loss_changes":[1.4260088E1,9.049906E0,6.5887814E0,6.614611E0,4.249419E0,3.0038285E0,3.3102102E0,4.904894E0,2.1017175E0,6.1954136E0,3.1990418E0,2.2430034E0,0E0,2.7733624E0,2.5593672E0,0E0,0E0,0E0,0E0,0E0,0E0,0E0,0E0,0E0,0E0,0E0,0E0,0E0,0E0],"parents":[2147483647,0,0,1,1,2,2,3,3,4,4,5,5,6,6,7,7,8,8,9,9,10,10,11,11,13,13,14,14],"right_children":[2,4,6,8,10,12,14,16,18,20,22,24,-1,26,28,-1,-1,-1,-1,-1,-1,-1,-1,-1,-1,-1,-1,-1,-1],"split_conditions":[1E0,2.8E1,7.4E1,6.25E1,4.4E-1,1.15E0,2E0,2.2E1,7E0,1E-1,1E0,2.9E1,2.3041058E-2,2.4E1,2.3E1,3.8901542E-3,-3.421985E-3,1.259245E-2,4.880112E-2,-1.6262261E-2,-6.4976625E-2,4.994241E-3,-1.1098871E-2,-4.482209E-2,9.225941E-3,2.3769285E-3,-6.06575E-2,1.6942276E-2,7.5878575E-3],"split_indices":[24,16,1,12,13,13,18,16,18,5,13,16,0,16,16,0,0,0,0,0,0,0,0,0,0,0,0,0,0],"split_type":[0,0,0,0,0,0,0,0,0,0,0,0,0,0,0,0,0,0,0,0,0,0,0,0,0,0,0,0,0],"sum_hessian":[1.691E3,1.334E3,3.57E2,1.093E3,2.41E2,1.3E1,3.44E2,1.076E3,1.7E1,5E1,1.91E2,1.1E1,2E0,6E0,3.38E2,3.3E2,7.46E2,1E1,7E0,4.3E1,7E0,3.8E1,1.53E2,9E0,2E0,4E0,2E0,1.09E2,2.29E2],"tree_param":{"num_deleted":"0","num_feature":"29","num_nodes":"29","size_leaf_vector":"1"}},{"base_weights":[-1.0625069E-2,-5.9721705E-2,1.8351533E-1,-2.0610258E-2,-2.3738833E-1,-5.4989845E-1,2.0479694E-1,-1.5629004E-1,9.26766E-3,-1.2959595E-1,-4.1031224E-1,-6.409617E-2,1.5177202E-1,2.4888138E-1,-4.643732E-2,-6.132462E-3,-7.2860405E-2,-5.641782E-4,1.0411001E-2,-7.974464E-3,1.8320931E-2,-1.6912587E-2,-7.054121E-2,-1.6769823E-2,2.3960268E-2,3.1033872E-2,1.08538065E-2,7.113655E-3,-2.5441362E-2],"categories":[],"categories_nodes":[],"categories_segments":[],"categories_sizes":[],"default_left":[0,0,0,0,0,0,0,0,0,0,0,0,0,0,0,0,0,0,0,0,0,0,0,0,0,0,0,0,0],"id":48,"left_children":[1,3,5,7,9,11,13,15,17,19,21,-1,23,25,27,-1,-1,-1,-1,-1,-1,-1,-1,-1,-1,-1,-1,-1,-1],"loss_changes":[1.6291002E1,9.4732685E0,5.4974556E0,4.5376835E0,4.532235E0,5.330962E0,3.732934E0,8.66159E0,3.7557893E0,2.327053E0,6.29994E0,0E0,1.1178149E0,3.2472343E0,4.5225396E0,0E0,0E0,0E0,0E0,0E0,0E0,0E0,0E0,0E0,0E0,0E0,0E0,0E0,0E0],"parents":[2147483647,0,0,1,1,2,2,3,3,4,4,5,5,6,6,7,7,8,8,9,9,10,10,12,12,13,13,14,14],"right_children":[2,4,6,8,10,12,14,16,18,20,22,-1,24,26,28,-1,-1,-1,-1,-1,-1,-1,-1,-1,-1,-1,-1,-1,-1],"split_conditions":[1E0,2.8E1,7.4E1,4.4E2,1E0,1E0,2.8E1,4.3E2,1.27E0,8E0,8E0,-6.409617E-2,2.016E3,6E-1,2.018E3,-6.132462E-3,-7.2860405E-2,-5.641782E-4,1.0411001E-2,-7.974464E-3,1.8320931E-2,-1.6912587E-2,-7.054121E-2,-1.6769823E-2,2.3960268E-2,3.1033872E-2,1.08538065E-2,7.113655E-3,-2.5441362E-2],"split_indices":[24,16,1,1,22,20,16,1,14,19,19,0,23,7,23,0,0,0,0,0,0,0,0,0,0,0,0,0,0],"split_type":[0,0,0,0,0,0,0,0,0,0,0,0,0,0,0,0,0,0,0,0,0,0,0,0,0,0,0,0,0],"sum_hessian":[1.707E3,1.363E3,3.44E2,1.118E3,2.45E2,9E0,3.35E2,2.01E2,9.17E2,1.52E2,9.3E1,4E0,5E0,2.85E2,5E1,1.97E2,4E0,8.32E2,8.5E1,1.44E2,8E0,8.8E1,5E0,2E0,3E0,2.1E1,2.64E2,3.6E1,1.4E1],"tree_param":{"num_deleted":"0","num_feature":"29","num_nodes":"29","size_leaf_vector":"1"}},{"base_weights":[-9.86953E-3,-8.0589004E-2,1.5109715E-1,7.132168E-2,-1.2599112E-1,1.896247E-1,-8.105539E-2,-1.5777516E-1,1.8238868E-1,-5.839014E-1,-9.374742E-2,2.3527378E-1,3.2469254E-2,4.6936143E-2,-3.7246823E-1,-1.5380958E-2,1.1145155E-2,1.0700152E-2,-1.9613156E-2,-3.4652237E-2,1.0608047E-2,-6.2412764E-3,2.3252878E-3,2.4559349E-2,1.04752695E-2,6.017807E-3,-7.747069E-3,-3.3697342E-3,1.3649511E-2,-3.890507E-2,-9.176647E-3],"categories":[],"categories_nodes":[],"categories_segments":[],"categories_sizes":[],"default_left":[0,0,0,0,0,0,0,0,0,0,0,0,0,0,0,0,0,0,0,0,0,0,0,0,0,0,0,0,0,0,0],"id":49,"left_children":[1,3,5,7,9,11,13,15,17,19,21,23,25,27,29,-1,-1,-1,-1,-1,-1,-1,-1,-1,-1,-1,-1,-1,-1,-1,-1],"loss_changes":[1.9466541E1,8.202702E0,4.6842775E0,7.000733E0,1.3454982E1,3.206314E0,2.8148603E0,5.202381E0,3.4448886E0,5.3601303E0,3.7369394E0,2.1853752E0,1.6986837E0,1.3881805E0,1.6198761E0,0E0,0E0,0E0,0E0,0E0,0E0,0E0,0E0,0E0,0E0,0E0,0E0,0E0,0E0,0E0,0E0],"parents":[2147483647,0,0,1,1,2,2,3,3,4,4,5,5,6,6,7,7,8,8,9,9,10,10,11,11,12,12,13,13,14,14],"right_children":[2,4,6,8,10,12,14,16,18,20,22,24,26,28,30,-1,-1,-1,-1,-1,-1,-1,-1,-1,-1,-1,-1,-1,-1,-1,-1],"split_conditions":[1E7,2.2E1,1E0,4.61E2,1.2E6,2.7E1,1.2E-1,6.7E-1,1.3E-1,2.7E-1,1E0,2.015E3,1E0,1.65E7,1E0,-1.5380958E-2,1.1145155E-2,1.0700152E-2,-1.9613156E-2,-3.4652237E-2,1.0608047E-2,-6.2412764E-3,2.3252878E-3,2.4559349E-2,1.04752695E-2,6.017807E-3,-7.747069E-3,-3.3697342E-3,1.3649511E-2,-3.890507E-2,-9.176647E-3],"split_indices":[15,16,28,1,15,16,9,14,9,6,24,23,21,15,19,0,0,0,0,0,0,0,0,0,0,0,0,0,0,0,0],"split_type":[0,0,0,0,0,0,0,0,0,0,0,0,0,0,0,0,0,0,0,0,0,0,0,0,0,0,0,0,0,0,0],"sum_hessian":[1.708E3,1.187E3,5.21E2,2.73E2,9.14E2,4.47E2,7.4E1,8.9E1,1.84E2,5.9E1,8.55E2,3.46E2,1.01E2,5.2E1,2.2E1,6.4E1,2.5E1,1.75E2,9E0,5.2E1,7E0,7E2,1.55E2,3E1,3.16E2,6.9E1,3.2E1,3.5E1,1.7E1,6E0,1.6E1],"tree_param":{"num_deleted":"0","num_feature":"29","num_nodes":"31","size_leaf_vector":"1"}},{"base_weights":[6.9076126E-3,-1.0903112E-1,9.6871726E-2,1.0707722E-1,-1.86296E-1,5.455623E-2,2.5252414E-1,-3.157529E-1,2.047982E-1,-5.09046E-1,-1.3834064E-1,8.16989E-2,-1.7667527E-1,1.7773953E-1,4.1216975E-1,2.6374436E-3,-2.711759E-2,7.023995E-3,3.3566453E-2,5.776624E-3,-3.137255E-2,-9.000324E-3,6.8498957E-3,2.1143287E-2,3.225645E-3,-3.2538116E-2,-4.926784E-3,7.846589E-3,3.5408117E-2,2.4352713E-2,1.1153559E-2],"categories":[],"categories_nodes":[],"categories_segments":[],"categories_sizes":[],"default_left":[0,0,0,0,0,0,0,0,0,0,0,0,0,0,0,0,0,0,0,0,0,0,0,0,0,0,0,0,0,0,0],"id":50,"left_children":[1,3,5,7,9,11,13,15,17,19,21,23,25,27,29,-1,-1,-1,-1,-1,-1,-1,-1,-1,-1,-1,-1,-1,-1,-1,-1],"loss_changes":[1.7616951E1,1.2342767E1,6.2499933E0,8.121944E0,8.349386E0,4.7153387E0,2.3503656E0,3.1181853E0,4.6767216E0,5.249216E0,5.473961E0,3.9069886E0,2.8624296E0,1.4340329E0,7.9762745E-1,0E0,0E0,0E0,