{"learner":{"attributes":{},"feature_names":["MP_Playing","Min_Playing","CrdR","Ast_Per","G+A_minus_PK_Per","Sh_Standard_shoot","SoT_percent_Standard_shoot","SoT_per_90_Standard_shoot","Dist_Standard_shoot","Cmp_percent_Short_pass","Cmp_Long_pass","Cmp_percent_Long_pass","Ast_pass","A_minus_xA_pass","Rec_percent_Receiving_poss","prior_market_value_eur","age_years","peak_distance","contract_years_remaining","tenure_at_selling_club_years","pos_forward","pos_midfielder","pos_defender"],"feature_types":["float","float","float","float","float","float","float","float","float","float","float","float","float","float","float","float","int","int","float","float","int","int","int"],"gradient_booster":{"model":{"gbtree_model_param":{"num_parallel_tree":"1","num_trees":"400"},"iteration_indptr":[0,1,2,3,4,5,6,7,8,9,10,11,12,13,14,15,16,17,18,19,20,21,22,23,24,25,26,27,28,29,30,31,32,33,34,35,36,37,38,39,40,41,42,43,44,45,46,47,48,49,50,51,52,53,54,55,56,57,58,59,60,61,62,63,64,65,66,67,68,69,70,71,72,73,74,75,76,77,78,79,80,81,82,83,84,85,86,87,88,89,90,91,92,93,94,95,96,97,98,99,100,101,102,103,104,105,106,107,108,109,110,111,112,113,114,115,116,117,118,119,120,121,122,123,124,125,126,127,128,129,130,131,132,133,134,135,136,137,138,139,140,141,142,143,144,145,146,147,148,149,150,151,152,153,154,155,156,157,158,159,160,161,162,163,164,165,166,167,168,169,170,171,172,173,174,175,176,177,178,179,180,181,182,183,184,185,186,187,188,189,190,191,192,193,194,195,196,197,198,199,200,201,202,203,204,205,206,207,208,209,210,211,212,213,214,215,216,217,218,219,220,221,222,223,224,225,226,227,228,229,230,231,232,233,234,235,236,237,238,239,240,241,242,243,244,245,246,247,248,249,250,251,252,253,254,255,256,257,258,259,260,261,262,263,264,265,266,267,268,269,270,271,272,273,274,275,276,277,278,279,280,281,282,283,284,285,286,287,288,289,290,291,292,293,294,295,296,297,298,299,300,301,302,303,304,305,306,307,308,309,310,311,312,313,314,315,316,317,318,319,320,321,322,323,324,325,326,327,328,329,330,331,332,333,334,335,336,337,338,339,340,341,342,343,344,345,346,347,348,349,350,351,352,353,354,355,356,357,358,359,360,361,362,363,364,365,366,367,368,369,370,371,372,373,374,375,376,377,378,379,380,381,382,383,384,385,386,387,388,389,390,391,392,393,394,395,396,397,398,399,400],"tree_info":[0,0,0,0,0,0,0,0,0,0,0,0,0,0,0,0,0,0,0,0,0,0,0,0,0,0,0,0,0,0,0,0,0,0,0,0,0,0,0,0,0,0,0,0,0,0,0,0,0,0,0,0,0,0,0,0,0,0,0,0,0,0,0,0,0,0,0,0,0,0,0,0,0,0,0,0,0,0,0,0,0,0,0,0,0,0,0,0,0,0,0,0,0,0,0,0,0,0,0,0,0,0,0,0,0,0,0,0,0,0,0,0,0,0,0,0,0,0,0,0,0,0,0,0,0,0,0,0,0,0,0,0,0,0,0,0,0,0,0,0,0,0,0,0,0,0,0,0,0,0,0,0,0,0,0,0,0,0,0,0,0,0,0,0,0,0,0,0,0,0,0,0,0,0,0,0,0,0,0,0,0,0,0,0,0,0,0,0,0,0,0,0,0,0,0,0,0,0,0,0,0,0,0,0,0,0,0,0,0,0,0,0,0,0,0,0,0,0,0,0,0,0,0,0,0,0,0,0,0,0,0,0,0,0,0,0,0,0,0,0,0,0,0,0,0,0,0,0,0,0,0,0,0,0,0,0,0,0,0,0,0,0,0,0,0,0,0,0,0,0,0,0,0,0,0,0,0,0,0,0,0,0,0,0,0,0,0,0,0,0,0,0,0,0,0,0,0,0,0,0,0,0,0,0,0,0,0,0,0,0,0,0,0,0,0,0,0,0,0,0,0,0,0,0,0,0,0,0,0,0,0,0,0,0,0,0,0,0,0,0,0,0,0,0,0,0,0,0,0,0,0,0,0,0,0,0,0,0,0,0,0,0,0,0,0,0,0,0,0,0,0,0,0,0,0,0,0,0,0,0,0,0,0,0,0,0,0,0,0,0,0,0,0,0,0,0,0,0,0,0],"trees":[{"base_weights":[1.6711075E-2,-4.1443202E-1,7.384955E-1,-6.8850684E-1,6.957759E-2,5.2719927E-1,1.1211996E0,-1.0340017E0,-3.1764442E-1,-5.527391E-1,1.8928713E-1,6.813376E-1,-8.438984E-2,2.1345196E-2,1.1785235E0,-4.069298E-2,-7.032545E-2,-8.432759E-2,-1.1425856E-2,-3.7387762E-2,3.6493063E-3,-2.5342017E-2,1.2076539E-2,8.50874E-3,4.0535495E-2,7.3657036E-3,-3.5814144E-2,3.5385706E-2,6.3560665E-2],"categories":[],"categories_nodes":[],"categories_segments":[],"categories_sizes":[],"default_left":[0,0,0,0,0,0,0,0,0,0,0,0,0,0,0,0,0,0,0,0,0,0,0,0,0,0,0,0,0],"id":0,"left_children":[1,3,5,7,9,11,13,15,17,19,21,23,25,-1,27,-1,-1,-1,-1,-1,-1,-1,-1,-1,-1,-1,-1,-1,-1],"loss_changes":[1.0735624E2,2.8701344E1,9.840355E0,1.7353645E1,5.989908E0,8.070391E0,1.2878685E0,4.67762E0,7.911071E0,1.6409209E0,2.5590894E0,4.358898E0,2.740936E0,0E0,8.895569E-1,0E0,0E0,0E0,0E0,0E0,0E0,0E0,0E0,0E0,0E0,0E0,0E0,0E0,0E0],"parents":[2147483647,0,0,1,1,2,2,3,3,4,4,5,5,6,6,7,7,8,8,9,9,10,10,11,11,12,12,14,14],"right_children":[2,4,6,8,10,12,14,16,18,20,22,24,26,-1,28,-1,-1,-1,-1,-1,-1,-1,-1,-1,-1,-1,-1,-1,-1],"split_conditions":[1.15E7,8E0,3E7,5.4E6,4E-2,2.7E1,8.32E1,2.8E1,2E0,3E0,5.96E2,8.6E1,8.2E1,2.1345196E-2,5E0,-4.069298E-2,-7.032545E-2,-8.432759E-2,-1.1425856E-2,-3.7387762E-2,3.6493063E-3,-2.5342017E-2,1.2076539E-2,8.50874E-3,4.0535495E-2,7.3657036E-3,-3.5814144E-2,3.5385706E-2,6.3560665E-2],"split_indices":[15,18,15,15,7,16,9,16,0,19,1,9,10,0,18,0,0,0,0,0,0,0,0,0,0,0,0,0,0],"split_type":[0,0,0,0,0,0,0,0,0,0,0,0,0,0,0,0,0,0,0,0,0,0,0,0,0,0,0,0,0],"sum_hessian":[3.43E2,2.15E2,1.28E2,1.37E2,7.8E1,8.4E1,4.4E1,7E1,6.7E1,1.2E1,6.6E1,6.7E1,1.7E1,4E0,4E1,4.6E1,2.4E1,3E0,6.4E1,9E0,3E0,4E0,6.2E1,1.4E1,5.3E1,1.3E1,4E0,8E0,3.2E1],"tree_param":{"num_deleted":"0","num_feature":"23","num_nodes":"29","size_leaf_vector":"1"}},{"base_weights":[3.282938E-2,-4.432116E-1,7.64151E-1,-3.74044E-1,-1.7822423E0,4.823181E-1,1.0308247E0,-6.7073286E-1,-1.8285884E-1,-1.091321E-1,-1.2042904E-1,5.8284193E-1,-4.7693852E-1,5.1778543E-1,1.129749E0,-4.621253E-2,-2.0339234E-2,-3.3332244E-2,-2.94218E-3,-7.507992E-3,-1.5241861E-3,8.006158E-3,3.6319684E-2,-7.8879594E-4,-4.0943325E-2,3.47806E-3,3.546336E-2,4.2235885E-2,6.423884E-2],"categories":[],"categories_nodes":[],"categories_segments":[],"categories_sizes":[],"default_left":[0,0,0,0,0,0,0,0,0,0,0,0,0,0,0,0,0,0,0,0,0,0,0,0,0,0,0,0,0],"id":1,"left_children":[1,3,5,7,9,11,13,15,17,-1,19,21,23,25,27,-1,-1,-1,-1,-1,-1,-1,-1,-1,-1,-1,-1,-1,-1],"loss_changes":[1.200985E2,1.869043E1,9.724228E0,1.1221853E1,6.3910427E0,6.8350954E0,2.9169235E0,4.843441E0,7.3403845E0,0E0,3.4450106E-3,3.6459732E0,1.0908725E0,1.0664108E0,1.4334259E0,0E0,0E0,0E0,0E0,0E0,0E0,0E0,0E0,0E0,0E0,0E0,0E0,0E0,0E0],"parents":[2147483647,0,0,1,1,2,2,3,3,4,4,5,5,6,6,7,7,8,8,10,10,11,11,12,12,13,13,14,14],"right_children":[2,4,6,8,10,12,14,16,18,-1,20,22,24,26,28,-1,-1,-1,-1,-1,-1,-1,-1,-1,-1,-1,-1,-1,-1],"split_conditions":[1.15E7,3.1E1,2.4E7,2.1E1,5E6,1.76E1,8.38E1,5.4E6,2E1,-1.091321E-1,2.823E3,1.69E1,2.6E1,1.3E-1,2.302E3,-4.621253E-2,-2.0339234E-2,-3.3332244E-2,-2.94218E-3,-7.507992E-3,-1.5241861E-3,8.006158E-3,3.6319684E-2,-7.8879594E-4,-4.0943325E-2,3.47806E-3,3.546336E-2,4.2235885E-2,6.423884E-2],"split_indices":[15,16,15,0,15,8,9,15,5,0,1,8,16,3,1,0,0,0,0,0,0,0,0,0,0,0,0,0,0],"split_type":[0,0,0,0,0,0,0,0,0,0,0,0,0,0,0,0,0,0,0,0,0,0,0,0,0,0,0,0,0],"sum_hessian":[3.43E2,2.08E2,1.35E2,1.99E2,9E0,6.7E1,6.8E1,7.7E1,1.22E2,7E0,2E0,6.1E1,6E0,1.2E1,5.6E1,3.8E1,3.9E1,2.4E1,9.8E1,1E0,1E0,1.6E1,4.5E1,3E0,3E0,4E0,8E0,2.2E1,3.4E1],"tree_param":{"num_deleted":"0","num_feature":"23","num_nodes":"29","size_leaf_vector":"1"}},{"base_weights":[-1.3055557E-2,-4.1538635E-1,6.4824045E-1,-6.463765E-1,2.4113862E-2,4.6710306E-1,1.0697246E0,-1.0401053E0,-3.9163542E-1,-2.3838837E-1,1.9857949E-1,2.5511506E-1,8.566083E-1,4.516046E-1,1.1947322E0,-5.6718554E-2,-1.2256268E-2,-7.205611E-2,-1.5453033E-2,2.1997107E-2,-1.650263E-2,1.638197E-3,1.9326141E-2,1.7982228E-2,-3.0675977E-3,1.6387964E-2,4.7120202E-2,2.8301096E-2,-8.732915E-3,7.2497367E-3,6.1244514E-2],"categories":[],"categories_nodes":[],"categories_segments":[],"categories_sizes":[],"default_left":[0,0,0,0,0,0,0,0,0,0,0,0,0,0,0,0,0,0,0,0,0,0,0,0,0,0,0,0,0,0,0],"id":2,"left_children":[1,3,5,7,9,11,13,15,17,19,21,23,25,27,29,-1,-1,-1,-1,-1,-1,-1,-1,-1,-1,-1,-1,-1,-1,-1,-1],"loss_changes":[9.072958E1,2.1537868E1,9.349033E0,1.353421E1,3.436363E0,7.377947E0,2.396698E0,3.7686577E0,7.0074615E0,2.010563E0,1.3897125E0,2.0399537E0,1.143055E0,6.7210305E-1,8.037987E-1,0E0,0E0,0E0,0E0,0E0,0E0,0E0,0E0,0E0,0E0,0E0,0E0,0E0,0E0,0E0,0E0],"parents":[2147483647,0,0,1,1,2,2,3,3,4,4,5,5,6,6,7,7,8,8,9,9,10,10,11,11,12,12,13,13,14,14],"right_children":[2,4,6,8,10,12,14,16,18,20,22,24,26,28,30,-1,-1,-1,-1,-1,-1,-1,-1,-1,-1,-1,-1,-1,-1,-1,-1],"split_conditions":[1.15E7,8E0,8E0,5E6,9E-2,3E7,8.02E2,2.6E1,2E0,2.58E1,7.5E6,2E0,6.79E1,7.49E2,3E-2,-5.6718554E-2,-1.2256268E-2,-7.205611E-2,-1.5453033E-2,2.1997107E-2,-1.650263E-2,1.638197E-3,1.9326141E-2,1.7982228E-2,-3.0675977E-3,1.6387964E-2,4.7120202E-2,2.8301096E-2,-8.732915E-3,7.2497367E-3,6.1244514E-2],"split_indices":[15,18,18,15,4,15,1,5,0,6,15,12,14,1,4,0,0,0,0,0,0,0,0,0,0,0,0,0,0,0,0],"split_type":[0,0,0,0,0,0,0,0,0,0,0,0,0,0,0,0,0,0,0,0,0,0,0,0,0,0,0,0,0,0,0],"sum_hessian":[3.39E2,2.11E2,1.28E2,1.38E2,7.3E1,9.1E1,3.7E1,5.3E1,8.5E1,2.9E1,4.4E1,6E1,3.1E1,7E0,3E1,4.7E1,6E0,5E0,8E1,3E0,2.6E1,2.4E1,2E1,4.5E1,1.5E1,5E0,2.6E1,6E0,1E0,1E0,2.9E1],"tree_param":{"num_deleted":"0","num_feature":"23","num_nodes":"31","size_leaf_vector":"1"}},{"base_weights":[3.1957503E-2,-3.807671E-1,6.5515023E-1,-7.146574E-1,-7.01002E-2,4.643195E-1,1.0231627E0,-9.2853475E-1,-1.561423E-1,-9.458015E-2,-3.694747E-2,2.5761005E-1,8.336835E-1,3.5501587E-1,1.1285777E0,-5.100294E-2,5.3139073E-3,-2.728573E-2,-6.925044E-4,-2.8329749E-2,2.5398983E-3,1.756554E-2,-1.718144E-2,3.242823E-2,5.4141607E-2,2.816085E-2,-8.9862505E-3,3.17125E-2,6.0584832E-2],"categories":[],"categories_nodes":[],"categories_segments":[],"categories_sizes":[],"default_left":[0,0,0,0,0,0,0,0,0,0,0,0,0,0,0,0,0,0,0,0,0,0,0,0,0,0,0,0,0],"id":3,"left_children":[1,3,5,7,9,11,13,15,17,-1,19,21,23,25,27,-1,-1,-1,-1,-1,-1,-1,-1,-1,-1,-1,-1,-1,-1],"loss_changes":[9.232956E1,2.2355293E1,9.567543E0,1.2278206E1,6.7539306E0,7.114933E0,2.9800987E0,7.21167E0,1.655435E0,0E0,5.2338862E0,3.6699204E0,8.658657E-1,9.918934E-1,9.1609573E-1,0E0,0E0,0E0,0E0,0E0,0E0,0E0,0E0,0E0,0E0,0E0,0E0,0E0,0E0],"parents":[2147483647,0,0,1,1,2,2,3,3,4,4,5,5,6,6,7,7,8,8,10,10,11,11,12,12,13,13,14,14],"right_children":[2,4,6,8,10,12,14,16,18,-1,20,22,24,26,28,-1,-1,-1,-1,-1,-1,-1,-1,-1,-1,-1,-1,-1,-1],"split_conditions":[1.15E7,5.4E6,8E0,8E0,5E0,3E7,8.5E2,2.6E1,3E-2,-9.458015E-2,5.6E1,1.76E1,4.5E7,7.25E2,1.6E-1,-5.100294E-2,5.3139073E-3,-2.728573E-2,-6.925044E-4,-2.8329749E-2,2.5398983E-3,1.756554E-2,-1.718144E-2,3.242823E-2,5.4141607E-2,2.816085E-2,-8.9862505E-3,3.17125E-2,6.0584832E-2],"split_indices":[15,15,18,18,1,15,1,5,7,0,11,8,15,1,7,0,0,0,0,0,0,0,0,0,0,0,0,0,0],"split_type":[0,0,0,0,0,0,0,0,0,0,0,0,0,0,0,0,0,0,0,0,0,0,0,0,0,0,0,0,0],"sum_hessian":[3.57E2,2.15E2,1.42E2,1.03E2,1.12E2,9.5E1,4.7E1,7.4E1,2.9E1,1E0,1.11E2,6.2E1,3.3E1,7E0,4E1,6.8E1,6E0,7E0,2.2E1,1.5E1,9.6E1,5.4E1,8E0,2.1E1,1.2E1,5E0,2E0,7E0,3.3E1],"tree_param":{"num_deleted":"0","num_feature":"23","num_nodes":"29","size_leaf_vector":"1"}},{"base_weights":[2.9225446E-2,-3.7505206E-1,6.299035E-1,-5.9994256E-1,1.757213E-2,4.375488E-1,1.0017579E0,-9.092572E-1,-2.68159E-1,-5.563745E-1,1.6975214E-1,2.4386178E-1,7.792179E-1,5.6456923E-1,1.1605027E0,-5.0708573E-2,2.1857203E-3,-2.4052642E-2,-2.0558287E-3,-3.967537E-2,-5.21275E-3,3.295183E-4,1.9655006E-2,-7.217994E-4,2.049037E-2,1.8186562E-2,4.263191E-2,1.3214843E-2,3.4413785E-2,6.205818E-2,3.30275E-2],"categories":[],"categories_nodes":[],"categories_segments":[],"categories_sizes":[],"default_left":[0,0,0,0,0,0,0,0,0,0,0,0,0,0,0,0,0,0,0,0,0,0,0,0,0,0,0,0,0,0,0],"id":4,"left_children":[1,3,5,7,9,11,13,15,17,19,21,23,25,27,29,-1,-1,-1,-1,-1,-1,-1,-1,-1,-1,-1,-1,-1,-1,-1,-1],"loss_changes":[8.8144554E1,1.9171085E1,1.0004757E1,1.3918495E1,7.081902E0,6.295311E0,2.7454834E0,7.1429367E0,3.2670646E0,1.7398834E0,2.3296878E0,2.7491727E0,7.575493E-1,3.752756E-1,5.9158325E-1,0E0,0E0,0E0,0E0,0E0,0E0,0E0,0E0,0E0,0E0,0E0,0E0,0E0,0E0,0E0,0E0],"parents":[2147483647,0,0,1,1,2,2,3,3,4,4,5,5,6,6,7,7,8,8,9,9,10,10,11,11,12,12,13,13,14,14],"right_children":[2,4,6,8,10,12,14,16,18,20,22,24,26,28,30,-1,-1,-1,-1,-1,-1,-1,-1,-1,-1,-1,-1,-1,-1,-1,-1],"split_conditions":[1.15E7,8E0,8E0,5.4E6,4E-2,3E7,1.8E7,2.6E1,2.3E-1,3E0,7E6,6E0,6.79E1,3E-2,2.3E1,-5.0708573E-2,2.1857203E-3,-2.4052642E-2,-2.0558287E-3,-3.967537E-2,-5.21275E-3,3.295183E-4,1.9655006E-2,-7.217994E-4,2.049037E-2,1.8186562E-2,4.263191E-2,1.3214843E-2,3.4413785E-2,6.205818E-2,3.30275E-2],"split_indices":[15,18,18,15,7,15,15,5,7,19,15,18,14,3,5,0,0,0,0,0,0,0,0,0,0,0,0,0,0,0,0],"split_type":[0,0,0,0,0,0,0,0,0,0,0,0,0,0,0,0,0,0,0,0,0,0,0,0,0,0,0,0,0,0,0],"sum_hessian":[3.61E2,2.16E2,1.45E2,1.37E2,7.9E1,9.7E1,4.8E1,7E1,6.7E1,1.6E1,6.3E1,6.3E1,3.4E1,1.4E1,3.4E1,6.3E1,7E0,3.4E1,3.3E1,1E1,6E0,3.7E1,2.6E1,2.5E1,3.8E1,6E0,2.8E1,5E0,9E0,2.8E1,6E0],"tree_param":{"num_deleted":"0","num_feature":"23","num_nodes":"31","size_leaf_vector":"1"}},{"base_weights":[8.07636E-3,-3.401889E-1,5.987776E-1,-1.453933E-1,-8.5115194E-1,4.141322E-1,9.588654E-1,-4.24933E-1,-8.047501E-3,-1.17213786E-1,-6.8201584E-1,2.666257E-1,7.0517457E-1,3.4884092E-1,1.0813345E0,-3.9569933E-2,-1.0476864E-2,-1.131926E-2,6.723164E-3,-4.7375746E-2,-1.3320619E-2,2.0621141E-2,-1.8832457E-3,7.5787865E-3,3.6965195E-2,-3.3128262E-3,2.837162E-2,5.693081E-2,2.4350395E-2],"categories":[],"categories_nodes":[],"categories_segments":[],"categories_sizes":[],"default_left":[0,0,0,0,0,0,0,0,0,0,0,0,0,0,0,0,0,0,0,0,0,0,0,0,0,0,0,0,0],"id":5,"left_children":[1,3,5,7,9,11,13,15,17,-1,19,21,23,25,27,-1,-1,-1,-1,-1,-1,-1,-1,-1,-1,-1,-1,-1,-1],"loss_changes":[7.488032E1,2.2669382E1,8.578857E0,6.408312E0,1.431126E1,3.718669E0,2.9846954E0,4.175605E0,3.5464897E0,0E0,6.1474266E0,2.7661443E0,4.547596E-1,8.5422695E-1,7.051201E-1,0E0,0E0,0E0,0E0,0E0,0E0,0E0,0E0,0E0,0E0,0E0,0E0,0E0,0E0],"parents":[2147483647,0,0,1,1,2,2,3,3,4,4,5,5,6,6,7,7,8,8,10,10,11,11,12,12,13,13,14,14],"right_children":[2,4,6,8,10,12,14,16,18,-1,20,22,24,26,28,-1,-1,-1,-1,-1,-1,-1,-1,-1,-1,-1,-1,-1,-1],"split_conditions":[1.15E7,2.7E1,8E0,4.5E6,7.8E1,3E7,1.476E3,1.006E3,2.1E-1,-1.17213786E-1,5.4E6,3.1E1,1.3E1,1.45E7,2.7E1,-3.9569933E-2,-1.0476864E-2,-1.131926E-2,6.723164E-3,-4.7375746E-2,-1.3320619E-2,2.0621141E-2,-1.8832457E-3,7.5787865E-3,3.6965195E-2,-3.3128262E-3,2.837162E-2,5.693081E-2,2.4350395E-2],"split_indices":[15,16,18,15,10,15,1,1,7,0,15,5,5,15,16,0,0,0,0,0,0,0,0,0,0,0,0,0,0],"split_type":[0,0,0,0,0,0,0,0,0,0,0,0,0,0,0,0,0,0,0,0,0,0,0,0,0,0,0,0,0],"sum_hessian":[3.62E2,2.28E2,1.34E2,1.66E2,6.2E1,9E1,4.4E1,5.4E1,1.12E2,5E0,5.7E1,6.1E1,2.9E1,8E0,3.6E1,1.9E1,3.5E1,4.4E1,6.8E1,3.4E1,2.3E1,4.1E1,2E1,2E0,2.7E1,3E0,5E0,3.2E1,4E0],"tree_param":{"num_deleted":"0","num_feature":"23","num_nodes":"29","size_leaf_vector":"1"}},{"base_weights":[-2.9427202E-2,-4.153598E-1,3.990433E-1,-6.237124E-1,-9.571394E-2,2.0117098E-1,7.386691E-1,-8.0362797E-1,-1.6005498E-1,1.1153614E-1,-3.647386E-1,3.075473E-1,-3.300671E-1,6.263374E-1,1.0084351E0,-7.4399896E-2,-3.471902E-2,-2.596238E-2,4.0711476E-3,1.2678001E-3,2.6940728E-2,-3.134192E-2,-3.1730682E-3,1.772306E-2,-1.9634303E-2,-7.658516E-3,-3.7968237E-2,-2.9065849E-3,3.2160737E-2,5.2119892E-2,1.2474871E-2],"categories":[],"categories_nodes":[],"categories_segments":[],"categories_sizes":[],"default_left":[0,0,0,0,0,0,0,0,0,0,0,0,0,0,0,0,0,0,0,0,0,0,0,0,0,0,0,0,0,0,0],"id":6,"left_children":[1,3,5,7,9,11,13,15,17,19,21,23,25,27,29,-1,-1,-1,-1,-1,-1,-1,-1,-1,-1,-1,-1,-1,-1,-1,-1],"loss_changes":[5.72152E1,1.2061329E1,1.0872618E1,9.047485E0,4.1108246E0,6.0351815E0,1.1865768E0,4.873253E0,2.8178651E0,1.5329001E0,2.487091E0,3.0300512E0,1.2506324E0,5.5723E-1,1.5233421E-1,0E0,0E0,0E0,0E0,0E0,0E0,0E0,0E0,0E0,0E0,0E0,0E0,0E0,0E0,0E0,0E0],"parents":[2147483647,0,0,1,1,2,2,3,3,4,4,5,5,6,6,7,7,8,8,9,9,10,10,11,11,12,12,13,13,14,14],"right_children":[2,4,6,8,10,12,14,16,18,20,22,24,26,28,30,-1,-1,-1,-1,-1,-1,-1,-1,-1,-1,-1,-1,-1,-1,-1,-1],"split_conditions":[8.5E6,3.1E-1,2.5E7,8E0,2.5E1,1E-1,6.4E-1,2E6,4E-2,5.4E-1,4.5E6,1.76E1,2.7E1,5.33E1,3.8E1,-7.4399896E-2,-3.471902E-2,-2.596238E-2,4.0711476E-3,1.2678001E-3,2.6940728E-2,-3.134192E-2,-3.1730682E-3,1.772306E-2,-1.9634303E-2,-7.658516E-3,-3.7968237E-2,-2.9065849E-3,3.2160737E-2,5.2119892E-2,1.2474871E-2],"split_indices":[15,7,15,18,16,13,4,15,7,4,15,8,16,14,0,0,0,0,0,0,0,0,0,0,0,0,0,0,0,0,0],"split_type":[0,0,0,0,0,0,0,0,0,0,0,0,0,0,0,0,0,0,0,0,0,0,0,0,0,0,0,0,0,0,0],"sum_hessian":[3.44E2,1.81E2,1.63E2,1.09E2,7.2E1,1.04E2,5.9E1,7.8E1,3.1E1,4.1E1,3.1E1,8.7E1,1.7E1,4.4E1,1.5E1,9E0,6.9E1,1.2E1,1.9E1,3.5E1,6E0,1.6E1,1.5E1,8.2E1,5E0,1.3E1,4E0,1E0,4.3E1,1.4E1,1E0],"tree_param":{"num_deleted":"0","num_feature":"23","num_nodes":"31","size_leaf_vector":"1"}},{"base_weights":[-3.4771077E-2,-3.949257E-1,1.9823481E-1,-1.6192665E0,-3.1773138E-1,3.09771E-1,-5.8986044E-1,-1.0306773E-1,-9.766738E-3,-2.4224167E-1,-1.631156E0,1.8829764E-1,7.058014E-1,-8.2260114E-1,6.572378E-2,-1.791261E-2,1.2868502E-3,1.09192375E-2,-9.879051E-2,1.9979788E-2,2.2246053E-3,-1.8692827E-2,3.6980204E-2,2.2693729E-2,-4.568361E-2,1.0226178E-2,-2.9230404E-3],"categories":[],"categories_nodes":[],"categories_segments":[],"categories_sizes":[],"default_left":[0,0,0,0,0,0,0,0,0,0,0,0,0,0,0,0,0,0,0,0,0,0,0,0,0,0,0],"id":7,"left_children":[1,3,5,7,9,11,13,-1,-1,15,17,19,21,23,25,-1,-1,-1,-1,-1,-1,-1,-1,-1,-1,-1,-1],"loss_changes":[2.9701397E1,1.2622698E1,1.9081465E1,4.6333714E0,1.2692672E1,8.959349E0,4.1737547E0,0E0,0E0,3.9263515E0,4.893652E0,4.418554E0,1.8822994E0,2.7396917E0,1.4985096E-1,0E0,0E0,0E0,0E0,0E0,0E0,0E0,0E0,0E0,0E0,0E0,0E0],"parents":[2147483647,0,0,1,1,2,2,3,3,4,4,5,5,6,6,9,9,10,10,11,11,12,12,13,13,14,14],"right_children":[2,4,6,8,10,12,14,-1,-1,16,18,20,22,24,26,-1,-1,-1,-1,-1,-1,-1,-1,-1,-1,-1,-1],"split_conditions":[2.5E1,2E0,2.8E1,2.8E1,3.1E1,4.9E-1,8E-1,-1.0306773E-1,-9.766738E-3,8E0,8E0,2.3E1,3E0,2.6E1,2.9E1,-1.791261E-2,1.2868502E-3,1.09192375E-2,-9.879051E-2,1.9979788E-2,2.2246053E-3,-1.8692827E-2,3.6980204E-2,2.2693729E-2,-4.568361E-2,1.0226178E-2,-2.9230404E-3],"split_indices":[0,0,16,16,16,4,7,0,0,18,0,16,10,0,16,0,0,0,0,0,0,0,0,0,0,0,0],"split_type":[0,0,0,0,0,0,0,0,0,0,0,0,0,0,0,0,0,0,0,0,0,0,0,0,0,0,0],"sum_hessian":[3.52E2,1.38E2,2.14E2,7E0,1.31E2,1.88E2,2.6E1,5E0,2E0,1.25E2,6E0,1.45E2,4.3E1,1.9E1,7E0,8.7E1,3.8E1,1E0,5E0,5.8E1,8.7E1,1E0,4.2E1,1E0,1.8E1,3E0,4E0],"tree_param":{"num_deleted":"0","num_feature":"23","num_nodes":"27","size_leaf_vector":"1"}},{"base_weights":[-3.1912226E-2,9.306299E-2,-7.030842E-1,-9.611153E-2,1.3359913E-1,-1.4001307E0,-5.3981715E-1,-1.7338066E-1,2.601403E-1,-1.06715165E-1,-7.805849E-1,-1.4570124E0,-4.2061263E-1,-1.4404229E-2,1.4116118E-2,8.722298E-3,3.7466433E-2,-7.2307824E-3,-4.3123856E-2,-8.2376495E-2,-1.7373562E-2,-3.06031E-2,-4.5902086E-3],"categories":[],"categories_nodes":[],"categories_segments":[],"categories_sizes":[],"default_left":[0,0,0,0,0,0,0,0,0,0,0,0,0,0,0,0,0,0,0,0,0,0,0],"id":8,"left_children":[1,3,5,-1,7,9,11,13,15,-1,17,19,21,-1,-1,-1,-1,-1,-1,-1,-1,-1,-1],"loss_changes":[2.992666E1,2.484617E1,5.6172485E0,0E0,1.1543394E1,2.8825302E0,4.5258493E0,4.6289024E0,8.672622E0,0E0,2.3983908E-1,4.844656E-1,2.6506667E0,0E0,0E0,0E0,0E0,0E0,0E0,0E0,0E0,0E0,0E0],"parents":[2147483647,0,0,1,1,2,2,4,4,5,5,6,6,7,7,8,8,10,10,11,11,12,12],"right_children":[2,4,6,-1,8,10,12,14,16,-1,18,20,22,-1,-1,-1,-1,-1,-1,-1,-1,-1,-1],"split_conditions":[2.8E1,2E0,5.29E1,-9.611153E-2,2.1E1,7.8E1,1.9E1,7.4E-1,2.1E-1,-1.06715165E-1,3.7E0,2.534E3,4E0,-1.4404229E-2,1.4116118E-2,8.722298E-3,3.7466433E-2,-7.2307824E-3,-4.3123856E-2,-8.2376495E-2,-1.7373562E-2,-3.06031E-2,-4.5902086E-3],"split_indices":[16,0,11,0,0,10,6,7,3,0,6,1,19,0,0,0,0,0,0,0,0,0,0],"split_type":[0,0,0,0,0,0,0,0,0,0,0,0,0,0,0,0,0,0,0,0,0,0,0],"sum_hessian":[3.55E2,3E2,5.5E1,5E0,2.95E2,9E0,4.6E1,8.6E1,2.09E2,3E0,6E0,4E0,4.2E1,6.9E1,1.7E1,1.79E2,3E1,1E0,5E0,3E0,1E0,2.6E1,1.6E1],"tree_param":{"num_deleted":"0","num_feature":"23","num_nodes":"23","size_leaf_vector":"1"}},{"base_weights":[1.7314848E-2,-1.1953591E-1,4.3382317E-1,1.7083084E-2,-5.441416E-1,9.389806E-2,6.9708675E-1,-2.90626E-1,1.9547093E-1,-8.565141E-1,-3.8970762E-1,-8.950746E-2,3.4730008E-1,3.8928166E-1,8.304868E-1,-6.2567405E-2,-1.0267246E-2,1.5282245E-2,2.4302443E-4,-2.8695514E-2,-6.6986725E-2,-2.4650559E-2,1.5743113E-3,-2.1519454E-2,5.3916336E-3,7.5611356E-3,2.7449215E-2,2.6182104E-2,8.633548E-3,5.4853704E-2,2.310045E-2],"categories":[],"categories_nodes":[],"categories_segments":[],"categories_sizes":[],"default_left":[0,0,0,0,0,0,0,0,0,0,0,0,0,0,0,0,0,0,0,0,0,0,0,0,0,0,0,0,0,0,0],"id":9,"left_children":[1,3,5,7,9,11,13,15,17,19,21,23,25,27,29,-1,-1,-1,-1,-1,-1,-1,-1,-1,-1,-1,-1,-1,-1,-1,-1],"loss_changes":[2.051467E1,1.572979E1,7.899149E0,1.136447E1,2.850111E0,1.8900993E0,1.7297668E0,5.9698315E0,2.7495556E0,2.0988712E0,2.0170197E0,1.6608809E0,5.892582E-1,4.0434837E-1,2.8330097E0,0E0,0E0,0E0,0E0,0E0,0E0,0E0,0E0,0E0,0E0,0E0,0E0,0E0,0E0,0E0,0E0],"parents":[2147483647,0,0,1,1,2,2,3,3,4,4,5,5,6,6,7,7,8,8,9,9,10,10,11,11,12,12,13,13,14,14],"right_children":[2,4,6,8,10,12,14,16,18,20,22,24,26,28,30,-1,-1,-1,-1,-1,-1,-1,-1,-1,-1,-1,-1,-1,-1,-1,-1],"split_conditions":[4.3E-1,2.7E1,1.82E3,1.485E3,1.9E1,6.6E-1,5.3E-1,2E0,2.714E3,3E1,3.5E1,1.8E-1,3.2E-1,9E-1,2.5E1,-6.2567405E-2,-1.0267246E-2,1.5282245E-2,2.4302443E-4,-2.8695514E-2,-6.6986725E-2,-2.4650559E-2,1.5743113E-3,-2.1519454E-2,5.3916336E-3,7.5611356E-3,2.7449215E-2,2.6182104E-2,8.633548E-3,5.4853704E-2,2.310045E-2],"split_indices":[4,16,1,1,5,4,4,0,1,16,0,3,3,7,16,0,0,0,0,0,0,0,0,0,0,0,0,0,0,0,0],"split_type":[0,0,0,0,0,0,0,0,0,0,0,0,0,0,0,0,0,0,0,0,0,0,0,0,0,0,0,0,0,0,0],"sum_hessian":[3.58E2,2.7E2,8.8E1,2.05E2,6.5E1,3.9E1,4.9E1,7.5E1,1.3E2,2E1,4.5E1,2.3E1,1.6E1,1.6E1,3.3E1,5E0,7E1,8.2E1,4.8E1,1.4E1,6E0,3.6E1,9E0,8E0,1.5E1,9E0,7E0,9E0,7E0,1.8E1,1.5E1],"tree_param":{"num_deleted":"0","num_feature":"23","num_nodes":"31","size_leaf_vector":"1"}},{"base_weights":[-3.0180527E-2,-3.430366E-1,5.3366846E-1,-5.3944945E-1,-4.508139E-4,2.9800788E-1,6.8501455E-1,-7.312566E-1,-2.3121712E-1,-4.235089E-1,1.0085114E-1,-6.972396E-1,3.5070854E-1,3.5906014E-1,8.2927006E-1,-7.85675E-2,-3.27187E-2,-2.457651E-2,-5.2472395E-3,-2.514661E-2,2.1181583E-2,-2.1968052E-2,7.873814E-3,-4.1923333E-2,-1.0369635E-2,9.683947E-3,2.531361E-2,7.1970522E-3,3.196594E-2,2.8387321E-2,4.8320457E-2],"categories":[],"categories_nodes":[],"categories_segments":[],"categories_sizes":[],"default_left":[0,0,0,0,0,0,0,0,0,0,0,0,0,0,0,0,0,0,0,0,0,0,0,0,0,0,0,0,0,0,0],"id":10,"left_children":[1,3,5,7,9,11,13,15,17,19,21,23,25,27,29,-1,-1,-1,-1,-1,-1,-1,-1,-1,-1,-1,-1,-1,-1,-1,-1],"loss_changes":[6.474678E1,1.5879786E1,4.4681435E0,8.699097E0,3.7712367E0,3.0243883E0,3.4168816E0,4.9139023E0,1.8877656E0,1.3568635E0,2.2410495E0,3.364706E-2,1.1477795E0,1.4754896E0,1.3880386E0,0E0,0E0,0E0,0E0,0E0,0E0,0E0,0E0,0E0,0E0,0E0,0E0,0E0,0E0,0E0,0E0],"parents":[2147483647,0,0,1,1,2,2,3,3,4,4,5,5,6,6,7,7,8,8,9,9,10,10,11,11,12,12,13,13,14,14],"right_children":[2,4,6,8,10,12,14,16,18,20,22,24,26,28,30,-1,-1,-1,-1,-1,-1,-1,-1,-1,-1,-1,-1,-1,-1,-1,-1],"split_conditions":[1.15E7,8E0,2E7,3.25E-1,4E-2,-1.2E0,6E0,2E0,5E6,7E0,5.96E2,3E1,2.108E3,3.5E7,2.302E3,-7.85675E-2,-3.27187E-2,-2.457651E-2,-5.2472395E-3,-2.514661E-2,2.1181583E-2,-2.1968052E-2,7.873814E-3,-4.1923333E-2,-1.0369635E-2,9.683947E-3,2.531361E-2,7.1970522E-3,3.196594E-2,2.8387321E-2,4.8320457E-2],"split_indices":[15,18,15,7,7,13,18,0,15,19,1,0,1,15,1,0,0,0,0,0,0,0,0,0,0,0,0,0,0,0,0],"split_type":[0,0,0,0,0,0,0,0,0,0,0,0,0,0,0,0,0,0,0,0,0,0,0,0,0,0,0,0,0,0,0],"sum_hessian":[3.65E2,2.35E2,1.3E2,1.49E2,8.6E1,5.2E1,7.8E1,9.1E1,5.8E1,1.6E1,7E1,2E0,5E1,2.5E1,5.3E1,6E0,8.5E1,1.8E1,4E1,1.5E1,1E0,6E0,6.4E1,1E0,1E0,2.6E1,2.4E1,1.5E1,1E1,2E1,3.3E1],"tree_param":{"num_deleted":"0","num_feature":"23","num_nodes":"31","size_leaf_vector":"1"}},{"base_weights":[4.4317273E-3,-3.007265E-1,4.7475508E-1,-5.506615E-1,-7.114914E-2,3.0994895E-1,7.901548E-1,-7.306126E-1,-1.566807E-1,-8.195553E-2,-4.11765E-2,1.9330627E-1,5.571596E-1,3.5604328E-1,8.478119E-1,-7.898944E-4,-4.003316E-2,-2.2577463E-2,-1.0832393E-3,-7.1568475E-3,1.1899886E-2,1.6832562E-2,-3.2196976E-3,1.0478878E-2,3.1180445E-2,2.3955679E-2,-9.559465E-3,1.8039474E-2,4.4658165E-2],"categories":[],"categories_nodes":[],"categories_segments":[],"categories_sizes":[],"default_left":[0,0,0,0,0,0,0,0,0,0,0,0,0,0,0,0,0,0,0,0,0,0,0,0,0,0,0,0,0],"id":11,"left_children":[1,3,5,7,9,11,13,15,17,-1,19,21,23,25,27,-1,-1,-1,-1,-1,-1,-1,-1,-1,-1,-1,-1,-1,-1],"loss_changes":[4.8510033E1,1.17236E1,6.6684074E0,6.8334618E0,5.008068E0,2.458641E0,8.244724E-1,3.3422546E0,1.2641995E0,0E0,3.0797923E0,2.3119605E0,5.1600933E-1,5.6303793E-1,5.3915596E-1,0E0,0E0,0E0,0E0,0E0,0E0,0E0,0E0,0E0,0E0,0E0,0E0,0E0,0E0],"parents":[2147483647,0,0,1,1,2,2,3,3,4,4,5,5,6,6,7,7,8,8,10,10,11,11,12,12,13,13,14,14],"right_children":[2,4,6,8,10,12,14,16,18,-1,20,22,24,26,28,-1,-1,-1,-1,-1,-1,-1,-1,-1,-1,-1,-1,-1,-1],"split_conditions":[1.1E7,5.4E6,8E0,8E0,5E0,3E7,1.25E7,2.2E1,9E-2,-8.195553E-2,8.2E-1,3.1E1,6.79E1,1.9E-1,1.57E1,-7.898944E-4,-4.003316E-2,-2.2577463E-2,-1.0832393E-3,-7.1568475E-3,1.1899886E-2,1.6832562E-2,-3.2196976E-3,1.0478878E-2,3.1180445E-2,2.3955679E-2,-9.559465E-3,1.8039474E-2,4.4658165E-2],"split_indices":[15,15,18,18,1,15,15,16,7,0,7,5,14,3,8,0,0,0,0,0,0,0,0,0,0,0,0,0,0],"split_type":[0,0,0,0,0,0,0,0,0,0,0,0,0,0,0,0,0,0,0,0,0,0,0,0,0,0,0,0,0],"sum_hessian":[3.36E2,2.04E2,1.32E2,9.7E1,1.07E2,8.8E1,4.4E1,6.6E1,3.1E1,1E0,1.06E2,6.1E1,2.7E1,6E0,3.8E1,6E0,6E1,9E0,2.2E1,7.8E1,2.8E1,3.9E1,2.2E1,5E0,2.2E1,5E0,1E0,4E0,3.4E1],"tree_param":{"num_deleted":"0","num_feature":"23","num_nodes":"29","size_leaf_vector":"1"}},{"base_weights":[-2.5479287E-2,-3.2333553E-1,4.3327406E-1,-5.870221E-1,-8.245614E-2,2.4535844E-1,6.6269577E-1,-3.7239823E-2,-7.8444725E-1,-1.0767202E0,-3.609122E-2,-1.8967946E-1,3.4348673E-1,2.363209E-1,7.500252E-1,-1.887841E-2,1.4144132E-2,-6.102888E-2,-3.0183105E-2,2.0830965E-2,-7.77105E-2,-4.3309897E-2,1.8907002E-4,-1.6451554E-2,1.3789761E-2,2.3327647E-2,1.5322898E-4,-3.0049444E-3,1.7090257E-2,3.8304813E-2,-1.3381481E-3],"categories":[],"categories_nodes":[],"categories_segments":[],"categories_sizes":[],"default_left":[0,0,0,0,0,0,0,0,0,0,0,0,0,0,0,0,0,0,0,0,0,0,0,0,0,0,0,0,0,0,0],"id":12,"left_children":[1,3,5,7,9,11,13,15,17,19,21,23,25,27,29,-1,-1,-1,-1,-1,-1,-1,-1,-1,-1,-1,-1,-1,-1,-1,-1],"loss_changes":[4.8238274E1,1.3544165E1,5.82996E0,1.104195E1,5.1703243E0,3.3949351E0,2.1313286E0,3.1573164E0,5.1766243E0,4.2127852E0,3.611015E0,1.0637149E0,2.6798153E0,3.957535E-1,6.57177E-1,0E0,0E0,0E0,0E0,0E0,0E0,0E0,0E0,0E0,0E0,0E0,0E0,0E0,0E0,0E0,0E0],"parents":[2147483647,0,0,1,1,2,2,3,3,4,4,5,5,6,6,7,7,8,8,9,9,10,10,11,11,12,12,13,13,14,14],"right_children":[2,4,6,8,10,12,14,16,18,20,22,24,26,28,30,-1,-1,-1,-1,-1,-1,-1,-1,-1,-1,-1,-1,-1,-1,-1,-1],"split_conditions":[1.1E7,5.4E6,2.5E7,2.3E1,2E0,8.6E1,7.29E1,1.438E3,1.9E1,6.5E6,-5E-1,3.8E-1,8.68E1,1.3E-1,2.9E1,-1.887841E-2,1.4144132E-2,-6.102888E-2,-3.0183105E-2,2.0830965E-2,-7.77105E-2,-4.3309897E-2,1.8907002E-4,-1.6451554E-2,1.3789761E-2,2.3327647E-2,1.5322898E-4,-3.0049444E-3,1.7090257E-2,3.8304813E-2,-1.3381481E-3],"split_indices":[15,15,15,16,0,9,14,1,5,15,13,4,9,3,16,0,0,0,0,0,0,0,0,0,0,0,0,0,0,0,0],"split_type":[0,0,0,0,0,0,0,0,0,0,0,0,0,0,0,0,0,0,0,0,0,0,0,0,0,0,0,0,0,0,0],"sum_hessian":[3.51E2,2.13E2,1.38E2,1.01E2,1.12E2,7.7E1,6.1E1,2.7E1,7.4E1,4E0,1.08E2,1.4E1,6.3E1,1.1E1,5E1,1.3E1,1.4E1,2E1,5.4E1,1E0,3E0,4E0,1.04E2,1.1E1,3E0,4.6E1,1.7E1,3E0,8E0,4.9E1,1E0],"tree_param":{"num_deleted":"0","num_feature":"23","num_nodes":"31","size_leaf_vector":"1"}},{"base_weights":[2.6484737E-2,-2.1456614E-1,5.04164E-1,-4.685847E-1,-2.2899097E-2,3.7247685E-1,7.827976E-1,-3.2557783E-1,-8.520815E-1,-7.796388E-2,9.13642E-4,2.546549E-1,6.214989E-1,1.6774293E-2,8.2822764E-1,4.3447395E-5,-2.1621538E-2,-5.121365E-2,-1.1919009E-2,2.7519932E-3,-2.679571E-2,1.6299862E-2,-5.305972E-3,1.3388236E-2,3.482721E-2,4.5521893E-2,2.022787E-2],"categories":[],"categories_nodes":[],"categories_segments":[],"categories_sizes":[],"default_left":[0,0,0,0,0,0,0,0,0,0,0,0,0,0,0,0,0,0,0,0,0,0,0,0,0,0,0],"id":13,"left_children":[1,3,5,7,9,11,13,15,17,-1,19,21,23,-1,25,-1,-1,-1,-1,-1,-1,-1,-1,-1,-1,-1,-1],"loss_changes":[3.9487774E1,1.1089902E1,3.9280567E0,5.0971622E0,4.7941093E0,2.1889534E0,4.5371056E-1,2.5467467E0,2.5033607E0,0E0,3.8068366E0,1.4759488E0,4.7714233E-1,0E0,7.462349E-1,0E0,0E0,0E0,0E0,0E0,0E0,0E0,0E0,0E0,0E0,0E0,0E0],"parents":[2147483647,0,0,1,1,2,2,3,3,4,4,5,5,6,6,7,7,8,8,10,10,11,11,12,12,14,14],"right_children":[2,4,6,8,10,12,14,16,18,-1,20,22,24,-1,26,-1,-1,-1,-1,-1,-1,-1,-1,-1,-1,-1,-1],"split_conditions":[1.3E7,5.4E6,8E0,2.8E1,5E0,3.5E7,1.57E1,2.2E1,2.735E3,-7.796388E-2,2E0,1.94E1,6.97E1,1.6774293E-2,2.3E1,4.3447395E-5,-2.1621538E-2,-5.121365E-2,-1.1919009E-2,2.7519932E-3,-2.679571E-2,1.6299862E-2,-5.305972E-3,1.3388236E-2,3.482721E-2,4.5521893E-2,2.022787E-2],"split_indices":[15,15,18,16,1,15,8,16,1,0,12,8,14,0,5,0,0,0,0,0,0,0,0,0,0,0,0],"split_type":[0,0,0,0,0,0,0,0,0,0,0,0,0,0,0,0,0,0,0,0,0,0,0,0,0,0,0],"sum_hessian":[3.41E2,2.27E2,1.14E2,9.7E1,1.3E2,7.9E1,3.5E1,7.2E1,2.5E1,1E0,1.29E2,5.5E1,2.4E1,4E0,3.1E1,1.8E1,5.4E1,1.9E1,6E0,1.18E2,1.1E1,4.6E1,9E0,5E0,1.9E1,2.5E1,6E0],"tree_param":{"num_deleted":"0","num_feature":"23","num_nodes":"27","size_leaf_vector":"1"}},{"base_weights":[-3.933008E-2,-3.570812E-1,2.9620686E-1,-1.0034254E0,-2.7501872E-1,1.1553406E-1,5.2295256E-1,-2.4788737E-1,-1.4234985E0,-4.354801E-1,-4.2565584E-2,1.709543E-1,-5.8184814E-1,7.00125E-1,3.364348E-1,1.7340978E-3,-3.6519848E-2,-8.510904E-2,-1.0029157E-3,-2.7730009E-3,-2.8160036E-2,-6.6220015E-3,2.280002E-2,1.0738284E-2,-2.9087154E-2,-1.1232472E-2,-3.3989888E-2,3.8947593E-2,8.808264E-3,6.277899E-3,3.3695344E-2],"categories":[],"categories_nodes":[],"categories_segments":[],"categories_sizes":[],"default_left":[0,0,0,0,0,0,0,0,0,0,0,0,0,0,0,0,0,0,0,0,0,0,0,0,0,0,0,0,0,0,0],"id":14,"left_children":[1,3,5,7,9,11,13,15,17,19,21,23,25,27,29,-1,-1,-1,-1,-1,-1,-1,-1,-1,-1,-1,-1,-1,-1,-1,-1],"loss_changes":[3.5715927E1,8.847023E0,6.6171675E0,5.677376E0,5.725624E0,3.6551862E0,2.1437492E0,1.1160707E0,4.6592236E0,4.3855762E0,2.9281266E0,2.9609349E0,9.219599E-2,1.3496513E0,2.548492E0,0E0,0E0,0E0,0E0,0E0,0E0,0E0,0E0,0E0,0E0,0E0,0E0,0E0,0E0,0E0,0E0],"parents":[2147483647,0,0,1,1,2,2,3,3,4,4,5,5,6,6,7,7,8,8,9,9,10,10,11,11,12,12,13,13,14,14],"right_children":[2,4,6,8,10,12,14,16,18,20,22,24,26,28,30,-1,-1,-1,-1,-1,-1,-1,-1,-1,-1,-1,-1,-1,-1,-1,-1],"split_conditions":[8.5E6,5.27E1,2E7,2.4E1,6E6,2.28E1,2.6E1,1.5E1,9.9E1,2.3E1,6E0,1E0,8.44E1,6.85E1,4E7,1.7340978E-3,-3.6519848E-2,-8.510904E-2,-1.0029157E-3,-2.7730009E-3,-2.8160036E-2,-6.6220015E-3,2.280002E-2,1.0738284E-2,-2.9087154E-2,-1.1232472E-2,-3.3989888E-2,3.8947593E-2,8.808264E-3,6.277899E-3,3.3695344E-2],"split_indices":[15,11,15,16,15,8,5,5,9,16,19,13,9,11,15,0,0,0,0,0,0,0,0,0,0,0,0,0,0,0,0],"split_type":[0,0,0,0,0,0,0,0,0,0,0,0,0,0,0,0,0,0,0,0,0,0,0,0,0,0,0,0,0,0,0],"sum_hessian":[3.33E2,1.71E2,1.62E2,1.8E1,1.53E2,9.1E1,7.1E1,7E0,1.1E1,9E1,6.3E1,8.5E1,6E0,3.5E1,3.6E1,5E0,2E0,9E0,2E0,2.3E1,6.7E1,5.4E1,9E0,8.1E1,4E0,2E0,4E0,3E1,5E0,2.3E1,1.3E1],"tree_param":{"num_deleted":"0","num_feature":"23","num_nodes":"31","size_leaf_vector":"1"}},{"base_weights":[4.764464E-3,-2.7985662E-1,3.3300987E-1,-9.294202E-2,-2.354285E-1,1.5838549E-1,5.1668155E-1,-4.0616724E-1,2.3861073E-2,2.1996555E-1,-5.592161E-1,3.0572677E-1,6.952435E-1,-9.38209E-3,-2.848422E-2,-1.6366748E-2,5.5631204E-3,1.3639244E-2,-2.3406705E-2,-1.0858059E-2,-3.263029E-2,4.5905984E-3,2.2856398E-2,3.7297484E-2,1.3523459E-3],"categories":[],"categories_nodes":[],"categories_segments":[],"categories_sizes":[],"default_left":[0,0,0,0,0,0,0,0,0,0,0,0,0,0,0,0,0,0,0,0,0,0,0,0,0],"id":15,"left_children":[1,3,5,-1,7,9,11,13,15,17,19,21,23,-1,-1,-1,-1,-1,-1,-1,-1,-1,-1,-1,-1],"loss_changes":[3.279214E1,1.2750818E1,5.1461544E0,0E0,8.155514E0,3.8791547E0,2.763256E0,3.8594284E0,2.3078504E0,2.9989533E0,8.1890106E-2,1.188734E0,1.4028549E0,0E0,0E0,0E0,0E0,0E0,0E0,0E0,0E0,0E0,0E0,0E0,0E0],"parents":[2147483647,0,0,1,1,2,2,4,4,5,5,6,6,7,7,8,8,9,9,10,10,11,11,12,12],"right_children":[2,4,6,-1,8,10,12,14,16,18,20,22,24,-1,-1,-1,-1,-1,-1,-1,-1,-1,-1,-1,-1],"split_conditions":[9E6,3E0,2E7,-9.294202E-2,8E0,2.28E1,7E0,2.5E1,4E-2,1E0,8.44E1,3E7,1.88E1,-9.38209E-3,-2.848422E-2,-1.6366748E-2,5.5631204E-3,1.3639244E-2,-2.3406705E-2,-1.0858059E-2,-3.263029E-2,4.5905984E-3,2.2856398E-2,3.7297484E-2,1.3523459E-3],"split_indices":[15,18,15,0,18,8,18,16,7,13,9,15,8,0,0,0,0,0,0,0,0,0,0,0,0],"split_type":[0,0,0,0,0,0,0,0,0,0,0,0,0,0,0,0,0,0,0,0,0,0,0,0,0],"sum_hessian":[3.49E2,1.87E2,1.62E2,4E0,1.83E2,8.4E1,7.8E1,1.1E2,7.3E1,7.8E1,6E0,3.7E1,4.1E1,4.8E1,6.2E1,1.4E1,5.9E1,7.3E1,5E0,2E0,4E0,1.6E1,2.1E1,3.8E1,3E0],"tree_param":{"num_deleted":"0","num_feature":"23","num_nodes":"25","size_leaf_vector":"1"}},{"base_weights":[2.6728157E-2,-2.7556545E-1,1.7568241E-1,-4.1092542E-1,4.4523124E-2,2.531923E-1,-3.0254498E-1,-1.1689309E0,-3.292545E-1,2.5473496E-1,-3.9905825E-1,1.7567651E-1,6.014061E-1,-4.388251E-1,1.4411342E-1,-8.178983E-2,-5.888939E-5,1.9306947E-2,-1.951127E-2,3.0197322E-2,8.607795E-3,-4.716864E-2,-3.850937E-3,-1.0936764E-2,1.1274378E-2,1.7701937E-2,4.139738E-2,-2.844291E-2,2.3041964E-3,-1.3046662E-2,1.6130893E-2],"categories":[],"categories_nodes":[],"categories_segments":[],"categories_sizes":[],"default_left":[0,0,0,0,0,0,0,0,0,0,0,0,0,0,0,0,0,0,0,0,0,0,0,0,0,0,0,0,0,0,0],"id":16,"left_children":[1,3,5,7,9,11,13,15,17,19,21,23,25,27,29,-1,-1,-1,-1,-1,-1,-1,-1,-1,-1,-1,-1,-1,-1,-1,-1],"loss_changes":[1.4727513E1,4.697632E0,8.194351E0,4.320055E0,3.1787739E0,4.9958467E0,1.9502306E0,3.8143606E0,3.2039523E0,5.5929065E-1,1.8555412E0,3.1141086E0,1.6121998E0,1.5395169E0,6.6260266E-1,0E0,0E0,0E0,0E0,0E0,0E0,0E0,0E0,0E0,0E0,0E0,0E0,0E0,0E0,0E0,0E0],"parents":[2147483647,0,0,1,1,2,2,3,3,4,4,5,5,6,6,7,7,8,8,9,9,10,10,11,11,12,12,13,13,14,14],"right_children":[2,4,6,8,10,12,14,16,18,20,22,24,26,28,30,-1,-1,-1,-1,-1,-1,-1,-1,-1,-1,-1,-1,-1,-1,-1,-1],"split_conditions":[2.4E1,8E0,2.8E1,2E0,1E-1,2.1E-1,1E0,2.8E1,1.09E1,3E0,1E0,5.6E1,9.8E-1,8E-1,3E-2,-8.178983E-2,-5.888939E-5,1.9306947E-2,-1.951127E-2,3.0197322E-2,8.607795E-3,-4.716864E-2,-3.850937E-3,-1.0936764E-2,1.1274378E-2,1.7701937E-2,4.139738E-2,-2.844291E-2,2.3041964E-3,-1.3046662E-2,1.6130893E-2],"split_indices":[0,18,16,0,3,3,2,16,8,0,19,11,7,7,4,0,0,0,0,0,0,0,0,0,0,0,0,0,0,0,0],"split_type":[0,0,0,0,0,0,0,0,0,0,0,0,0,0,0,0,0,0,0,0,0,0,0,0,0,0,0,0,0,0,0],"sum_hessian":[3.25E2,1.07E2,2.18E2,7.5E1,3.2E1,1.88E2,3E1,6E0,6.9E1,2.2E1,1E1,1.55E2,3.3E1,2.3E1,7E0,4E0,2E0,5E0,6.4E1,3E0,1.9E1,3E0,7E0,1.7E1,1.38E2,1.7E1,1.6E1,1.8E1,5E0,2E0,5E0],"tree_param":{"num_deleted":"0","num_feature":"23","num_nodes":"31","size_leaf_vector":"1"}},{"base_weights":[5.7481285E-3,-2.5653163E-1,3.1056845E-1,-9.118268E-2,-2.2852091E-1,6.479543E-2,4.021548E-1,-3.5665435E-1,1.4898392E-2,-1.5030608E-1,2.972973E-1,1.7013267E-1,5.1435065E-1,-2.9231299E-2,-9.356788E-3,-1.577399E-2,5.0249374E-3,6.124073E-4,-3.0645886E-2,1.1089958E-2,2.813573E-2,1.4106843E-2,-4.802724E-3,7.429016E-3,2.8744793E-2],"categories":[],"categories_nodes":[],"categories_segments":[],"categories_sizes":[],"default_left":[0,0,0,0,0,0,0,0,0,0,0,0,0,0,0,0,0,0,0,0,0,0,0,0,0],"id":17,"left_children":[1,3,5,-1,7,9,11,13,15,17,19,21,23,-1,-1,-1,-1,-1,-1,-1,-1,-1,-1,-1,-1],"loss_changes":[2.6622473E1,7.4406796E0,3.4403982E0,0E0,5.5259695E0,2.1951802E0,2.8280659E0,4.3734646E0,1.7850958E0,1.7370952E0,2.9599917E-1,1.1600353E0,1.5755062E0,0E0,0E0,0E0,0E0,0E0,0E0,0E0,0E0,0E0,0E0,0E0,0E0],"parents":[2147483647,0,0,1,1,2,2,4,4,5,5,6,6,7,7,8,8,9,9,10,10,11,11,12,12],"right_children":[2,4,6,-1,8,10,12,14,16,18,20,22,24,-1,-1,-1,-1,-1,-1,-1,-1,-1,-1,-1,-1],"split_conditions":[9E6,2E0,6E0,-9.118268E-2,8E0,2.3E7,1.759E3,5E6,3E-2,2.7E1,5E7,4E0,1.15E7,-2.9231299E-2,-9.356788E-3,-1.577399E-2,5.0249374E-3,6.124073E-4,-3.0645886E-2,1.1089958E-2,2.813573E-2,1.4106843E-2,-4.802724E-3,7.429016E-3,2.8744793E-2],"split_indices":[15,18,18,0,18,15,1,15,7,16,15,19,15,0,0,0,0,0,0,0,0,0,0,0,0],"split_type":[0,0,0,0,0,0,0,0,0,0,0,0,0,0,0,0,0,0,0,0,0,0,0,0,0],"sum_hessian":[3.31E2,1.78E2,1.53E2,2E0,1.76E2,4.2E1,1.11E2,1.15E2,6.1E1,2.2E1,2E1,3.7E1,7.4E1,4.8E1,6.7E1,1.2E1,4.9E1,1.7E1,5E0,1.7E1,3E0,2.6E1,1.1E1,1.1E1,6.3E1],"tree_param":{"num_deleted":"0","num_feature":"23","num_nodes":"25","size_leaf_vector":"1"}},{"base_weights":[2.2819035E-3,8.803918E-2,-4.9911222E-1,-1.3069654E0,1.1573814E-1,-7.214742E-2,-3.903978E-1,-5.482626E-3,-1.5244974E0,1.7394856E-2,3.4033164E-1,-1.5593609E0,-3.0567417E-1,-8.528971E-2,-1.9982768E-2,-9.743692E-3,6.284736E-3,1.1127352E-2,2.6562428E-2,-9.978769E-2,-1.7164374E-2,-2.0563588E-2,-2.9912364E-4],"categories":[],"categories_nodes":[],"categories_segments":[],"categories_sizes":[],"default_left":[0,0,0,0,0,0,0,0,0,0,0,0,0,0,0,0,0,0,0,0,0,0,0],"id":18,"left_children":[1,3,5,7,9,-1,11,-1,13,15,17,19,21,-1,-1,-1,-1,-1,-1,-1,-1,-1,-1],"loss_changes":[1.5308301E1,1.1897877E1,4.7723236E0,1.3955593E0,6.598171E0,0E0,4.2772055E0,0E0,3.379202E-1,4.829127E0,1.9280958E0,9.0694094E-1,1.453289E0,0E0,0E0,0E0,0E0,0E0,0E0,0E0,0E0,0E0,0E0],"parents":[2147483647,0,0,1,1,2,2,3,3,4,4,6,6,8,8,9,9,10,10,11,11,12,12],"right_children":[2,4,6,8,10,-1,12,-1,14,16,18,20,22,-1,-1,-1,-1,-1,-1,-1,-1,-1,-1],"split_conditions":[2.8E1,2.7E1,2.75E1,1E0,7.7E-1,-7.214742E-2,8.09E1,-5.482626E-3,8.68E1,1.485E3,2.1E-1,1.519E3,2.379E3,-8.528971E-2,-1.9982768E-2,-9.743692E-3,6.284736E-3,1.1127352E-2,2.6562428E-2,-9.978769E-2,-1.7164374E-2,-2.0563588E-2,-2.9912364E-4],"split_indices":[16,1,6,19,7,0,9,0,9,1,3,1,1,0,0,0,0,0,0,0,0,0,0],"split_type":[0,0,0,0,0,0,0,0,0,0,0,0,0,0,0,0,0,0,0,0,0,0,0],"sum_hessian":[3.54E2,3.03E2,5.1E1,5E0,2.98E2,4E0,4.7E1,1E0,4E0,2.08E2,9E1,2E0,4.5E1,3E0,1E0,7E1,1.38E2,5.7E1,3.3E1,1E0,1E0,3.3E1,1.2E1],"tree_param":{"num_deleted":"0","num_feature":"23","num_nodes":"23","size_leaf_vector":"1"}},{"base_weights":[-3.0749755E-2,-2.1985368E-1,3.1670952E-1,-7.374544E-1,-1.5112267E-1,-3.3554894E-1,3.533397E-1,-3.8052478E-1,-1.3693743E0,-3.4402078E-1,-2.655567E-2,-2.9737461E-2,7.538557E-3,3.919452E-1,-5.0798938E-2,8.541512E-3,-3.0286262E-2,-1.0475253E-1,-3.2868054E-2,-2.3968155E-3,-2.2613177E-2,4.452378E-2,-2.4630078E-3,-6.363988E-3,4.745229E-3,9.515649E-3,2.3828289E-2,9.356624E-3,-2.5698101E-2],"categories":[],"categories_nodes":[],"categories_segments":[],"categories_sizes":[],"default_left":[0,0,0,0,0,0,0,0,0,0,0,0,0,0,0,0,0,0,0,0,0,0,0,0,0,0,0,0,0],"id":19,"left_children":[1,3,5,7,9,11,13,15,17,19,21,-1,23,25,27,-1,-1,-1,-1,-1,-1,-1,-1,-1,-1,-1,-1,-1,-1],"loss_changes":[2.273817E1,7.8574047E0,3.0334282E0,5.3432426E0,4.7725825E0,6.2698215E-1,1.8297396E0,2.3384535E0,3.273016E0,2.4781418E0,2.583993E0,0E0,5.9193593E-2,1.7178993E0,1.3083905E0,0E0,0E0,0E0,0E0,0E0,0E0,0E0,0E0,0E0,0E0,0E0,0E0,0E0,0E0],"parents":[2147483647,0,0,1,1,2,2,3,3,4,4,5,5,6,6,7,7,8,8,9,9,10,10,12,12,13,13,14,14],"right_children":[2,4,6,8,10,12,14,16,18,20,22,-1,24,26,28,-1,-1,-1,-1,-1,-1,-1,-1,-1,-1,-1,-1,-1,-1],"split_conditions":[1.15E7,5.29E1,-1.1E0,2.7E1,5E6,3.3E1,9.75E1,8.8E2,8.76E1,2.3E1,1.9E1,-2.9737461E-2,3.5E1,1.805E3,5E-2,8.541512E-3,-3.0286262E-2,-1.0475253E-1,-3.2868054E-2,-2.3968155E-3,-2.2613177E-2,4.452378E-2,-2.4630078E-3,-6.363988E-3,4.745229E-3,9.515649E-3,2.3828289E-2,9.356624E-3,-2.5698101E-2],"split_indices":[15,11,13,16,15,0,14,1,9,16,16,0,0,1,3,0,0,0,0,0,0,0,0,0,0,0,0,0,0],"split_type":[0,0,0,0,0,0,0,0,0,0,0,0,0,0,0,0,0,0,0,0,0,0,0,0,0,0,0,0,0],"sum_hessian":[3.44E2,2.23E2,1.21E2,2.5E1,1.98E2,6E0,1.15E2,1.7E1,8E0,7.7E1,1.21E2,3E0,3E0,1.05E2,1E1,5E0,1.2E1,3E0,5E0,2.1E1,5.6E1,2E0,1.19E2,1E0,2E0,3.2E1,7.3E1,7E0,3E0],"tree_param":{"num_deleted":"0","num_feature":"23","num_nodes":"29","size_leaf_vector":"1"}},{"base_weights":[-9.6684825E-3,-2.3309523E-1,3.7538737E-1,-6.275199E-2,-2.0403239E-1,-5.50474E-2,4.196269E-1,-3.910552E-1,-4.358419E-2,-2.3602867E-2,1.9041538E-2,2.5996372E-1,5.332033E-1,-2.377727E-3,-2.6107872E-2,1.1373232E-3,-1.9694505E-2,8.563689E-3,-8.086816E-3,1.4071368E-2,-8.863195E-3,3.6937706E-2,1.3943632E-2],"categories":[],"categories_nodes":[],"categories_segments":[],"categories_sizes":[],"default_left":[0,0,0,0,0,0,0,0,0,0,0,0,0,0,0,0,0,0,0,0,0,0,0],"id":20,"left_children":[1,3,5,-1,7,9,11,13,15,-1,17,19,21,-1,-1,-1,-1,-1,-1,-1,-1,-1,-1],"loss_changes":[3.0456717E1,6.3968697E0,2.4985924E0,0E0,6.554592E0,4.106344E-1,2.001194E0,4.523574E0,2.774046E0,0E0,3.5794383E-1,5.284965E-1,3.348875E0,0E0,0E0,0E0,0E0,0E0,0E0,0E0,0E0,0E0,0E0],"parents":[2147483647,0,0,1,1,2,2,4,4,5,5,6,6,7,7,8,8,10,10,11,11,12,12],"right_children":[2,4,6,-1,8,10,12,14,16,-1,18,20,22,-1,-1,-1,-1,-1,-1,-1,-1,-1,-1],"split_conditions":[1.3E7,2E0,1.33E1,-6.275199E-2,5.4E6,7.5E0,2.302E3,2.3E1,1E-1,-2.3602867E-2,1.14E1,5.63E1,2.3E1,-2.377727E-3,-2.6107872E-2,1.1373232E-3,-1.9694505E-2,8.563689E-3,-8.086816E-3,1.4071368E-2,-8.863195E-3,3.6937706E-2,1.3943632E-2],"split_indices":[15,0,8,0,15,8,1,16,13,0,8,6,5,0,0,0,0,0,0,0,0,0,0],"split_type":[0,0,0,0,0,0,0,0,0,0,0,0,0,0,0,0,0,0,0,0,0,0,0],"sum_hessian":[3.52E2,2.23E2,1.29E2,5E0,2.18E2,1.2E1,1.17E2,1E2,1.18E2,1E0,1.1E1,5E1,6.7E1,2.8E1,7.2E1,1E2,1.8E1,6E0,5E0,4.8E1,2E0,3.6E1,3.1E1],"tree_param":{"num_deleted":"0","num_feature":"23","num_nodes":"23","size_leaf_vector":"1"}},{"base_weights":[-7.701249E-3,-1.6654542E-1,3.4211805E-1,-8.6259186E-2,-5.7811654E-1,2.3375882E-1,5.4666144E-1,-1.1914421E0,-5.2160926E-2,-9.485045E-1,-9.330257E-2,1.7790195E-1,5.3241557E-1,2.3904991E-1,5.872554E-1,-6.983552E-2,-4.127526E-3,1.5834138E-2,-4.5510265E-3,-9.1100834E-2,-3.8502626E-2,-1.39806615E-2,1.1576931E-3,1.1856988E-2,-2.318447E-3,2.9128496E-2,7.718086E-4,1.4395848E-2,-1.3213158E-4,1.6075158E-2,3.2440297E-2],"categories":[],"categories_nodes":[],"categories_segments":[],"categories_sizes":[],"default_left":[0,0,0,0,0,0,0,0,0,0,0,0,0,0,0,0,0,0,0,0,0,0,0,0,0,0,0,0,0,0,0],"id":21,"left_children":[1,3,5,7,9,11,13,15,17,19,21,23,25,27,29,-1,-1,-1,-1,-1,-1,-1,-1,-1,-1,-1,-1,-1,-1,-1,-1],"loss_changes":[1.9394209E1,7.880572E0,2.288107E0,7.550186E0,6.9147043E0,1.1230707E0,3.2164192E-1,1.2504215E0,2.8524494E0,2.0263119E0,3.9702144E-1,8.479707E-1,2.7622342E-1,7.162565E-2,3.148365E-1,0E0,0E0,0E0,0E0,0E0,0E0,0E0,0E0,0E0,0E0,0E0,0E0,0E0,0E0,0E0,0E0],"parents":[2147483647,0,0,1,1,2,2,3,3,4,4,5,5,6,6,7,7,8,8,9,9,10,10,11,11,12,12,13,13,14,14],"right_children":[2,4,6,8,10,12,14,16,18,20,22,24,26,28,30,-1,-1,-1,-1,-1,-1,-1,-1,-1,-1,-1,-1,-1,-1,-1,-1],"split_conditions":[1.5E7,2.8E1,8E0,2.7E1,5.4E6,4.5E7,1.8E7,2E0,2E1,2E0,7E0,1.82E1,1.29E2,2.7E-1,3.14E1,-6.983552E-2,-4.127526E-3,1.5834138E-2,-4.5510265E-3,-9.1100834E-2,-3.8502626E-2,-1.39806615E-2,1.1576931E-3,1.1856988E-2,-2.318447E-3,2.9128496E-2,7.718086E-4,1.4395848E-2,-1.3213158E-4,1.6075158E-2,3.2440297E-2],"split_indices":[15,16,18,1,15,15,15,0,16,18,18,8,5,3,6,0,0,0,0,0,0,0,0,0,0,0,0,0,0,0,0],"split_type":[0,0,0,0,0,0,0,0,0,0,0,0,0,0,0,0,0,0,0,0,0,0,0,0,0,0,0,0,0,0,0],"sum_hessian":[3.47E2,2.39E2,1.08E2,2.01E2,3.8E1,7.2E1,3.6E1,5E0,1.96E2,2.1E1,1.7E1,6.2E1,1E1,5E0,3.1E1,4E0,1E0,1.8E1,1.78E2,2E0,1.9E1,6E0,1.1E1,4.9E1,1.3E1,9E0,1E0,4E0,1E0,7E0,2.4E1],"tree_param":{"num_deleted":"0","num_feature":"23","num_nodes":"31","size_leaf_vector":"1"}},{"base_weights":[-2.2441981E-2,-2.4553671E-1,1.3328966E-1,-8.252044E-2,-2.1390443E-1,2.1057518E-2,3.2351193E-1,-1.0254565E-1,-4.739514E-1,-1.0640663E-2,3.389634E-2,2.1765608E-1,4.78569E-1,-4.461099E-2,-3.0174307E-3,9.643651E-3,-2.7460953E-2,6.97571E-3,-5.8005545E-3,4.3902984E-3,1.5957894E-2,2.8365135E-2,-3.9280034E-3],"categories":[],"categories_nodes":[],"categories_segments":[],"categories_sizes":[],"default_left":[0,0,0,0,0,0,0,0,0,0,0,0,0,0,0,0,0,0,0,0,0,0,0],"id":22,"left_children":[1,3,5,-1,7,9,11,13,15,17,-1,19,21,-1,-1,-1,-1,-1,-1,-1,-1,-1,-1],"loss_changes":[1.2088519E1,6.001792E0,4.369744E0,0E0,4.034549E0,2.7140162E0,1.1432781E0,3.278347E0,2.2139215E0,1.9939203E0,0E0,5.9143686E-1,1.5276508E0,0E0,0E0,0E0,0E0,0E0,0E0,0E0,0E0,0E0,0E0],"parents":[2147483647,0,0,1,1,2,2,4,4,5,5,6,6,7,7,8,8,9,9,11,11,12,12],"right_children":[2,4,6,-1,8,10,12,14,16,18,-1,20,22,-1,-1,-1,-1,-1,-1,-1,-1,-1,-1],"split_conditions":[2.5E1,2E0,8E0,-8.252044E-2,2.7E1,1.46E0,1.3E-1,2E0,6E0,3.1E1,3.389634E-2,1E0,1.27E0,-4.461099E-2,-3.0174307E-3,9.643651E-3,-2.7460953E-2,6.97571E-3,-5.8005545E-3,4.3902984E-3,1.5957894E-2,2.8365135E-2,-3.9280034E-3],"split_indices":[0,18,18,0,16,7,3,0,18,0,0,22,7,0,0,0,0,0,0,0,0,0,0],"split_type":[0,0,0,0,0,0,0,0,0,0,0,0,0,0,0,0,0,0,0,0,0,0,0],"sum_hessian":[3.46E2,1.42E2,2.04E2,2E0,1.4E2,1.29E2,7.5E1,9.9E1,4.1E1,1.24E2,5E0,4.6E1,2.9E1,4E0,9.5E1,4E0,3.7E1,5.1E1,7.3E1,2.1E1,2.5E1,2.5E1,4E0],"tree_param":{"num_deleted":"0","num_feature":"23","num_nodes":"23","size_leaf_vector":"1"}},{"base_weights":[-1.2542953E-2,-2.048167E-1,2.9324868E-1,-1.1960615E-1,-5.177322E-1,1.06794134E-1,4.1044578E-1,-1.220241E0,-8.672439E-2,-4.510038E-1,-8.968096E-2,1.4838833E-1,-3.318173E-2,5.4543877E-1,2.7226055E-1,-3.948903E-3,-7.429061E-2,-1.4818084E-2,-1.7223092E-3,-3.944726E-2,-1.3924995E-2,9.972773E-3,-1.9087363E-2,2.8068617E-2,-2.695942E-3,4.794465E-3,2.7336953E-2],"categories":[],"categories_nodes":[],"categories_segments":[],"categories_sizes":[],"default_left":[0,0,0,0,0,0,0,0,0,0,0,0,0,0,0,0,0,0,0,0,0,0,0,0,0,0,0],"id":23,"left_children":[1,3,5,7,9,11,13,15,17,19,-1,21,-1,23,25,-1,-1,-1,-1,-1,-1,-1,-1,-1,-1,-1,-1],"loss_changes":[2.116772E1,5.8307533E0,2.9935865E0,6.227566E0,3.1925516E0,1.8609703E0,1.4370918E0,1.3980861E0,1.8638597E0,2.4619045E0,0E0,1.5109842E0,0E0,4.3136406E-1,2.077618E0,0E0,0E0,0E0,0E0,0E0,0E0,0E0,0E0,0E0,0E0,0E0,0E0],"parents":[2147483647,0,0,1,1,2,2,3,3,4,4,5,5,6,6,7,7,8,8,9,9,11,11,13,13,14,14],"right_children":[2,4,6,8,10,12,14,16,18,20,-1,22,-1,24,26,-1,-1,-1,-1,-1,-1,-1,-1,-1,-1,-1,-1],"split_conditions":[1.15E7,2.8E1,2E7,2.7E1,6E-1,2.16E1,2.7E1,1E0,1E0,1.9E1,-8.968096E-2,1E0,-3.318173E-2,9E0,4E7,-3.948903E-3,-7.429061E-2,-1.4818084E-2,-1.7223092E-3,-3.944726E-2,-1.3924995E-2,9.972773E-3,-1.9087363E-2,2.8068617E-2,-2.695942E-3,4.794465E-3,2.7336953E-2],"split_indices":[15,16,15,1,13,8,5,19,19,5,0,13,0,19,15,0,0,0,0,0,0,0,0,0,0,0,0],"split_type":[0,0,0,0,0,0,0,0,0,0,0,0,0,0,0,0,0,0,0,0,0,0,0,0,0,0,0],"sum_hessian":[3.58E2,2.2E2,1.38E2,1.74E2,4.6E1,5.4E1,8.4E1,4E0,1.7E2,4.5E1,1E0,5.2E1,2E0,4.1E1,4.3E1,1E0,3E0,3.3E1,1.37E2,1.4E1,3.1E1,4.8E1,4E0,4E1,1E0,2.7E1,1.6E1],"tree_param":{"num_deleted":"0","num_feature":"23","num_nodes":"27","size_leaf_vector":"1"}},{"base_weights":[5.5074664E-3,-3.4646687E-1,1.5772848E-1,-8.4440015E-2,-3.0559337E-1,4.8952598E-2,3.7469748E-1,-4.1633996E-1,-5.5568583E-2,-3.01488E-1,1.0903579E-1,2.539169E-1,5.836386E-1,-2.3477137E-2,1.3244097E-2,1.6566869E-2,-5.910031E-3,4.532415E-3,-2.2951072E-2,3.7074596E-2,4.291748E-3,1.0099338E-2,2.4844732E-2,2.5001846E-3,3.0998478E-2],"categories":[],"categories_nodes":[],"categories_segments":[],"categories_sizes":[],"default_left":[0,0,0,0,0,0,0,0,0,0,0,0,0,0,0,0,0,0,0,0,0,0,0,0,0],"id":24,"left_children":[1,3,5,-1,7,9,11,13,15,17,19,21,23,-1,-1,-1,-1,-1,-1,-1,-1,-1,-1,-1,-1],"loss_changes":[1.934269E1,5.4642963E0,5.929109E0,0E0,2.9396296E0,3.5912676E0,1.971631E0,2.8063488E0,8.630763E-1,1.5859745E0,2.064012E0,5.936167E-1,5.5062294E-1,0E0,0E0,0E0,0E0,0E0,0E0,0E0,0E0,0E0,0E0,0E0,0E0],"parents":[2147483647,0,0,1,1,2,2,4,4,5,5,6,6,7,7,8,8,9,9,10,10,11,11,12,12],"right_children":[2,4,6,-1,8,10,12,14,16,18,20,22,24,-1,-1,-1,-1,-1,-1,-1,-1,-1,-1,-1,-1],"split_conditions":[5.4E6,2E0,2E7,-8.4440015E-2,8E0,8.66E1,8E0,2.6E1,2E1,1.206E3,1.9E1,5E7,-3E-1,-2.3477137E-2,1.3244097E-2,1.6566869E-2,-5.910031E-3,4.532415E-3,-2.2951072E-2,3.7074596E-2,4.291748E-3,1.0099338E-2,2.4844732E-2,2.5001846E-3,3.0998478E-2],"split_indices":[15,18,15,0,18,9,18,5,16,1,16,15,13,0,0,0,0,0,0,0,0,0,0,0,0],"split_type":[0,0,0,0,0,0,0,0,0,0,0,0,0,0,0,0,0,0,0,0,0,0,0,0,0],"sum_hessian":[3.59E2,1.08E2,2.51E2,2E0,1.06E2,1.68E2,8.3E1,7.3E1,3.3E1,2.4E1,1.44E2,5.4E1,2.9E1,6.8E1,5E0,4E0,2.9E1,7E0,1.7E1,4E0,1.4E2,4.6E1,8E0,2E0,2.7E1],"tree_param":{"num_deleted":"0","num_feature":"23","num_nodes":"25","size_leaf_vector":"1"}},{"base_weights":[6.737661E-3,-2.0581135E-1,2.252528E-1,-3.5489342E-1,6.1588835E-2,9.052883E-2,3.6675692E-1,-7.6237954E-2,-3.107324E-1,-2.561546E-1,1.6006543E-1,1.6102524E-1,-3.1373867E-1,1.9122735E-1,4.5270658E-1,-6.260078E-2,-1.2803395E-2,-1.8418662E-2,1.7645868E-2,-2.6263881E-2,1.0692133E-2,1.2192763E-2,-4.7758054E-3,-3.2922383E-2,-5.5005173E-3,5.6331176E-3,2.4335511E-2,2.7222577E-2,1.4670591E-2],"categories":[],"categories_nodes":[],"categories_segments":[],"categories_sizes":[],"default_left":[0,0,0,0,0,0,0,0,0,0,0,0,0,0,0,0,0,0,0,0,0,0,0,0,0,0,0,0,0],"id":25,"left_children":[1,3,5,7,9,11,13,-1,15,17,19,21,23,25,27,-1,-1,-1,-1,-1,-1,-1,-1,-1,-1,-1,-1,-1,-1],"loss_changes":[1.6673733E1,7.2772093E0,3.3411255E0,5.570716E0,2.1061606E0,2.6724658E0,1.2108879E0,0E0,5.5452423E0,1.2235932E0,1.9919748E0,1.7019889E0,9.107417E-1,6.416044E-1,6.732769E-1,0E0,0E0,0E0,0E0,0E0,0E0,0E0,0E0,0E0,0E0,0E0,0E0,0E0,0E0],"parents":[2147483647,0,0,1,1,2,2,3,3,4,4,5,5,6,6,8,8,9,9,10,10,11,11,12,12,13,13,14,14],"right_children":[2,4,6,8,10,12,14,-1,16,18,20,22,24,26,28,-1,-1,-1,-1,-1,-1,-1,-1,-1,-1,-1,-1,-1,-1],"split_conditions":[9E6,8E0,2E7,2E0,4E-2,1.24E2,6E0,-7.6237954E-2,2E0,7E0,9E0,3.37E1,3E1,5E7,2.6E1,-6.260078E-2,-1.2803395E-2,-1.8418662E-2,1.7645868E-2,-2.6263881E-2,1.0692133E-2,1.2192763E-2,-4.7758054E-3,-3.2922383E-2,-5.5005173E-3,5.6331176E-3,2.4335511E-2,2.7222577E-2,1.4670591E-2],"split_indices":[15,18,15,18,7,10,18,0,0,19,0,6,0,15,5,0,0,0,0,0,0,0,0,0,0,0,0,0,0],"split_type":[0,0,0,0,0,0,0,0,0,0,0,0,0,0,0,0,0,0,0,0,0,0,0,0,0,0,0,0,0],"sum_hessian":[3.57E2,1.81E2,1.76E2,1.16E2,6.5E1,9.1E1,8.5E1,3E0,1.13E2,1.5E1,5E1,7.8E1,1.3E1,2.9E1,5.6E1,5E0,1.08E2,1.3E1,2E0,3E0,4.7E1,5.9E1,1.9E1,4E0,9E0,2.4E1,5E0,3.4E1,2.2E1],"tree_param":{"num_deleted":"0","num_feature":"23","num_nodes":"29","size_leaf_vector":"1"}},{"base_weights":[4.5013137E-2,-2.0548296E-1,1.784841E-1,-7.337904E-2,-1.6019094E-1,4.8468966E-2,3.0016378E-1,-5.464884E-1,-9.291846E-2,9.452555E-2,-5.448111E-1,1.12709045E-1,3.8076636E-1,-4.1905265E-2,6.391335E-3,5.14009E-3,-9.994393E-3,6.655997E-3,-1.0301284E-2,-5.3029537E-2,-9.805974E-3,-4.0483563E-3,1.2745238E-2,2.165536E-2,6.2541137E-3],"categories":[],"categories_nodes":[],"categories_segments":[],"categories_sizes":[],"default_left":[0,0,0,0,0,0,0,0,0,0,0,0,0,0,0,0,0,0,0,0,0,0,0,0,0],"id":26,"left_children":[1,3,5,-1,7,9,11,13,15,17,19,21,23,-1,-1,-1,-1,-1,-1,-1,-1,-1,-1,-1,-1],"loss_changes":[1.1437654E1,6.5672994E0,3.5133553E0,0E0,2.963735E0,3.0298643E0,1.6946592E0,3.4500403E0,2.1141567E0,1.2105844E0,1.2307818E0,1.012076E0,1.0164433E0,0E0,0E0,0E0,0E0,0E0,0E0,0E0,0E0,0E0,0E0,0E0,0E0],"parents":[2147483647,0,0,1,1,2,2,4,4,5,5,6,6,7,7,8,8,9,9,10,10,11,11,12,12],"right_children":[2,4,6,-1,8,10,12,14,16,18,20,22,24,-1,-1,-1,-1,-1,-1,-1,-1,-1,-1,-1,-1],"split_conditions":[6.5E6,2E0,1.5E7,-7.337904E-2,6E0,2.28E1,6E0,4E0,2.4E1,2.9E1,1.3E-1,2.5E7,3.8E1,-4.1905265E-2,6.391335E-3,5.14009E-3,-9.994393E-3,6.655997E-3,-1.0301284E-2,-5.3029537E-2,-9.805974E-3,-4.0483563E-3,1.2745238E-2,2.165536E-2,6.2541137E-3],"split_indices":[15,18,15,0,5,8,18,19,16,5,4,15,5,0,0,0,0,0,0,0,0,0,0,0,0],"split_type":[0,0,0,0,0,0,0,0,0,0,0,0,0,0,0,0,0,0,0,0,0,0,0,0,0],"sum_hessian":[3.4E2,1.18E2,2.22E2,3E0,1.15E2,1.08E2,1.14E2,1.6E1,9.9E1,1.01E2,7E0,3.5E1,7.9E1,1.1E1,5E0,3.5E1,6.4E1,9E1,1.1E1,2E0,5E0,1.5E1,2E1,6.5E1,1.4E1],"tree_param":{"num_deleted":"0","num_feature":"23","num_nodes":"25","size_leaf_vector":"1"}},{"base_weights":[-1.205209E-2,-1.7931436E-1,2.3951042E-1,-6.905662E-2,-1.4998542E-1,1.4042522E-1,4.1020906E-1,-7.044895E-1,-1.2179222E-1,8.386074E-2,5.1053333E-1,1.3490541E-1,4.8078063E-1,-4.4069216E-2,2.2189094E-2,-1.2101672E-2,-4.2035873E-4,-5.546794E-3,7.918852E-3,2.9782448E-2,2.8318407E-3,-8.313549E-3,1.2688606E-2,2.4779852E-2,-2.7968884E-3],"categories":[],"categories_nodes":[],"categories_segments":[],"categories_sizes":[],"default_left":[0,0,0,0,0,0,0,0,0,0,0,0,0,0,0,0,0,0,0,0,0,0,0,0,0],"id":27,"left_children":[1,3,5,-1,7,9,11,13,15,17,19,21,23,-1,-1,-1,-1,-1,-1,-1,-1,-1,-1,-1,-1],"loss_changes":[1.5064407E1,7.37118E0,2.3610563E0,0E0,3.2128134E0,1.8832037E0,9.454279E-1,2.4223747E0,2.7519429E0,1.1933268E0,4.298687E-1,4.7179294E-1,3.5376358E-1,0E0,0E0,0E0,0E0,0E0,0E0,0E0,0E0,0E0,0E0,0E0,0E0],"parents":[2147483647,0,0,1,1,2,2,4,4,5,5,6,6,7,7,8,8,9,9,10,10,11,11,12,12],"right_children":[2,4,6,-1,8,10,12,14,16,18,20,22,24,-1,-1,-1,-1,-1,-1,-1,-1,-1,-1,-1,-1],"split_conditions":[1.1E7,3E0,8E0,-6.905662E-2,2E0,4.5E7,1.53E3,7E0,5.4E6,8.6E1,1.12E2,1.45E7,2.02E0,-4.4069216E-2,2.2189094E-2,-1.2101672E-2,-4.2035873E-4,-5.546794E-3,7.918852E-3,2.9782448E-2,2.8318407E-3,-8.313549E-3,1.2688606E-2,2.4779852E-2,-2.7968884E-3],"split_indices":[15,18,18,0,0,15,1,19,15,9,5,15,7,0,0,0,0,0,0,0,0,0,0,0,0],"split_type":[0,0,0,0,0,0,0,0,0,0,0,0,0,0,0,0,0,0,0,0,0,0,0,0,0],"sum_hessian":[3.56E2,2.14E2,1.42E2,4E0,2.1E2,9.1E1,5.1E1,9E0,2.01E2,8E1,1.1E1,1.1E1,4E1,8E0,1E0,9.7E1,1.04E2,2.2E1,5.8E1,9E0,2E0,3E0,8E0,3.9E1,1E0],"tree_param":{"num_deleted":"0","num_feature":"23","num_nodes":"25","size_leaf_vector":"1"}},{"base_weights":[6.7229993E-3,-1.3314544E-1,2.3799215E-1,-2.16504E-1,4.2618793E-2,1.5400961E-1,4.0432867E-1,-6.7356455E-1,-1.7794392E-1,1.1648987E-1,-2.3600782E-1,-1.3556856E-2,2.5000396E-1,4.1923523E-2,4.404235E-1,-3.879295E-2,-7.107989E-3,-3.4344357E-2,-7.2501074E-3,2.83198E-2,4.0168385E-3,-3.1233732E-2,1.0396529E-3,-3.1487958E-3,1.3789253E-2,-7.343292E-4,1.781237E-2,-3.2521565E-3,6.745783E-3,2.2744205E-2,-2.726984E-3],"categories":[],"categories_nodes":[],"categories_segments":[],"categories_sizes":[],"default_left":[0,0,0,0,0,0,0,0,0,0,0,0,0,0,0,0,0,0,0,0,0,0,0,0,0,0,0,0,0,0,0],"id":28,"left_children":[1,3,5,7,9,11,13,15,17,19,21,23,25,27,29,-1,-1,-1,-1,-1,-1,-1,-1,-1,-1,-1,-1,-1,-1,-1,-1],"loss_changes":[1.11591425E1,3.1592894E0,1.753746E0,2.4532895E0,1.4682639E0,1.4189076E0,5.4401636E-1,4.8766136E-1,2.1805077E0,8.6536556E-1,1.5101384E0,4.8923498E-1,1.5800428E0,5.851064E-2,3.039503E-1,0E0,0E0,0E0,0E0,0E0,0E0,0E0,0E0,0E0,0E0,0E0,0E0,0E0,0E0,0E0,0E0],"parents":[2147483647,0,0,1,1,2,2,3,3,4,4,5,5,6,6,7,7,8,8,9,9,10,10,11,11,12,12,13,13,14,14],"right_children":[2,4,6,8,10,12,14,16,18,20,22,24,26,28,30,-1,-1,-1,-1,-1,-1,-1,-1,-1,-1,-1,-1,-1,-1,-1,-1],"split_conditions":[1.15E7,2.4E-1,3E7,2E6,2.8E1,7E0,8.17E1,1E0,2E0,1.9E1,3.6E-1,1E0,2.4E1,2.8E1,2.16E0,-3.879295E-2,-7.107989E-3,-3.4344357E-2,-7.2501074E-3,2.83198E-2,4.0168385E-3,-3.1233732E-2,1.0396529E-3,-3.1487958E-3,1.3789253E-2,-7.343292E-4,1.781237E-2,-3.2521565E-3,6.745783E-3,2.2744205E-2,-2.726984E-3],"split_indices":[15,4,15,15,16,18,9,2,0,16,4,2,0,5,7,0,0,0,0,0,0,0,0,0,0,0,0,0,0,0,0],"split_type":[0,0,0,0,0,0,0,0,0,0,0,0,0,0,0,0,0,0,0,0,0,0,0,0,0,0,0,0,0,0,0],"sum_hessian":[3.43E2,2.14E2,1.29E2,1.45E2,6.9E1,8.7E1,4.2E1,1E1,1.35E2,5.5E1,1.4E1,3.2E1,5.5E1,4E0,3.8E1,8E0,2E0,7E0,1.28E2,3E0,5.2E1,5E0,9E0,2.8E1,4E0,1.6E1,3.9E1,2E0,2E0,3.7E1,1E0],"tree_param":{"num_deleted":"0","num_feature":"23","num_nodes":"31","size_leaf_vector":"1"}},{"base_weights":[-1.1091965E-2,-2.1177913E-1,9.3550466E-2,-8.111888E-1,-1.6302724E-1,5.1653967E-3,2.476504E-1,-1.1303178E0,1.01920925E-2,-7.13986E-2,-4.3229157E-1,3.128778E-2,-3.6628896E-1,5.6672703E-2,3.597729E-1,-6.273167E-2,-9.61063E-3,-7.4465536E-3,8.968342E-3,-3.506398E-2,-1.3809149E-2,2.273283E-3,-3.20388E-2,1.0326815E-2,-2.6765615E-2,-3.6596816E-3,1.8134233E-2,1.4453818E-2,2.915605E-2],"categories":[],"categories_nodes":[],"categories_segments":[],"categories_sizes":[],"default_left":[0,0,0,0,0,0,0,0,0,0,0,0,0,0,0,0,0,0,0,0,0,0,0,0,0,0,0,0,0],"id":29,"left_children":[1,3,5,7,9,11,13,15,-1,17,19,21,23,25,27,-1,-1,-1,-1,-1,-1,-1,-1,-1,-1,-1,-1,-1,-1],"loss_changes":[7.5379524E0,3.4621034E0,3.2130723E0,3.1457381E0,2.806452E0,1.4766544E0,1.8211193E0,5.7519054E-1,0E0,1.7182077E0,1.0240669E0,1.382172E0,1.0787697E0,1.3379875E0,6.8409014E-1,0E0,0E0,0E0,0E0,0E0,0E0,0E0,0E0,0E0,0E0,0E0,0E0,0E0,0E0],"parents":[2147483647,0,0,1,1,2,2,3,3,4,4,5,5,6,6,7,7,9,9,10,10,11,11,12,12,13,13,14,14],"right_children":[2,4,6,8,10,12,14,16,-1,18,20,22,24,26,28,-1,-1,-1,-1,-1,-1,-1,-1,-1,-1,-1,-1,-1,-1],"split_conditions":[2.3E1,2E0,8E0,2.8E1,2.7E1,2.28E1,2.6E-1,8.68E1,1.01920925E-2,7E-1,1.2E1,3.4E1,3E-2,5E0,2.784E3,-6.273167E-2,-9.61063E-3,-7.4465536E-3,8.968342E-3,-3.506398E-2,-1.3809149E-2,2.273283E-3,-3.20388E-2,1.0326815E-2,-2.6765615E-2,-3.6596816E-3,1.8134233E-2,1.4453818E-2,2.915605E-2],"split_indices":[0,0,18,16,16,8,7,9,0,7,5,16,3,17,1,0,0,0,0,0,0,0,0,0,0,0,0,0,0],"split_type":[0,0,0,0,0,0,0,0,0,0,0,0,0,0,0,0,0,0,0,0,0,0,0,0,0,0,0,0,0],"sum_hessian":[3.57E2,1.22E2,2.35E2,8E0,1.14E2,1.5E2,8.5E1,6E0,2E0,8.6E1,2.8E1,1.41E2,9E0,3.2E1,5.3E1,5E0,1E0,6.6E1,2E1,9E0,1.9E1,1.39E2,2E0,2E0,7E0,2.3E1,9E0,4.2E1,1.1E1],"tree_param":{"num_deleted":"0","num_feature":"23","num_nodes":"29","size_leaf_vector":"1"}},{"base_weights":[-1.0717674E-2,-1.5724298E-1,2.2679573E-1,-6.747023E-2,-1.3475035E-1,2.8352165E-1,5.7639745E-3,-2.3741561E-1,4.3091916E-2,1.3609757E-1,3.775086E-1,7.1874864E-2,-2.9557768E-2,-4.5272373E-2,-1.0023548E-2,3.1409454E-2,2.2694786E-4,1.6214848E-4,1.0235182E-2,9.092953E-3,2.3560012E-2,7.4857534E-3,-8.595678E-3],"categories":[],"categories_nodes":[],"categories_segments":[],"categories_sizes":[],"default_left":[0,0,0,0,0,0,0,0,0,0,0,0,0,0,0,0,0,0,0,0,0,0,0],"id":30,"left_children":[1,3,5,-1,7,9,11,13,15,17,19,21,-1,-1,-1,-1,-1,-1,-1,-1,-1,-1,-1],"loss_changes":[1.249468E1,5.771068E0,1.7161031E0,0E0,4.0087824E0,1.4589186E0,1.1869125E0,3.2490325E0,1.8242841E0,4.0037996E-1,1.1241369E0,5.3810453E-1,0E0,0E0,0E0,0E0,0E0,0E0,0E0,0E0,0E0,0E0,0E0],"parents":[2147483647,0,0,1,1,2,2,4,4,5,5,6,6,7,7,8,8,9,9,10,10,11,11],"right_children":[2,4,6,-1,8,10,12,14,16,18,20,22,-1,-1,-1,-1,-1,-1,-1,-1,-1,-1,-1],"split_conditions":[1.15E7,2E0,2.7E1,-6.747023E-2,8E0,2.302E3,2.01E1,2E0,1.9E1,8.16E1,7E0,2.88E3,-2.9557768E-2,-4.5272373E-2,-1.0023548E-2,3.1409454E-2,2.2694786E-4,1.6214848E-4,1.0235182E-2,9.092953E-3,2.3560012E-2,7.4857534E-3,-8.595678E-3],"split_indices":[15,18,16,0,18,1,8,0,16,14,18,1,0,0,0,0,0,0,0,0,0,0,0],"split_type":[0,0,0,0,0,0,0,0,0,0,0,0,0,0,0,0,0,0,0,0,0,0,0],"sum_hessian":[3.57E2,2.21E2,1.36E2,3E0,2.18E2,1.08E2,2.8E1,1.38E2,8E1,4.3E1,6.5E1,2.6E1,2E0,6E0,1.32E2,4E0,7.6E1,1.5E1,2.8E1,2.2E1,4.3E1,2E1,6E0],"tree_param":{"num_deleted":"0","num_feature":"23","num_nodes":"23","size_leaf_vector":"1"}},{"base_weights":[-1.6958961E-2,-2.9691327E-1,1.034108E-1,-1.8014345E-1,-6.36226E-1,1.4187546E-2,2.8494856E-1,-2.4829093E-1,1.9541961E-1,-8.002085E-1,7.1080685E-2,-5.8903147E-2,2.8381038E-2,3.5637257E-1,1.421263E-1,-1.4572761E-2,8.782898E-3,-1.1242724E-2,1.2459016E-2,-1.2656619E-2,-6.1750542E-2,-1.9925738E-2,1.2235137E-2,3.8947102E-3,-1.4250057E-2,2.4449982E-2,1.028172E-2,1.4578104E-3,2.1751417E-2],"categories":[],"categories_nodes":[],"categories_segments":[],"categories_sizes":[],"default_left":[0,0,0,0,0,0,0,0,0,0,0,0,0,0,0,0,0,0,0,0,0,0,0,0,0,0,0,0,0],"id":31,"left_children":[1,3,5,7,9,11,13,15,17,19,21,-1,23,25,27,-1,-1,-1,-1,-1,-1,-1,-1,-1,-1,-1,-1,-1,-1],"loss_changes":[1.1993506E1,4.1248894E0,4.029108E0,2.1216087E0,3.1884985E0,2.8763642E0,7.858262E-1,1.3138585E0,3.497543E-1,4.920518E0,5.8671033E-1,0E0,2.6134624E0,9.7901106E-1,9.469022E-1,0E0,0E0,0E0,0E0,0E0,0E0,0E0,0E0,0E0,0E0,0E0,0E0,0E0,0E0],"parents":[2147483647,0,0,1,1,2,2,3,3,4,4,5,5,6,6,7,7,8,8,9,9,10,10,12,12,13,13,14,14],"right_children":[2,4,6,8,10,12,14,16,18,20,22,-1,24,26,28,-1,-1,-1,-1,-1,-1,-1,-1,-1,-1,-1,-1,-1,-1],"split_conditions":[5.4E6,2.8E1,2E7,1E0,2.534E3,5E0,6.02E1,6.44E1,3.14E2,1.087E3,2E0,-5.8903147E-2,1E-1,2.1E1,4.5E7,-1.4572761E-2,8.782898E-3,-1.1242724E-2,1.2459016E-2,-1.2656619E-2,-6.1750542E-2,-1.9925738E-2,1.2235137E-2,3.8947102E-3,-1.4250057E-2,2.4449982E-2,1.028172E-2,1.4578104E-3,2.1751417E-2],"split_indices":[15,16,15,2,1,1,11,11,1,1,19,0,13,5,15,0,0,0,0,0,0,0,0,0,0,0,0,0,0],"split_type":[0,0,0,0,0,0,0,0,0,0,0,0,0,0,0,0,0,0,0,0,0,0,0,0,0,0,0,0,0],"sum_hessian":[3.54E2,1.06E2,2.48E2,8E1,2.6E1,1.67E2,8.1E1,6.8E1,1.2E1,2.1E1,5E0,1E0,1.66E2,5.3E1,2.8E1,6.2E1,6E0,1E0,1.1E1,1E1,1.1E1,1E0,4E0,1.44E2,2.2E1,2.7E1,2.6E1,2.1E1,7E0],"tree_param":{"num_deleted":"0","num_feature":"23","num_nodes":"29","size_leaf_vector":"1"}},{"base_weights":[6.090903E-3,-1.0636638E-1,2.5344154E-1,-1.9492383E-1,4.8063E-2,1.3809486E-1,3.3418924E-1,-2.2500817E-1,2.3449572E-2,-2.2661617E-1,1.1606525E-1,-9.398333E-2,1.6796091E-1,4.3480742E-1,1.892942E-1,-3.1256E-2,-9.255386E-3,1.5785838E-2,-1.3854484E-2,3.86838E-2,4.3111932E-3,7.3480606E-4,-5.9329225E-3,4.4592987E-3,1.392801E-2,-3.622389E-3,2.4084803E-2,2.5182606E-3,1.7286133E-2],"categories":[],"categories_nodes":[],"categories_segments":[],"categories_sizes":[],"default_left":[0,0,0,0,0,0,0,0,0,0,0,0,0,0,0,0,0,0,0,0,0,0,0,0,0,0,0,0,0],"id":32,"left_children":[1,3,5,7,9,11,13,15,-1,17,19,21,23,25,27,-1,-1,-1,-1,-1,-1,-1,-1,-1,-1,-1,-1,-1,-1],"loss_changes":[9.790508E0,3.3189297E0,9.7838736E-1,3.1814384E0,1.6887157E0,3.4155476E-1,8.5075426E-1,2.2470527E0,0E0,5.802039E-1,1.3462198E0,1.7833889E-2,3.4107935E-1,9.149246E-1,5.9109604E-1,0E0,0E0,0E0,0E0,0E0,0E0,0E0,0E0,0E0,0E0,0E0,0E0,0E0,0E0],"parents":[2147483647,0,0,1,1,2,2,3,3,4,4,5,5,6,6,7,7,9,9,10,10,11,11,12,12,13,13,14,14],"right_children":[2,4,6,8,10,12,14,16,-1,18,20,22,24,26,28,-1,-1,-1,-1,-1,-1,-1,-1,-1,-1,-1,-1,-1,-1],"split_conditions":[1.5E7,8E0,2.302E3,3.066E3,1E0,4E0,2.3E1,2E6,2.3449572E-2,3E0,1.9E1,1.4E-1,3E7,1.32E1,3.8E7,-3.1256E-2,-9.255386E-3,1.5785838E-2,-1.3854484E-2,3.86838E-2,4.3111932E-3,7.3480606E-4,-5.9329225E-3,4.4592987E-3,1.392801E-2,-3.622389E-3,2.4084803E-2,2.5182606E-3,1.7286133E-2],"split_indices":[15,18,1,1,19,18,5,15,0,0,16,4,15,8,15,0,0,0,0,0,0,0,0,0,0,0,0,0,0],"split_type":[0,0,0,0,0,0,0,0,0,0,0,0,0,0,0,0,0,0,0,0,0,0,0,0,0,0,0,0,0],"sum_hessian":[3.5E2,2.41E2,1.09E2,1.53E2,8.8E1,4.6E1,6.3E1,1.47E2,6E0,1.7E1,7.1E1,5E0,4.1E1,3.6E1,2.7E1,1.2E1,1.35E2,1E0,1.6E1,2E0,6.9E1,1E0,4E0,2.5E1,1.6E1,3E0,3.3E1,1.5E1,1.2E1],"tree_param":{"num_deleted":"0","num_feature":"23","num_nodes":"29","size_leaf_vector":"1"}},{"base_weights":[2.4968496E-2,-1.6595875E-1,1.261844E-1,-3.2456684E-1,-8.061501E-2,4.953195E-2,2.4534349E-1,1.19355395E-1,-3.7443644E-1,-1.13848545E-1,4.406578E-1,8.373585E-2,-5.2529943E-1,1.3982803E-1,4.289233E-1,-2.168119E-3,1.9255662E-2,-4.004998E-2,-1.5749408E-2,-9.709458E-4,-1.3311003E-2,2.5084568E-2,4.9130917E-3,5.1100454E-3,-2.6865626E-2,-4.958054E-2,-1.0229691E-2,1.0759394E-2,1.2051046E-3,-3.1416893E-3,2.2340668E-2],"categories":[],"categories_nodes":[],"categories_segments":[],"categories_sizes":[],"default_left":[0,0,0,0,0,0,0,0,0,0,0,0,0,0,0,0,0,0,0,0,0,0,0,0,0,0,0,0,0,0,0],"id":33,"left_children":[1,3,5,7,9,11,13,15,17,19,21,23,25,27,29,-1,-1,-1,-1,-1,-1,-1,-1,-1,-1,-1,-1,-1,-1,-1,-1],"loss_changes":[6.7459974E0,1.611716E0,2.0703626E0,9.744959E-1,1.4360676E0,2.7965932E0,1.664E0,2.3291706E-1,7.1131563E-1,1.0883477E0,5.51911E-2,1.5801172E0,9.935119E-1,5.006366E-1,3.0959606E-1,0E0,0E0,0E0,0E0,0E0,0E0,0E0,0E0,0E0,0E0,0E0,0E0,0E0,0E0,0E0,0E0],"parents":[2147483647,0,0,1,1,2,2,3,3,4,4,5,5,6,6,7,7,8,8,9,9,10,10,11,11,12,12,13,13,14,14],"right_children":[2,4,6,8,10,12,14,16,18,20,22,24,26,28,30,-1,-1,-1,-1,-1,-1,-1,-1,-1,-1,-1,-1,-1,-1,-1,-1],"split_conditions":[7E6,1.158E3,1.8E7,1.1E1,7E0,2.28E1,8E0,8.65E1,0E0,1E-1,1.651E3,1.1E1,5E-2,3.4E1,9.3E0,-2.168119E-3,1.9255662E-2,-4.004998E-2,-1.5749408E-2,-9.709458E-4,-1.3311003E-2,2.5084568E-2,4.9130917E-3,5.1100454E-3,-2.6865626E-2,-4.958054E-2,-1.0229691E-2,1.0759394E-2,1.2051046E-3,-3.1416893E-3,2.2340668E-2],"split_indices":[15,1,15,10,17,8,18,9,13,3,1,18,3,0,8,0,0,0,0,0,0,0,0,0,0,0,0,0,0,0,0],"split_type":[0,0,0,0,0,0,0,0,0,0,0,0,0,0,0,0,0,0,0,0,0,0,0,0,0,0,0,0,0,0,0],"sum_hessian":[3.47E2,1.2E2,2.27E2,4.1E1,7.9E1,1.39E2,8.8E1,4E0,3.7E1,7.5E1,4E0,1.32E2,7E0,5.7E1,3.1E1,3E0,1E0,3E0,3.4E1,4.7E1,2.8E1,3E0,1E0,1.29E2,3E0,2E0,5E0,3.4E1,2.3E1,1E0,3E1],"tree_param":{"num_deleted":"0","num_feature":"23","num_nodes":"31","size_leaf_vector":"1"}},{"base_weights":[-1.1564249E-2,-2.2901534E-1,8.090065E-2,-1.260734E-1,-5.4103357E-1,3.5028625E-2,2.9632047E-1,-3.4002367E-1,4.6979602E-2,-3.0209878E-1,-9.3223995E-1,-1.9665858E-1,8.227161E-2,4.7228497E-2,3.287051E-1,-5.074026E-2,-1.3418808E-2,-3.1141592E-3,9.701225E-3,-3.781925E-2,-5.2067465E-3,1.6661882E-3,-7.102879E-2,-3.1690154E-2,-4.971679E-3,3.180176E-2,3.4088795E-3,-3.796037E-3,6.389165E-3,5.746937E-3,1.8318577E-2],"categories":[],"categories_nodes":[],"categories_segments":[],"categories_sizes":[],"default_left":[0,0,0,0,0,0,0,0,0,0,0,0,0,0,0,0,0,0,0,0,0,0,0,0,0,0,0,0,0,0,0],"id":34,"left_children":[1,3,5,7,9,11,13,15,17,19,21,23,25,27,29,-1,-1,-1,-1,-1,-1,-1,-1,-1,-1,-1,-1,-1,-1,-1,-1],"loss_changes":[6.8748755E0,3.2080054E0,2.361239E0,2.9039035E0,2.0551915E0,2.194353E0,3.2327914E-1,1.419776E0,7.1901196E-1,1.4500823E0,4.291013E0,1.3820255E0,1.2522262E0,6.922297E-2,2.5580668E-1,0E0,0E0,0E0,0E0,0E0,0E0,0E0,0E0,0E0,0E0,0E0,0E0,0E0,0E0,0E0,0E0],"parents":[2147483647,0,0,1,1,2,2,3,3,4,4,5,5,6,6,7,7,8,8,9,9,10,10,11,11,12,12,13,13,14,14],"right_children":[2,4,6,8,10,12,14,16,18,20,22,24,26,28,30,-1,-1,-1,-1,-1,-1,-1,-1,-1,-1,-1,-1,-1,-1,-1,-1],"split_conditions":[5.4E6,2.8E1,3E7,2.2E1,4E-2,8.66E1,6.97E1,8.6E1,2E-1,2E6,8.5E2,1.6E-1,1.9E1,4.3E-1,1.746E3,-5.074026E-2,-1.3418808E-2,-3.1141592E-3,9.701225E-3,-3.781925E-2,-5.2067465E-3,1.6661882E-3,-7.102879E-2,-3.1690154E-2,-4.971679E-3,3.180176E-2,3.4088795E-3,-3.796037E-3,6.389165E-3,5.746937E-3,1.8318577E-2],"split_indices":[15,16,15,0,3,9,14,9,4,15,1,7,16,4,1,0,0,0,0,0,0,0,0,0,0,0,0,0,0,0,0],"split_type":[0,0,0,0,0,0,0,0,0,0,0,0,0,0,0,0,0,0,0,0,0,0,0,0,0,0,0,0,0,0,0],"sum_hessian":[3.4E2,1.01E2,2.39E2,7.7E1,2.4E1,1.98E2,4.1E1,3.4E1,4.3E1,1.6E1,8E0,3.3E1,1.65E2,5E0,3.6E1,2E0,3.2E1,2.5E1,1.8E1,4E0,1.2E1,3E0,5E0,5E0,2.8E1,3E0,1.62E2,2E0,3E0,6E0,3E1],"tree_param":{"num_deleted":"0","num_feature":"23","num_nodes":"31","size_leaf_vector":"1"}},{"base_weights":[-1.1238773E-2,-1.1464397E-1,1.5715975E-1,-6.6603E-2,-9.759921E-2,1.8252623E-1,-1.8324718E-1,-3.8101006E-1,-5.9505936E-2,1.6994832E-1,3.249779E-2,1.0918209E-3,-2.3001432E-2,-4.966087E-3,-3.506848E-2,-2.235811E-3,-3.7911665E-2,-1.8655514E-2,8.863884E-3,3.1123925E-3,-5.0599417E-3],"categories":[],"categories_nodes":[],"categories_segments":[],"categories_sizes":[],"default_left":[0,0,0,0,0,0,0,0,0,0,0,0,0,0,0,0,0,0,0,0,0],"id":35,"left_children":[1,3,5,-1,7,9,11,13,15,17,-1,19,-1,-1,-1,-1,-1,-1,-1,-1,-1],"loss_changes":[6.2693853E0,4.497367E0,1.2164323E0,0E0,2.3632536E0,6.420889E-1,5.1071846E-1,2.2766187E0,1.9915547E0,5.676575E-1,0E0,5.008924E-2,0E0,0E0,0E0,0E0,0E0,0E0,0E0,0E0,0E0],"parents":[2147483647,0,0,1,1,2,2,4,4,5,5,6,6,7,7,8,8,9,9,11,11],"right_children":[2,4,6,-1,8,10,12,14,16,18,-1,20,-1,-1,-1,-1,-1,-1,-1,-1,-1],"split_conditions":[1.15E7,2E0,9.77E1,-6.6603E-2,5.29E1,5.9E-1,5E-2,2.5E1,3.2E1,7E1,3.249779E-2,7E-1,-2.3001432E-2,-4.966087E-3,-3.506848E-2,-2.235811E-3,-3.7911665E-2,-1.8655514E-2,8.863884E-3,3.1123925E-3,-5.0599417E-3],"split_indices":[15,18,14,0,11,3,3,16,16,9,0,13,0,0,0,0,0,0,0,0,0],"split_type":[0,0,0,0,0,0,0,0,0,0,0,0,0,0,0,0,0,0,0,0,0],"sum_hessian":[3.58E2,2.22E2,1.36E2,2E0,2.2E2,1.27E2,9E0,2.5E1,1.95E2,1.25E2,2E0,6E0,3E0,1.4E1,1.1E1,1.92E2,3E0,1E0,1.24E2,4E0,2E0],"tree_param":{"num_deleted":"0","num_feature":"23","num_nodes":"21","size_leaf_vector":"1"}},{"base_weights":[6.0937647E-3,-8.784193E-2,2.0816883E-1,2.0920884E-2,-2.0139062E-1,2.5335956E-1,2.7761006E-4,-9.5696133E-1,4.4795685E-2,-9.329338E-1,-1.6076541E-1,1.386201E-1,3.2802758E-1,8.4078394E-2,-2.8470057E-1,-5.7356264E-2,-1.4415837E-2,4.5165457E-3,-9.597526E-3,-5.191263E-2,-1.0158491E-2,-1.0149219E-2,1.2458636E-2,-4.7242404E-3,8.84011E-3,1.7416563E-2,-7.0006526E-3,-9.964394E-3,5.7122144E-3,4.4358256E-3,-2.0011699E-2],"categories":[],"categories_nodes":[],"categories_segments":[],"categories_sizes":[],"default_left":[0,0,0,0,0,0,0,0,0,0,0,0,0,0,0,0,0,0,0,0,0,0,0,0,0,0,0,0,0,0,0],"id":36,"left_children":[1,3,5,7,9,11,13,15,17,19,21,23,25,27,29,-1,-1,-1,-1,-1,-1,-1,-1,-1,-1,-1,-1,-1,-1,-1,-1],"loss_changes":[6.699972E0,2.9805331E0,1.0521421E0,2.937864E0,3.3568707E0,7.427263E-1,5.254465E-1,5.072069E-2,1.3325346E0,2.5020504E-1,2.006288E0,3.5492176E-1,5.7143307E-1,1.680834E-1,2.512181E-1,0E0,0E0,0E0,0E0,0E0,0E0,0E0,0E0,0E0,0E0,0E0,0E0,0E0,0E0,0E0,0E0],"parents":[2147483647,0,0,1,1,2,2,3,3,4,4,5,5,6,6,7,7,8,8,9,9,10,10,11,11,12,12,13,13,14,14],"right_children":[2,4,6,8,10,12,14,16,18,20,22,24,26,28,30,-1,-1,-1,-1,-1,-1,-1,-1,-1,-1,-1,-1,-1,-1,-1,-1],"split_conditions":[1.5E7,2.5E1,2.7E1,1.2E1,0E0,2.211E3,1E0,5E0,3.58E1,2.534E3,3.082E3,1.42E1,6E0,6.86E2,3E-2,-5.7356264E-2,-1.4415837E-2,4.5165457E-3,-9.597526E-3,-5.191263E-2,-1.0158491E-2,-1.0149219E-2,1.2458636E-2,-4.7242404E-3,8.84011E-3,1.7416563E-2,-7.0006526E-3,-9.964394E-3,5.7122144E-3,4.4358256E-3,-2.0011699E-2],"split_indices":[15,16,16,1,13,1,22,1,6,1,1,8,19,1,3,0,0,0,0,0,0,0,0,0,0,0,0,0,0,0,0],"split_type":[0,0,0,0,0,0,0,0,0,0,0,0,0,0,0,0,0,0,0,0,0,0,0,0,0,0,0,0,0,0,0],"sum_hessian":[3.51E2,2.4E2,1.11E2,1.23E2,1.17E2,9.1E1,2E1,2E0,1.21E2,5E0,1.12E2,3.7E1,5.4E1,1.6E1,4E0,1E0,1E0,1.02E2,1.9E1,4E0,1E0,1.02E2,1E1,5E0,3.2E1,5.2E1,2E0,1E0,1.5E1,1E0,3E0],"tree_param":{"num_deleted":"0","num_feature":"23","num_nodes":"31","size_leaf_vector":"1"}},{"base_weights":[2.2555454E-2,-1.5085497E-1,1.0878768E-1,-7.286997E-2,-3.7960812E-1,-3.5494123E-2,1.1903756E-1,2.8257313E-1,-1.17505364E-1,-4.7230685E-1,1.598072E-1,6.823123E-2,2.4895652E-1,-9.286261E-3,1.776212E-2,-7.852204E-3,1.9156663E-2,-2.5836015E-2,1.4840389E-2,1.822089E-2,-1.6465878E-2,5.732562E-3,-1.2041012E-2,9.304098E-3,1.9964902E-2],"categories":[],"categories_nodes":[],"categories_segments":[],"categories_sizes":[],"default_left":[0,0,0,0,0,0,0,0,0,0,0,0,0,0,0,0,0,0,0,0,0,0,0,0,0],"id":37,"left_children":[1,3,5,7,9,-1,11,13,15,17,19,21,23,-1,-1,-1,-1,-1,-1,-1,-1,-1,-1,-1,-1],"loss_changes":[5.175392E0,2.0238593E0,2.0228863E0,1.4134887E0,1.525569E0,0E0,1.494575E0,4.0628648E-1,1.6041484E0,1.0073419E0,6.204097E-1,2.4090748E0,5.306678E-1,0E0,0E0,0E0,0E0,0E0,0E0,0E0,0E0,0E0,0E0,0E0,0E0],"parents":[2147483647,0,0,1,1,2,2,3,3,4,4,6,6,7,7,8,8,9,9,10,10,11,11,12,12],"right_children":[2,4,6,8,10,-1,12,14,16,18,20,22,24,-1,-1,-1,-1,-1,-1,-1,-1,-1,-1,-1,-1],"split_conditions":[7E6,2.8E1,2E0,2.1E1,3.5E1,-3.5494123E-2,2.5E7,1E6,7E0,1.9E-1,8.68E1,2E0,2.746E3,-9.286261E-3,1.776212E-2,-7.852204E-3,1.9156663E-2,-2.5836015E-2,1.4840389E-2,1.822089E-2,-1.6465878E-2,5.732562E-3,-1.2041012E-2,9.304098E-3,1.9964902E-2],"split_indices":[15,16,0,16,0,0,15,15,19,3,9,12,1,0,0,0,0,0,0,0,0,0,0,0,0],"split_type":[0,0,0,0,0,0,0,0,0,0,0,0,0,0,0,0,0,0,0,0,0,0,0,0,0],"sum_hessian":[3.44E2,1.14E2,2.3E2,8.6E1,2.8E1,2E0,2.28E2,9E0,7.7E1,2.4E1,4E0,1.65E2,6.3E1,1E0,8E0,7.2E1,5E0,2.3E1,1E0,3E0,1E0,1.44E2,2.1E1,4.6E1,1.7E1],"tree_param":{"num_deleted":"0","num_feature":"23","num_nodes":"25","size_leaf_vector":"1"}},{"base_weights":[-2.238052E-2,-1.1982874E-1,1.4700538E-1,-6.3165285E-2,-1.0383658E-1,-2.3689438E-2,2.0592849E-1,-1.7295383E-1,1.6277686E-2,-1.9150482E-1,1.3611895E-1,-1.1672771E-1,2.326175E-1,-1.16046695E-2,3.1725194E-3,4.5704055E-3,-7.4528693E-3,-1.23805655E-2,7.6431273E-3,8.205934E-6,1.5302098E-2,3.088541E-3,-1.5533447E-2,2.9598495E-3,1.460775E-2],"categories":[],"categories_nodes":[],"categories_segments":[],"categories_sizes":[],"default_left":[0,0,0,0,0,0,0,0,0,0,0,0,0,0,0,0,0,0,0,0,0,0,0,0,0],"id":38,"left_children":[1,3,5,-1,7,9,11,13,15,17,19,21,23,-1,-1,-1,-1,-1,-1,-1,-1,-1,-1,-1,-1],"loss_changes":[5.8278522E0,3.965036E0,1.3023436E0,0E0,1.8458524E0,9.378897E-1,8.5384464E-1,1.9860244E0,1.032204E0,3.6631167E-1,4.1578317E-1,2.9613608E-1,9.016328E-1,0E0,0E0,0E0,0E0,0E0,0E0,0E0,0E0,0E0,0E0,0E0,0E0],"parents":[2147483647,0,0,1,1,2,2,4,4,5,5,6,6,7,7,8,8,9,9,10,10,11,11,12,12],"right_children":[2,4,6,-1,8,10,12,14,16,18,20,22,24,-1,-1,-1,-1,-1,-1,-1,-1,-1,-1,-1,-1],"split_conditions":[1.15E7,2E0,6E0,-6.3165285E-2,8E0,2.5E7,7.55E1,7.6E-1,2.466E3,3.8E-1,2.259E3,2.83E3,1.759E3,-1.16046695E-2,3.1725194E-3,4.5704055E-3,-7.4528693E-3,-1.23805655E-2,7.6431273E-3,8.205934E-6,1.5302098E-2,3.088541E-3,-1.5533447E-2,2.9598495E-3,1.460775E-2],"split_indices":[15,18,18,0,18,15,14,7,1,4,1,1,1,0,0,0,0,0,0,0,0,0,0,0,0],"split_type":[0,0,0,0,0,0,0,0,0,0,0,0,0,0,0,0,0,0,0,0,0,0,0,0,0],"sum_hessian":[3.51E2,2.23E2,1.28E2,2E0,2.21E2,3.3E1,9.5E1,1.4E2,8.1E1,1.6E1,1.7E1,7E0,8.8E1,1.12E2,2.8E1,5.6E1,2.5E1,1.4E1,2E0,1E1,7E0,4E0,3E0,2.3E1,6.5E1],"tree_param":{"num_deleted":"0","num_feature":"23","num_nodes":"25","size_leaf_vector":"1"}},{"base_weights":[-5.556934E-4,-6.8224184E-2,1.8496867E-1,-5.677711E-2,-7.12466E-2,5.2026358E-2,2.830036E-1,-1.5981084E-1,2.0167787E-2,1.3734624E-1,-1.10141E-1,3.6851892E-1,1.0575226E-1,-4.176774E-3,-1.7258612E-2,-1.5561051E-2,2.1304847E-3,-1.1151838E-2,8.833568E-3,-1.5731191E-2,1.0747003E-2,-5.939865E-3,1.93443E-2,1.3776997E-2,-1.05162464E-4],"categories":[],"categories_nodes":[],"categories_segments":[],"categories_sizes":[],"default_left":[0,0,0,0,0,0,0,0,0,0,0,0,0,0,0,0,0,0,0,0,0,0,0,0,0],"id":39,"left_children":[1,3,5,7,-1,9,11,13,15,17,19,21,23,-1,-1,-1,-1,-1,-1,-1,-1,-1,-1,-1,-1],"loss_changes":[4.1805987E0,3.7084997E0,1.1452124E0,1.9297076E0,0E0,5.547353E-1,7.3407125E-1,1.441571E0,1.0544405E0,4.0787888E-1,9.982542E-1,3.5028028E-1,3.302052E-1,0E0,0E0,0E0,0E0,0E0,0E0,0E0,0E0,0E0,0E0,0E0,0E0],"parents":[2147483647,0,0,1,1,2,2,3,3,5,5,6,6,7,7,8,8,9,9,10,10,11,11,12,12],"right_children":[2,4,6,8,-1,10,12,14,16,18,20,22,24,-1,-1,-1,-1,-1,-1,-1,-1,-1,-1,-1,-1],"split_conditions":[7.6E-1,5.9E-1,2E0,2.5E1,-7.12466E-2,1.24E0,2.1E1,7E-2,7.29E1,2.4E-1,2.307E3,3E-2,6E0,-4.176774E-3,-1.7258612E-2,-1.5561051E-2,2.1304847E-3,-1.1151838E-2,8.833568E-3,-1.5731191E-2,1.0747003E-2,-5.939865E-3,1.93443E-2,1.3776997E-2,-1.05162464E-4],"split_indices":[7,4,19,0,0,7,5,3,14,4,1,4,18,0,0,0,0,0,0,0,0,0,0,0,0],"split_type":[0,0,0,0,0,0,0,0,0,0,0,0,0,0,0,0,0,0,0,0,0,0,0,0,0],"sum_hessian":[3.31E2,2.43E2,8.8E1,2.42E2,1E0,3.8E1,5E1,1.03E2,1.39E2,2.5E1,1.3E1,3.3E1,1.7E1,7.4E1,2.9E1,8E0,1.31E2,2E0,2.3E1,8E0,5E0,1E0,3.2E1,6E0,1.1E1],"tree_param":{"num_deleted":"0","num_feature":"23","num_nodes":"25","size_leaf_vector":"1"}},{"base_weights":[1.609794E-3,-1.3003567E-1,1.4191689E-1,-5.309558E-2,-1.02510296E-1,1.46260075E-2,1.9465101E-1,-1.9736862E-1,5.192566E-2,-8.5427664E-2,1.5686335E-1,2.2500755E-1,-1.2934923E-2,-1.8804742E-2,-2.934962E-3,-8.390269E-3,5.1458995E-3,-8.543147E-3,5.126457E-3,3.9480436E-3,1.9517956E-2,-2.0652567E-3,1.2095316E-2,-1.1867455E-2,7.2724246E-3],"categories":[],"categories_nodes":[],"categories_segments":[],"categories_sizes":[],"default_left":[0,0,0,0,0,0,0,0,0,0,0,0,0,0,0,0,0,0,0,0,0,0,0,0,0],"id":40,"left_children":[1,3,5,-1,7,9,11,13,15,17,19,21,23,-1,-1,-1,-1,-1,-1,-1,-1,-1,-1,-1,-1],"loss_changes":[6.3724065E0,4.4568844E0,1.1181531E0,0E0,2.5592675E0,7.2496885E-1,7.4649763E-1,2.65458E0,7.679782E-1,4.992626E-1,3.5116482E-1,4.7352934E-1,6.032178E-1,0E0,0E0,0E0,0E0,0E0,0E0,0E0,0E0,0E0,0E0,0E0,0E0],"parents":[2147483647,0,0,1,1,2,2,4,4,5,5,6,6,7,7,8,8,9,9,10,10,11,11,12,12],"right_children":[2,4,6,-1,8,10,12,14,16,18,20,22,24,-1,-1,-1,-1,-1,-1,-1,-1,-1,-1,-1,-1],"split_conditions":[9E6,3E0,6E0,-5.309558E-2,8E0,2.3E-1,5E0,7E-2,1E1,2.5E7,7.48E1,7.43E1,1.4E7,-1.8804742E-2,-2.934962E-3,-8.390269E-3,5.1458995E-3,-8.543147E-3,5.126457E-3,3.9480436E-3,1.9517956E-2,-2.0652567E-3,1.2095316E-2,-1.1867455E-2,7.2724246E-3],"split_indices":[15,18,18,0,18,4,19,4,0,15,11,14,15,0,0,0,0,0,0,0,0,0,0,0,0],"split_type":[0,0,0,0,0,0,0,0,0,0,0,0,0,0,0,0,0,0,0,0,0,0,0,0,0],"sum_hessian":[3.43E2,1.77E2,1.66E2,4E0,1.73E2,4.9E1,1.17E2,1.07E2,6.6E1,2.9E1,2E1,1.02E2,1.5E1,4.6E1,6.1E1,1.2E1,5.4E1,2E1,9E0,1.6E1,4E0,6E0,9.6E1,6E0,9E0],"tree_param":{"num_deleted":"0","num_feature":"23","num_nodes":"25","size_leaf_vector":"1"}},{"base_weights":[-8.275916E-3,-2.2321354E-1,5.1629122E-2,-5.8137972E-2,-1.8318918E-1,-1.0309699E-2,1.7831181E-1,-4.9350527E-1,-1.17293894E-1,-2.3378149E-1,2.0529587E-2,-1.9265532E-1,1.9298099E-1,-1.1923528E-2,-3.7565034E-2,1.8525144E-2,-8.707181E-3,1.5396731E-4,-2.7100427E-2,-6.238542E-3,3.923934E-3,-1.4339447E-3,-1.1887725E-2,6.641873E-3,1.4798025E-2],"categories":[],"categories_nodes":[],"categories_segments":[],"categories_sizes":[],"default_left":[0,0,0,0,0,0,0,0,0,0,0,0,0,0,0,0,0,0,0,0,0,0,0,0,0],"id":41,"left_children":[1,3,5,-1,7,9,11,13,15,17,19,21,23,-1,-1,-1,-1,-1,-1,-1,-1,-1,-1,-1,-1],"loss_changes":[4.6082015E0,2.7201636E0,2.1988797E0,0E0,1.4961905E0,1.3073326E0,5.378227E-1,6.75545E-1,1.8393116E0,1.6808281E0,1.4159365E0,2.2762269E-2,5.119114E-1,0E0,0E0,0E0,0E0,0E0,0E0,0E0,0E0,0E0,0E0,0E0,0E0],"parents":[2147483647,0,0,1,1,2,2,4,4,5,5,6,6,7,7,8,8,9,9,10,10,11,11,12,12],"right_children":[2,4,6,-1,8,10,12,14,16,18,20,22,24,-1,-1,-1,-1,-1,-1,-1,-1,-1,-1,-1,-1],"split_conditions":[5E6,2E0,7.6E-1,-5.8137972E-2,2E6,5.2E1,5.33E1,1.2E6,6E0,4.73E1,1.158E3,1.4E1,3.3E1,-1.1923528E-2,-3.7565034E-2,1.8525144E-2,-8.707181E-3,1.5396731E-4,-2.7100427E-2,-6.238542E-3,3.923934E-3,-1.4339447E-3,-1.1887725E-2,6.641873E-3,1.4798025E-2],"split_indices":[15,18,7,0,15,11,14,15,18,11,1,0,0,0,0,0,0,0,0,0,0,0,0,0,0],"split_type":[0,0,0,0,0,0,0,0,0,0,0,0,0,0,0,0,0,0,0,0,0,0,0,0,0],"sum_hessian":[3.56E2,7.7E1,2.79E2,2E0,7.5E1,1.88E2,9.1E1,1.2E1,6.3E1,2.2E1,1.66E2,3E0,8.8E1,7E0,5E0,6E0,5.7E1,1.3E1,9E0,4.7E1,1.19E2,1E0,2E0,5.7E1,3.1E1],"tree_param":{"num_deleted":"0","num_feature":"23","num_nodes":"25","size_leaf_vector":"1"}},{"base_weights":[-1.5110573E-2,-1.1915128E-1,1.0240385E-1,-1.0052447E0,-9.9869564E-2,1.5161222E-1,-6.803505E-2,-2.2559913E-2,-6.66846E-2,4.496193E-1,-1.2023126E-1,-2.716945E-1,1.7027026E-1,1.299991E-2,-4.4033772E-1,-2.4245582E-3,3.2928087E-2,-7.2194817E-3,1.3642016E-2,-1.828312E-2,4.953623E-3,2.00389E-2,7.148482E-3,9.159722E-3,-2.9228071E-3,-3.0561E-2,-4.377365E-4],"categories":[],"categories_nodes":[],"categories_segments":[],"categories_sizes":[],"default_left":[0,0,0,0,0,0,0,0,0,0,0,0,0,0,0,0,0,0,0,0,0,0,0,0,0,0,0],"id":42,"left_children":[1,3,5,7,9,11,13,-1,-1,15,17,19,21,23,25,-1,-1,-1,-1,-1,-1,-1,-1,-1,-1,-1,-1],"loss_changes":[4.4503427E0,3.1970885E0,1.4444956E0,1.261406E-1,2.1798782E0,1.0967047E0,1.1823361E0,0E0,0E0,7.604691E-1,1.7866535E0,2.452682E-1,7.482052E-1,4.1203603E-1,5.108981E-1,0E0,0E0,0E0,0E0,0E0,0E0,0E0,0E0,0E0,0E0,0E0,0E0],"parents":[2147483647,0,0,1,1,2,2,3,3,4,4,5,5,6,6,9,9,10,10,11,11,12,12,13,13,14,14],"right_children":[2,4,6,8,10,12,14,-1,-1,16,18,20,22,24,26,-1,-1,-1,-1,-1,-1,-1,-1,-1,-1,-1,-1],"split_conditions":[9E6,2E0,2.7E1,9E-2,1.9E1,7.96E1,1.24E2,-2.2559913E-2,-6.66846E-2,6E0,7E0,1.8E-1,3E-2,3E0,4E0,-2.4245582E-3,3.2928087E-2,-7.2194817E-3,1.3642016E-2,-1.828312E-2,4.953623E-3,2.00389E-2,7.148482E-3,9.159722E-3,-2.9228071E-3,-3.0561E-2,-4.377365E-4],"split_indices":[15,18,16,3,16,9,10,0,0,0,19,3,4,19,19,0,0,0,0,0,0,0,0,0,0,0,0],"split_type":[0,0,0,0,0,0,0,0,0,0,0,0,0,0,0,0,0,0,0,0,0,0,0,0,0,0,0],"sum_hessian":[3.62E2,1.92E2,1.7E2,3E0,1.89E2,1.32E2,3.8E1,2E0,1E0,6E0,1.83E2,5E0,1.27E2,3.2E1,6E0,2E0,4E0,1.73E2,1E1,4E0,1E0,1.2E1,1.15E2,9E0,2.3E1,4E0,2E0],"tree_param":{"num_deleted":"0","num_feature":"23","num_nodes":"27","size_leaf_vector":"1"}},{"base_weights":[-3.123812E-3,-1.1741931E-1,1.1807577E-1,-2.1288358E-1,6.60442E-2,1.5913594E-1,-5.2231442E-2,-1.0942526E0,-1.8782225E-1,5.42717E-1,2.3072125E-2,-6.152463E-2,1.7937002E-1,7.450235E-3,-3.879389E-1,-6.5017484E-2,-1.7051458E-2,-1.523754E-2,-2.612906E-3,8.98037E-3,3.6246046E-2,6.5634786E-3,-5.100455E-3,1.2321472E-3,-1.6412085E-2,-6.7202887E-4,1.0212899E-2,7.3417607E-3,-2.178693E-3,-3.1905096E-2,-4.231453E-4],"categories":[],"categories_nodes":[],"categories_segments":[],"categories_sizes":[],"default_left":[0,0,0,0,0,0,0,0,0,0,0,0,0,0,0,0,0,0,0,0,0,0,0,0,0,0,0,0,0,0,0],"id":43,"left_children":[1,3,5,7,9,11,13,15,17,19,21,23,25,27,29,-1,-1,-1,-1,-1,-1,-1,-1,-1,-1,-1,-1,-1,-1,-1,-1],"loss_changes":[4.73759E0,3.0965605E0,1.1691239E0,2.3567142E0,1.236979E0,6.093273E-1,6.640645E-1,2.2254467E-2,1.7911239E0,2.0059884E-1,7.8479856E-1,2.838772E-1,5.9298086E-1,2.1264593E-1,4.6925402E-1,0E0,0E0,0E0,0E0,0E0,0E0,0E0,0E0,0E0,0E0,0E0,0E0,0E0,0E0,0E0,0E0],"parents":[2147483647,0,0,1,1,2,2,3,3,4,4,5,5,6,6,7,7,8,8,9,9,10,10,11,11,12,12,13,13,14,14],"right_children":[2,4,6,8,10,12,14,16,18,20,22,24,26,28,30,-1,-1,-1,-1,-1,-1,-1,-1,-1,-1,-1,-1,-1,-1,-1,-1],"split_conditions":[8.5E6,8E0,2.7E1,2E0,1.9E1,8.16E1,1.24E2,2.5E1,1.69E3,1.304E3,5E-2,2.83E3,4E0,2E0,3E1,-6.5017484E-2,-1.7051458E-2,-1.523754E-2,-2.612906E-3,8.98037E-3,3.6246046E-2,6.5634786E-3,-5.100455E-3,1.2321472E-3,-1.6412085E-2,-6.7202887E-4,1.0212899E-2,7.3417607E-3,-2.178693E-3,-3.1905096E-2,-4.231453E-4],"split_indices":[15,18,16,18,16,9,10,0,1,1,3,1,18,19,0,0,0,0,0,0,0,0,0,0,0,0,0,0,0,0,0],"split_type":[0,0,0,0,0,0,0,0,0,0,0,0,0,0,0,0,0,0,0,0,0,0,0,0,0,0,0,0,0,0,0],"sum_hessian":[3.4E2,1.75E2,1.65E2,1.15E2,6E1,1.33E2,3.2E1,2E0,1.13E2,4E0,5.6E1,1.1E1,1.22E2,2.8E1,4E0,1E0,1E0,6E1,5.3E1,2E0,2E0,3E1,2.6E1,9E0,2E0,1.4E1,1.08E2,7E0,2.1E1,2E0,2E0],"tree_param":{"num_deleted":"0","num_feature":"23","num_nodes":"31","size_leaf_vector":"1"}},{"base_weights":[1.0240723E-2,-1.3128449E-1,1.0107192E-1,-3.1723905E-1,-6.5430015E-2,-9.887359E-3,1.591095E-1,-2.1325827E-2,-5.497323E-1,-1.1409113E-1,1.5718E-1,2.1533608E-1,-5.476726E-2,2.2205178E-1,1.0922083E-2,-2.1815794E-2,1.0348554E-2,-9.950837E-3,-3.303862E-2,2.55483E-2,-6.819164E-3,-1.291995E-2,1.47186965E-2,1.3834435E-2,3.7052345E-3,-1.2347928E-2,1.3479289E-3,1.3064692E-2,-2.1277943E-3,-3.319651E-3,1.286191E-2],"categories":[],"categories_nodes":[],"categories_segments":[],"categories_sizes":[],"default_left":[0,0,0,0,0,0,0,0,0,0,0,0,0,0,0,0,0,0,0,0,0,0,0,0,0,0,0,0,0,0,0],"id":44,"left_children":[1,3,5,7,9,11,13,15,17,19,21,23,25,27,29,-1,-1,-1,-1,-1,-1,-1,-1,-1,-1,-1,-1,-1,-1,-1,-1],"loss_changes":[4.306807E0,1.583461E0,1.315294E0,2.3274026E0,1.0795131E0,7.294617E-1,1.247427E0,1.6061598E0,6.084218E-1,1.1983306E0,1.1023345E0,8.347505E-2,9.4907737E-1,9.871917E-1,7.9788095E-1,0E0,0E0,0E0,0E0,0E0,0E0,0E0,0E0,0E0,0E0,0E0,0E0,0E0,0E0,0E0,0E0],"parents":[2147483647,0,0,1,1,2,2,3,3,4,4,5,5,6,6,7,7,8,8,9,9,10,10,11,11,12,12,13,13,14,14],"right_children":[2,4,6,8,10,12,14,16,18,20,22,24,26,28,30,-1,-1,-1,-1,-1,-1,-1,-1,-1,-1,-1,-1,-1,-1,-1,-1],"split_conditions":[7E6,1.9E1,1.759E3,1E0,1E0,7E0,3.2E1,4E0,3E0,2E0,6E-2,9.13E1,1.6E-1,1E-1,4.5E7,-2.1815794E-2,1.0348554E-2,-9.950837E-3,-3.303862E-2,2.55483E-2,-6.819164E-3,-1.291995E-2,1.47186965E-2,1.3834435E-2,3.7052345E-3,-1.2347928E-2,1.3479289E-3,1.3064692E-2,-2.1277943E-3,-3.319651E-3,1.286191E-2],"split_indices":[15,5,1,12,2,5,5,0,17,0,7,14,4,13,15,0,0,0,0,0,0,0,0,0,0,0,0,0,0,0,0],"split_type":[0,0,0,0,0,0,0,0,0,0,0,0,0,0,0,0,0,0,0,0,0,0,0,0,0,0,0,0,0,0,0],"sum_hessian":[3.33E2,1.3E2,2.03E2,3.3E1,9.7E1,7E1,1.33E2,1.5E1,1.8E1,8E1,1.7E1,1.1E1,5.9E1,9.3E1,4E1,5E0,1E1,5E0,1.3E1,2E0,7.8E1,4E0,1.3E1,7E0,4E0,1.7E1,4.2E1,8.1E1,1.2E1,3.1E1,9E0],"tree_param":{"num_deleted":"0","num_feature":"23","num_nodes":"31","size_leaf_vector":"1"}},{"base_weights":[-1.0908149E-3,-5.136179E-2,1.7654786E-1,-2.4288049E-2,-5.009717E-1,1.9639383E-1,-1.124084E-2,-1.6031848E-1,1.5599246E-2,-3.245688E-1,-5.491967E-2,1.5228081E-1,3.682706E-1,-1.2524189E-2,6.7254785E-3,1.819285E-3,-2.0901516E-2,-2.884612E-2,-7.4154586E-3,6.2518464E-3,2.4781251E-2,2.0798486E-2,2.735869E-3],"categories":[],"categories_nodes":[],"categories_segments":[],"categories_sizes":[],"default_left":[0,0,0,0,0,0,0,0,0,0,0,0,0,0,0,0,0,0,0,0,0,0,0],"id":45,"left_children":[1,3,5,7,9,11,-1,13,15,17,-1,19,21,-1,-1,-1,-1,-1,-1,-1,-1,-1,-1],"loss_changes":[3.0363612E0,3.2135773E0,6.415634E-1,1.3643982E0,1.2242997E0,4.8982358E-1,0E0,1.5489384E0,1.7728662E0,4.9267387E-1,0E0,4.899162E-1,1.866262E-1,0E0,0E0,0E0,0E0,0E0,0E0,0E0,0E0,0E0,0E0],"parents":[2147483647,0,0,1,1,2,2,3,3,4,4,5,5,7,7,8,8,9,9,11,11,12,12],"right_children":[2,4,6,8,10,12,-1,14,16,18,-1,20,22,-1,-1,-1,-1,-1,-1,-1,-1,-1,-1],"split_conditions":[2E7,8E-1,2.9E1,4E6,2.8E1,5E7,-1.124084E-2,1E0,2.28E1,6.54E1,-5.491967E-2,4.1E-1,7.91E1,-1.2524189E-2,6.7254785E-3,1.819285E-3,-2.0901516E-2,-2.884612E-2,-7.4154586E-3,6.2518464E-3,2.4781251E-2,2.0798486E-2,2.735869E-3],"split_indices":[15,13,16,15,16,15,0,21,8,14,0,3,11,0,0,0,0,0,0,0,0,0,0],"split_type":[0,0,0,0,0,0,0,0,0,0,0,0,0,0,0,0,0,0,0,0,0,0,0],"sum_hessian":[3.38E2,2.64E2,7.4E1,2.5E2,1.4E1,7.1E1,3E0,5.6E1,1.94E2,1.2E1,2E0,5.8E1,1.3E1,4.3E1,1.3E1,1.86E2,8E0,4E0,8E0,5.5E1,3E0,1.1E1,2E0],"tree_param":{"num_deleted":"0","num_feature":"23","num_nodes":"23","size_leaf_vector":"1"}},{"base_weights":[-1.7607636E-3,-5.40811E-2,1.2754777E-1,-1.0160946E-1,1.6613832E-1,1.8869656E-1,3.987449E-2,-3.0413467E-1,-7.0407756E-2,-1.7232119E-1,2.2121528E-1,-8.80255E-2,2.2048488E-1,-2.0809451E-1,1.095835E-1,1.4228373E-2,-2.0705434E-2,1.8723411E-2,-4.115408E-3,-1.1531202E-2,4.437399E-3,1.3634269E-2,-5.7948115E-3,4.501498E-3,-1.220373E-2,5.453094E-3,1.583103E-2,4.6728016E-3,-1.7534066E-2,-3.3587858E-3,1.0236319E-2],"categories":[],"categories_nodes":[],"categories_segments":[],"categories_sizes":[],"default_left":[0,0,0,0,0,0,0,0,0,0,0,0,0,0,0,0,0,0,0,0,0,0,0,0,0,0,0,0,0,0,0],"id":46,"left_children":[1,3,5,7,9,11,13,15,17,19,21,23,25,27,29,-1,-1,-1,-1,-1,-1,-1,-1,-1,-1,-1,-1,-1,-1,-1,-1],"loss_changes":[2.4424658E0,2.7068148E0,5.500319E-1,1.3182425E0,8.956207E-1,5.5599666E-1,7.8337336E-1,1.9306161E0,1.0102491E0,1.2701494E-1,7.2564983E-1,2.1647176E-1,5.546138E-1,4.6274453E-1,6.0236096E-1,0E0,0E0,0E0,0E0,0E0,0E0,0E0,0E0,0E0,0E0,0E0,0E0,0E0,0E0,0E0,0E0],"parents":[2147483647,0,0,1,1,2,2,3,3,4,4,5,5,6,6,7,7,8,8,9,9,10,10,11,11,12,12,13,13,14,14],"right_children":[2,4,6,8,10,12,14,16,18,20,22,24,26,28,30,-1,-1,-1,-1,-1,-1,-1,-1,-1,-1,-1,-1,-1,-1,-1,-1],"split_conditions":[7.6E-1,1E0,3.37E1,5.29E1,3E-2,7.25E2,4.04E1,3.7E0,1.9E1,3E-2,1E-1,1.18E0,2E0,4E-1,6.2E-1,1.4228373E-2,-2.0705434E-2,1.8723411E-2,-4.115408E-3,-1.1531202E-2,4.437399E-3,1.3634269E-2,-5.7948115E-3,4.501498E-3,-1.220373E-2,5.453094E-3,1.583103E-2,4.6728016E-3,-1.7534066E-2,-3.3587858E-3,1.0236319E-2],"split_indices":[7,2,6,11,7,1,6,6,16,3,13,7,19,4,4,0,0,0,0,0,0,0,0,0,0,0,0,0,0,0,0],"split_type":[0,0,0,0,0,0,0,0,0,0,0,0,0,0,0,0,0,0,0,0,0,0,0,0,0,0,0,0,0,0,0],"sum_hessian":[3.59E2,2.56E2,1.03E2,2.11E2,4.5E1,6E1,4.3E1,2.7E1,1.84E2,6E0,3.9E1,6E0,5.4E1,9E0,3.4E1,4E0,2.3E1,4E0,1.8E2,5E0,1E0,3.4E1,5E0,3E0,3E0,2.6E1,2.8E1,3E0,6E0,1.2E1,2.2E1],"tree_param":{"num_deleted":"0","num_feature":"23","num_nodes":"31","size_leaf_vector":"1"}},{"base_weights":[-1.1388578E-2,-6.1395085E-1,4.138418E-3,-9.215727E-1,1.5424187E-2,-1.24613516E-1,7.8022316E-2,-1.0372888E0,-5.681896E-3,-8.965633E-1,-9.891421E-2,1.297562E-2,1.9413109E-1,-1.2357664E-2,-5.729426E-2,-1.8883578E-2,-6.1330963E-2,4.486621E-3,-8.519183E-3,4.1622175E-3,-5.284024E-3,-4.6274485E-3,1.30855935E-2],"categories":[],"categories_nodes":[],"categories_segments":[],"categories_sizes":[],"default_left":[0,0,0,0,0,0,0,0,0,0,0,0,0,0,0,0,0,0,0,0,0,0,0],"id":47,"left_children":[1,3,5,7,-1,9,11,13,-1,15,17,19,21,-1,-1,-1,-1,-1,-1,-1,-1,-1,-1],"loss_changes":[3.3519826E0,2.838139E0,3.3391657E0,5.3656244E-1,0E0,2.4506543E0,1.6816866E0,2.3162651E-1,0E0,2.2179413E-1,1.7005973E0,1.2094424E0,1.5741458E0,0E0,0E0,0E0,0E0,0E0,0E0,0E0,0E0,0E0,0E0],"parents":[2147483647,0,0,1,1,2,2,3,3,5,5,6,6,7,7,9,9,10,10,11,11,12,12],"right_children":[2,4,6,8,-1,10,12,14,-1,16,18,20,22,-1,-1,-1,-1,-1,-1,-1,-1,-1,-1],"split_conditions":[2E0,2.8E1,7E6,8.68E1,1.5424187E-2,2E0,8E0,1.2E6,-5.681896E-3,9E-2,2.3E1,2.6E1,1E0,-1.2357664E-2,-5.729426E-2,-1.8883578E-2,-6.1330963E-2,4.486621E-3,-8.519183E-3,4.1622175E-3,-5.284024E-3,-4.6274485E-3,1.30855935E-2],"split_indices":[0,16,15,9,0,18,18,15,0,3,16,16,19,0,0,0,0,0,0,0,0,0,0],"split_type":[0,0,0,0,0,0,0,0,0,0,0,0,0,0,0,0,0,0,0,0,0,0,0],"sum_hessian":[3.57E2,8E0,3.49E2,6E0,2E0,1.27E2,2.22E2,5E0,1E0,3E0,1.24E2,1.43E2,7.9E1,1E0,4E0,2E0,1E0,3.4E1,9E1,9E1,5.3E1,1.5E1,6.4E1],"tree_param":{"num_deleted":"0","num_feature":"23","num_nodes":"23","size_leaf_vector":"1"}},{"base_weights":[1.0796732E-2,-7.4534684E-1,2.4108687E-2,-5.912404E-2,4.2973678E-3,6.5280244E-2,-2.1047682E-1,4.841072E-2,3.9439297E-1,-7.699445E-1,-1.329272E-1,2.930814E-4,8.589024E-3,2.3530675E-2,4.309416E-3,-1.2793553E-2,-5.9936382E-2,-2.2719912E-2,-9.455313E-4],"categories":[],"categories_nodes":[],"categories_segments":[],"categories_sizes":[],"default_left":[0,0,0,0,0,0,0,0,0,0,0,0,0,0,0,0,0,0,0],"id":48,"left_children":[1,3,5,-1,-1,7,9,11,13,15,17,-1,-1,-1,-1,-1,-1,-1,-1],"loss_changes":[3.490653E0,2.2819526E0,3.2975452E0,0E0,0E0,1.5909799E0,2.1103659E0,1.4530411E0,2.8831983E-1,1.0158365E0,1.6774464E0,0E0,0E0,0E0,0E0,0E0,0E0,0E0,0E0],"parents":[2147483647,0,0,1,1,2,2,5,5,6,6,7,7,8,8,9,9,10,10],"right_children":[2,4,6,-1,-1,8,10,12,14,16,18,-1,-1,-1,-1,-1,-1,-1,-1],"split_conditions":[4.6E1,1E0,2.8E1,-5.912404E-2,4.2973678E-3,9.39E1,5.07E1,8.7E-1,2.701E3,6E-2,2.75E6,2.930814E-4,8.589024E-3,2.3530675E-2,4.309416E-3,-1.2793553E-2,-5.9936382E-2,-2.2719912E-2,-9.455313E-4],"split_indices":[1,20,16,0,0,9,11,7,1,3,15,0,0,0,0,0,0,0,0],"split_type":[0,0,0,0,0,0,0,0,0,0,0,0,0,0,0,0,0,0,0],"sum_hessian":[3.44E2,5E0,3.39E2,3E0,2E0,2.89E2,5E1,2.76E2,1.3E1,5E0,4.5E1,2.06E2,7E1,1E1,3E0,3E0,2E0,1.1E1,3.4E1],"tree_param":{"num_deleted":"0","num_feature":"23","num_nodes":"19","size_leaf_vector":"1"}},{"base_weights":[-2.0368587E-2,-1.699515E-1,4.4332705E-2,-1.2178447E-1,-6.2981E-1,-5.017643E-2,5.257122E-2,4.6120048E-1,-1.4480692E-1,-3.3455113E-1,-9.890604E-1,1.510624E-2,1.8142185E-1,2.6728297E-2,6.027603E-3,-1.3224745E-2,-1.2303158E-3,-1.8817194E-2,-2.0948648E-3,-1.3747073E-2,-5.6772646E-2,-6.32099E-3,2.5195458E-3,1.6678322E-2,5.028765E-3],"categories":[],"categories_nodes":[],"categories_segments":[],"categories_sizes":[],"default_left":[0,0,0,0,0,0,0,0,0,0,0,0,0,0,0,0,0,0,0,0,0,0,0,0,0],"id":49,"left_children":[1,3,5,7,9,-1,11,13,15,17,19,21,23,-1,-1,-1,-1,-1,-1,-1,-1,-1,-1,-1,-1],"loss_changes":[3.4626548E0,2.3155005E0,2.2109613E0,1.3955377E0,7.298274E-1,0E0,1.1992786E0,3.552425E-2,1.3746021E0,6.984782E-2,1.05983734E-1,9.751483E-1,6.5527177E-1,0E0,0E0,0E0,0E0,0E0,0E0,0E0,0E0,0E0,0E0,0E0,0E0],"parents":[2147483647,0,0,1,1,2,2,3,3,4,4,6,6,7,7,8,8,9,9,10,10,11,11,12,12],"right_children":[2,4,6,8,10,-1,12,14,16,18,20,22,24,-1,-1,-1,-1,-1,-1,-1,-1,-1,-1,-1,-1],"split_conditions":[5.4E6,4E1,5E0,1E0,3E1,-5.017643E-2,1E0,1.3E1,2.3E1,1.52E0,2.4E1,8.66E1,1.17E0,2.6728297E-2,6.027603E-3,-1.3224745E-2,-1.2303158E-3,-1.8817194E-2,-2.0948648E-3,-1.3747073E-2,-5.6772646E-2,-6.32099E-3,2.5195458E-3,1.6678322E-2,5.028765E-3],"split_indices":[15,6,1,17,16,0,7,0,0,7,0,9,7,0,0,0,0,0,0,0,0,0,0,0,0],"split_type":[0,0,0,0,0,0,0,0,0,0,0,0,0,0,0,0,0,0,0,0,0,0,0,0,0],"sum_hessian":[3.56E2,1.07E2,2.49E2,9.8E1,9E0,1E0,2.48E2,3E0,9.5E1,6E0,3E0,1.93E2,5.5E1,2E0,1E0,4.7E1,4.8E1,5E0,1E0,1E0,2E0,3.8E1,1.55E2,1.8E1,3.7E1],"tree_param":{"num_deleted":"0","num_feature":"23","num_nodes":"25","size_leaf_vector":"1"}},{"base_weights":[-9.362799E-3,2.7798528E-2,-2.2631794E-1,-1.1542779E-2,1.2651901E-1,-4.025556E-1,2.4293335E-2,2.5809169E-2,-2.2478852E-1,1.8868499E-1,2.2842783E-2,-5.670616E-1,-6.685786E-2,1.4229836E-1,-1.6196929E-1,1.9975095E-4,1.8326998E-2,-1.4854701E-2,1.1253997E-2,2.5827668E-3,1.3849824E-2,-7.2256597E-3,1.0484529E-2,-3.1076057E-2,1.1691714E-2,-9.825522E-3,1.04580885E-2,-9.08502E-3,1.0571993E-2,-9.374857E-3,1.0563374E-3],"categories":[],"categories_nodes":[],"categories_segments":[],"categories_sizes":[],"default_left":[0,0,0,0,0,0,0,0,0,0,0,0,0,0,0,0,0,0,0,0,0,0,0,0,0,0,0,0,0,0,0],"id":50,"left_children":[1,3,5,7,9,11,13,15,17,19,21,23,25,27,29,-1,-1,-1,-1,-1,-1,-1,-1,-1,-1,-1,-1,-1,-1,-1,-1],"loss_changes":[2.811986E0,1.1588306E0,2.2623045E0,1.7103424E0,5.435264E-1,1.6188159E0,5.0660634E-1,1.3587294E0,1.1077644E0,6.2705994E-1,1.062216E0,1.0176601E0,4.3475568E-1,3.5204324E-1,4.602763E-2,0E0,0E0,0E0,0E0,0E0,0E0,0E0,0E0,0E0,0E0,0E0,0E0,0E0,0E0,0E0,0E0],"parents":[2147483647,0,0,1,1,2,2,3,3,4,4,5,5,6,6,7,7,8,8,9,9,10,10,11,11,12,12,13,13,14,14],"right_children":[2,4,6,8,10,12,14,16,18,20,22,24,26,28,30,-1,-1,-1,-1,-1,-1,-1,-1,-1,-1,-1,-1,-1,-1,-1,-1],"split_conditions":[2.8E1,7.5E-1,6.5E6,1E0,3.37E1,4E0,1.2E-1,1E1,2E7,2E0,4.5E1,3.5E1,1E0,2.58E1,2.7E-1,1.9975095E-4,1.8326998E-2,-1.4854701E-2,1.1253997E-2,2.5827668E-3,1.3849824E-2,-7.2256597E-3,1.0484529E-2,-3.1076057E-2,1.1691714E-2,-9.825522E-3,1.04580885E-2,-9.08502E-3,1.0571993E-2,-9.374857E-3,1.0563374E-3],"split_indices":[16,7,15,20,6,19,3,18,15,19,6,0,2,6,3,0,0,0,0,0,0,0,0,0,0,0,0,0,0,0,0],"split_type":[0,0,0,0,0,0,0,0,0,0,0,0,0,0,0,0,0,0,0,0,0,0,0,0,0,0,0,0,0,0,0],"sum_hessian":[3.47E2,2.97E2,5E1,2.13E2,8.4E1,2.9E1,2.1E1,1.82E2,3.1E1,5.2E1,3.2E1,1.9E1,1E1,1.3E1,8E0,1.72E2,1E1,2.7E1,4E0,2.1E1,3.1E1,1.7E1,1.5E1,1.8E1,1E0,7E0,3E0,2E0,1.1E1,7E0,1E0],"tree_param":{"num_deleted":"0","num_feature":"23","num_nodes":"31","size_leaf_vector":"1"}},{"base_weights":[-7.4933353E-3,-1.7341039E-1,3.891893E-2,-1.1542348E-1,-6.0515183E-1,9.680722E-3,1.4547706E-1,-1.5021497E-1,2.8072166E-1,-1.7163134E-1,-5.520723E-2,-6.5286644E-3,2.3164424E-1,2.1058598E-1,1.4532588E-2,-8.898687E-3,1.5879977E-2,1.8320382E-2,3.644991E-3,1.2739754E-2,-1.53937815E-2,-3.1924464E-3,4.0464704E-3,1.4328337E-2,-1.3431764E-2,-6.0182216E-4,1.2908682E-2,-1.8481469E-2,2.611108E-3],"categories":[],"categories_nodes":[],"categories_segments":[],"categories_sizes":[],"default_left":[0,0,0,0,0,0,0,0,0,0,0,0,0,0,0,0,0,0,0,0,0,0,0,0,0,0,0,0,0],"id":51,"left_children":[1,3,5,7,9,11,13,15,17,19,-1,21,23,25,27,-1,-1,-1,-1,-1,-1,-1,-1,-1,-1,-1,-1,-1,-1],"loss_changes":[2.7481577E0,1.8829083E0,8.6783534E-1,1.0069424E0,1.7574067E0,7.930487E-1,5.0847876E-1,9.006113E-1,8.01335E-2,4.2703426E-1,0E0,1.0378699E0,4.8913085E-1,4.2687082E-1,3.2335973E-1,0E0,0E0,0E0,0E0,0E0,0E0,0E0,0E0,0E0,0E0,0E0,0E0,0E0,0E0],"parents":[2147483647,0,0,1,1,2,2,3,3,4,4,5,5,6,6,7,7,8,8,9,9,11,11,12,12,13,13,14,14],"right_children":[2,4,6,8,10,12,14,16,18,20,-1,22,24,26,28,-1,-1,-1,-1,-1,-1,-1,-1,-1,-1,-1,-1,-1,-1],"split_conditions":[5E6,3.1E1,9.6E-1,1.9E-1,1E-1,3.7E1,2.5E1,9.72E1,2.7E1,3.7E0,-5.520723E-2,1E0,5.21E2,6.5E6,-5E0,-8.898687E-3,1.5879977E-2,1.8320382E-2,3.644991E-3,1.2739754E-2,-1.53937815E-2,-3.1924464E-3,4.0464704E-3,1.4328337E-2,-1.3431764E-2,-6.0182216E-4,1.2908682E-2,-1.8481469E-2,2.611108E-3],"split_indices":[15,16,7,3,7,0,16,9,0,6,0,22,10,15,19,0,0,0,0,0,0,0,0,0,0,0,0,0,0],"split_type":[0,0,0,0,0,0,0,0,0,0,0,0,0,0,0,0,0,0,0,0,0,0,0,0,0,0,0,0,0],"sum_hessian":[3.55E2,7.7E1,2.78E2,6.9E1,8E0,2.19E2,5.9E1,6.4E1,5E0,5E0,3E0,2.05E2,1.4E1,3.9E1,2E1,6.1E1,3E0,3E0,2E0,1E0,4E0,1.24E2,8.1E1,1.3E1,1E0,7E0,3.2E1,1E0,1.9E1],"tree_param":{"num_deleted":"0","num_feature":"23","num_nodes":"29","size_leaf_vector":"1"}},{"base_weights":[-6.233652E-3,-7.504591E-2,1.2967974E-1,-2.806894E-1,-9.187504E-3,-9.08256E-2,1.7886138E-1,-4.5249343E-2,-2.2827658E-1,1.7697701E-2,-2.0846866E-1,5.57785E-3,-3.5162006E-2,4.4425994E-1,1.4629993E-1,-1.30850645E-2,2.0801783E-2,-1.9858504E-2,1.4214123E-3,-3.232476E-3,-2.7862081E-2,1.4324436E-2,-4.1277707E-3,1.4103842E-2,3.0850768E-2,2.2403563E-3,9.946555E-3],"categories":[],"categories_nodes":[],"categories_segments":[],"categories_sizes":[],"default_left":[0,0,0,0,0,0,0,0,0,0,0,0,0,0,0,0,0,0,0,0,0,0,0,0,0,0,0],"id":52,"left_children":[1,3,5,7,9,11,13,-1,15,17,19,21,-1,23,25,-1,-1,-1,-1,-1,-1,-1,-1,-1,-1,-1,-1],"loss_changes":[3.2550523E0,3.1259358E0,1.2850885E0,1.6257992E0,9.466472E-1,1.3027778E0,7.646141E-1,0E0,1.2502823E0,7.05765E-1,1.0173392E0,5.18803E-1,0E0,1.06134415E-1,4.5581293E-1,0E0,0E0,0E0,0E0,0E0,0E0,0E0,0E0,0E0,0E0,0E0,0E0],"parents":[2147483647,0,0,1,1,2,2,3,3,4,4,5,5,6,6,8,8,9,9,10,10,11,11,13,13,14,14],"right_children":[2,4,6,8,10,12,14,-1,16,18,20,22,-1,24,26,-1,-1,-1,-1,-1,-1,-1,-1,-1,-1,-1,-1],"split_conditions":[8E0,5E6,8.5E2,3E0,2.04E1,1.1E1,2E1,-4.5249343E-2,2.23E1,9.4E0,7E0,5E0,-3.5162006E-2,3.1E1,7.5E6,-1.30850645E-2,2.0801783E-2,-1.9858504E-2,1.4214123E-3,-3.232476E-3,-2.7862081E-2,1.4324436E-2,-4.1277707E-3,1.4103842E-2,3.0850768E-2,2.2403563E-3,9.946555E-3],"split_indices":[18,15,1,18,8,18,16,0,8,8,18,0,0,0,15,0,0,0,0,0,0,0,0,0,0,0,0],"split_type":[0,0,0,0,0,0,0,0,0,0,0,0,0,0,0,0,0,0,0,0,0,0,0,0,0,0,0],"sum_hessian":[3.46E2,2.3E2,1.16E2,5.5E1,1.75E2,2.1E1,9.5E1,3E0,5.2E1,1.55E2,2E1,1.9E1,2E0,9E0,8.6E1,5E1,2E0,3E0,1.52E2,1.5E1,5E0,4E0,1.5E1,6E0,3E0,3E1,5.6E1],"tree_param":{"num_deleted":"0","num_feature":"23","num_nodes":"27","size_leaf_vector":"1"}},{"base_weights":[-1.5083712E-2,-8.943963E-2,6.8769544E-2,-6.990935E-2,-6.669515E-1,4.7291555E-2,2.8182855E-1,-4.88827E-2,-5.9492785E-2,-1.6894531E-1,-5.543213E-2,3.6884472E-1,3.155071E-2,3.4884533E-1,1.032114E-2,-7.900778E-3,9.181622E-4,4.0240767E-3,-1.3945739E-2,2.5809502E-2,6.46441E-3,8.2923425E-4,1.4382076E-2,1.9190494E-2,-8.9411734E-4,7.17001E-3,-4.0919306E-3],"categories":[],"categories_nodes":[],"categories_segments":[],"categories_sizes":[],"default_left":[0,0,0,0,0,0,0,0,0,0,0,0,0,0,0,0,0,0,0,0,0,0,0,0,0,0,0],"id":53,"left_children":[1,3,5,7,9,11,13,-1,15,17,-1,19,21,23,25,-1,-1,-1,-1,-1,-1,-1,-1,-1,-1,-1,-1],"loss_changes":[2.200866E0,2.062541E0,7.463011E-1,1.6627529E0,1.1324892E0,7.5771356E-1,2.6933265E-1,0E0,1.3912789E0,1.321648E-1,0E0,1.8034548E-1,5.547981E-1,1.607331E-1,6.0793802E-2,0E0,0E0,0E0,0E0,0E0,0E0,0E0,0E0,0E0,0E0,0E0,0E0],"parents":[2147483647,0,0,1,1,2,2,3,3,4,4,5,5,6,6,8,8,9,9,11,11,12,12,13,13,14,14],"right_children":[2,4,6,8,10,12,14,-1,16,18,-1,20,22,24,26,-1,-1,-1,-1,-1,-1,-1,-1,-1,-1,-1,-1],"split_conditions":[9E6,8E-1,5E7,5E0,1.9E1,1.11E1,8.7E-1,-4.88827E-2,2E0,8.8E2,-5.543213E-2,1.1E7,1E1,3.7E-1,2.782E3,-7.900778E-3,9.181622E-4,4.0240767E-3,-1.3945739E-2,2.5809502E-2,6.46441E-3,8.2923425E-4,1.4382076E-2,1.9190494E-2,-8.9411734E-4,7.17001E-3,-4.0919306E-3],"split_indices":[15,13,15,1,5,6,4,0,19,1,0,15,18,3,1,0,0,0,0,0,0,0,0,0,0,0,0],"split_type":[0,0,0,0,0,0,0,0,0,0,0,0,0,0,0,0,0,0,0,0,0,0,0,0,0,0,0],"sum_hessian":[3.51E2,1.86E2,1.65E2,1.81E2,5E0,1.51E2,1.4E1,1E0,1.8E2,3E0,2E0,6E0,1.45E2,1.1E1,3E0,7.9E1,1.01E2,1E0,2E0,3E0,3E0,1.38E2,7E0,1E1,1E0,1E0,2E0],"tree_param":{"num_deleted":"0","num_feature":"23","num_nodes":"27","size_leaf_vector":"1"}},{"base_weights":[-1.649958E-2,-7.17739E-1,-2.3059926E-3,-8.926317E-1,8.290434E-3,3.1404775E-2,-2.2924058E-1,-5.207199E-2,-3.7147761E-3,-1.9829744E-2,1.202053E-1,-4.109881E-1,-3.752609E-2,1.3652182E-2,-2.2130713E-3,2.288548E-3,8.809532E-3,-2.6812768E-2,-2.4027552E-3,3.0239106E-3,-1.3508784E-2],"categories":[],"categories_nodes":[],"categories_segments":[],"categories_sizes":[],"default_left":[0,0,0,0,0,0,0,0,0,0,0,0,0,0,0,0,0,0,0,0,0],"id":54,"left_children":[1,3,5,7,-1,9,11,-1,-1,13,15,17,19,-1,-1,-1,-1,-1,-1,-1,-1],"loss_changes":[3.5117903E0,1.2296884E0,2.6617978E0,6.5327597E-1,0E0,1.3809283E0,1.5525405E0,0E0,0E0,1.3930753E0,4.5449853E-1,1.0198934E0,5.407549E-1,0E0,0E0,0E0,0E0,0E0,0E0,0E0,0E0],"parents":[2147483647,0,0,1,1,2,2,3,3,5,5,6,6,9,9,10,10,11,11,12,12],"right_children":[2,4,6,8,-1,10,12,-1,-1,14,16,18,20,-1,-1,-1,-1,-1,-1,-1,-1],"split_conditions":[2E0,2.8E1,2.8E1,8.68E1,8.290434E-3,1.3E7,5.4E6,-5.207199E-2,-3.7147761E-3,2E1,2.302E3,1E0,8.2E1,1.3652182E-2,-2.2130713E-3,2.288548E-3,8.809532E-3,-2.6812768E-2,-2.4027552E-3,3.0239106E-3,-1.3508784E-2],"split_indices":[0,16,16,9,0,15,15,0,0,16,1,2,10,0,0,0,0,0,0,0,0],"split_type":[0,0,0,0,0,0,0,0,0,0,0,0,0,0,0,0,0,0,0,0,0],"sum_hessian":[3.52E2,6E0,3.46E2,5E0,1E0,3.02E2,4.4E1,4E0,1E0,1.92E2,1.1E2,2.2E1,2.2E1,1.4E1,1.78E2,4.8E1,6.2E1,1.6E1,6E0,1.6E1,6E0],"tree_param":{"num_deleted":"0","num_feature":"23","num_nodes":"21","size_leaf_vector":"1"}},{"base_weights":[5.18989E-3,6.0866196E-2,-6.736997E-2,-6.7725706E-1,7.569505E-2,-2.737656E-1,-2.8448533E-2,-4.635885E-2,-1.4244573E-2,3.284069E-1,6.1701432E-2,-5.7289046E-1,-5.6097984E-2,2.5201437E-1,-4.90743E-2,2.4110802E-2,3.9077285E-3,-4.8189987E-3,4.12025E-3,-9.091083E-3,-4.637975E-2,1.6142998E-2,-1.1162589E-2,2.0933462E-2,4.9454374E-3,-1.2929195E-3,-1.1997792E-2],"categories":[],"categories_nodes":[],"categories_segments":[],"categories_sizes":[],"default_left":[0,0,0,0,0,0,0,0,0,0,0,0,0,0,0,0,0,0,0,0,0,0,0,0,0,0,0],"id":55,"left_children":[1,3,5,7,9,11,13,-1,-1,15,17,19,21,23,25,-1,-1,-1,-1,-1,-1,-1,-1,-1,-1,-1,-1],"loss_changes":[1.4140135E0,2.2184784E0,1.2132604E0,1.2809515E-1,6.6932595E-1,1.5304972E0,7.5860167E-1,0E0,0E0,3.4722364E-1,6.166923E-1,1.2184813E0,1.0222429E0,1.8823218E-1,5.300052E-1,0E0,0E0,0E0,0E0,0E0,0E0,0E0,0E0,0E0,0E0,0E0,0E0],"parents":[2147483647,0,0,1,1,2,2,3,3,4,4,5,5,6,6,9,9,10,10,11,11,12,12,13,13,14,14],"right_children":[2,4,6,8,10,12,14,-1,-1,16,18,20,22,24,26,-1,-1,-1,-1,-1,-1,-1,-1,-1,-1,-1,-1],"split_conditions":[2.5E1,4.6E1,2.77E1,5E0,7.4E0,1.438E3,5.8E1,-4.635885E-2,-1.4244573E-2,8.83E1,5.27E1,1.036E3,2.47E3,1E1,1.24E2,2.4110802E-2,3.9077285E-3,-4.8189987E-3,4.12025E-3,-9.091083E-3,-4.637975E-2,1.6142998E-2,